%YAML:1.0
---
opencv_ml_svm:
   format: 3
   svmType: C_SVC
   kernel:
      type: RBF
      gamma: 1.
   C: 1.
   term_criteria: { epsilon:1.1920928955078125e-07, iterations:1000 }
   var_count: 6
   class_count: 9
   class_labels: !!opencv-matrix
      rows: 9
      cols: 1
      dt: i
      data: [ 0, 1, 2, 3, 4, 5, 6, 7, 8 ]
   sv_total: 515
   support_vectors:
      - [ 17., 20., 18., 19., 13., 18. ]
      - [ 93., 40., 35., 24., 78., 69. ]
      - [ 11., 19., 10., 11., 7., 11. ]
      - [ 43., 56., 25., 30., 38., 33. ]
      - [ 73., 39., 34., 34., 49., 41. ]
      - [ 21., 32., 15., 19., 31., 21. ]
      - [ 55., 46., 28., 27., 51., 33. ]
      - [ 18., 25., 17., 24., 9., 13. ]
      - [ 55., 25., 23., 28., 63., 44. ]
      - [ 41., 43., 13., 25., 38., 23. ]
      - [ 20., 35., 9., 11., 31., 24. ]
      - [ 25., 20., 18., 13., 34., 16. ]
      - [ 36., 60., 24., 22., 51., 20. ]
      - [ 49., 30., 22., 22., 33., 50. ]
      - [ 23., 55., 18., 15., 18., 42. ]
      - [ 17., 36., 7., 12., 31., 6. ]
      - [ 36., 33., 16., 14., 40., 54. ]
      - [ 36., 60., 30., 19., 23., 27. ]
      - [ 33., 23., 13., 19., 43., 15. ]
      - [ 59., 30., 18., 26., 27., 22. ]
      - [ 41., 16., 8., 8., 22., 18. ]
      - [ 39., 56., 15., 13., 32., 27. ]
      - [ 45., 26., 17., 20., 16., 38. ]
      - [ 32., 25., 18., 13., 43., 38. ]
      - [ 59., 46., 36., 31., 62., 37. ]
      - [ 13., 31., 11., 19., 21., 37. ]
      - [ 67., 61., 55., 60., 67., 75. ]
      - [ 32., 38., 24., 24., 41., 22. ]
      - [ 98., 38., 22., 25., 42., 33. ]
      - [ 24., 45., 15., 16., 26., 38. ]
      - [ 61., 27., 17., 12., 24., 31. ]
      - [ 34., 28., 8., 17., 34., 17. ]
      - [ 48., 36., 25., 26., 33., 37. ]
      - [ 67., 54., 27., 18., 37., 36. ]
      - [ 37., 20., 19., 16., 25., 17. ]
      - [ 34., 22., 17., 18., 33., 20. ]
      - [ 36., 44., 21., 17., 23., 23. ]
      - [ 27., 25., 14., 16., 20., 22. ]
      - [ 73., 41., 34., 32., 44., 36. ]
      - [ 49., 24., 27., 23., 64., 42. ]
      - [ 25., 38., 7., 15., 28., 30. ]
      - [ 65., 33., 26., 27., 39., 22. ]
      - [ 68., 61., 28., 35., 59., 41. ]
      - [ 56., 45., 27., 27., 40., 36. ]
      - [ 10., 50., 9., 9., 26., 12. ]
      - [ 43., 47., 18., 17., 24., 36. ]
      - [ 20., 28., 10., 10., 11., 19. ]
      - [ 50., 25., 20., 20., 24., 33. ]
      - [ 30., 27., 14., 16., 31., 17. ]
      - [ 8., 31., 6., 8., 41., 15. ]
      - [ 20., 28., 6., 6., 27., 7. ]
      - [ 39., 33., 10., 20., 37., 27. ]
      - [ 40., 34., 21., 21., 19., 44. ]
      - [ 133., 43., 57., 66., 59., 30. ]
      - [ 16., 33., 18., 7., 26., 23. ]
      - [ 31., 43., 12., 17., 30., 21. ]
      - [ 51., 39., 20., 19., 42., 41. ]
      - [ 35., 29., 8., 16., 38., 29. ]
      - [ 6., 13., 6., 11., 14., 16. ]
      - [ 62., 40., 26., 21., 42., 31. ]
      - [ 31., 51., 17., 23., 23., 6. ]
      - [ 35., 45., 17., 12., 24., 21. ]
      - [ 21., 19., 6., 17., 18., 2. ]
      - [ 52., 53., 22., 24., 20., 12. ]
      - [ 97., 52., 60., 58., 27., 21. ]
      - [ 27., 44., 22., 17., 33., 27. ]
      - [ 100., 32., 39., 48., 46., 30. ]
      - [ 103., 54., 67., 58., 25., 17. ]
      - [ 87., 68., 43., 41., 38., 30. ]
      - [ 30., 82., 30., 37., 28., 17. ]
      - [ 32., 47., 17., 13., 24., 16. ]
      - [ 49., 49., 26., 24., 17., 22. ]
      - [ 86., 67., 38., 41., 44., 26. ]
      - [ 86., 68., 61., 60., 64., 56. ]
      - [ 74., 97., 34., 33., 24., 37. ]
      - [ 36., 51., 20., 19., 21., 11. ]
      - [ 58., 23., 30., 29., 14., 27. ]
      - [ 167., 79., 96., 72., 62., 50. ]
      - [ 46., 66., 25., 23., 10., 16. ]
      - [ 28., 49., 17., 16., 23., 6. ]
      - [ 59., 35., 35., 37., 34., 34. ]
      - [ 60., 33., 29., 37., 50., 41. ]
      - [ 55., 44., 21., 20., 30., 22. ]
      - [ 64., 38., 47., 30., 52., 23. ]
      - [ 38., 38., 23., 27., 31., 26. ]
      - [ 36., 42., 26., 28., 38., 31. ]
      - [ 37., 62., 25., 25., 18., 25. ]
      - [ 53., 51., 26., 19., 23., 30. ]
      - [ 113., 109., 49., 51., 53., 39. ]
      - [ 87., 64., 42., 39., 63., 56. ]
      - [ 124., 51., 64., 64., 41., 27. ]
      - [ 138., 77., 65., 60., 60., 33. ]
      - [ 59., 30., 36., 43., 40., 12. ]
      - [ 104., 65., 51., 53., 109., 126. ]
      - [ 74., 36., 49., 40., 26., 22. ]
      - [ 253., 101., 130., 145., 81., 117. ]
      - [ 32., 50., 17., 28., 33., 21. ]
      - [ 172., 112., 97., 96., 96., 66. ]
      - [ 27., 31., 15., 13., 7., 7. ]
      - [ 42., 17., 26., 31., 20., 14. ]
      - [ 23., 23., 15., 11., 7., 1. ]
      - [ 200., 14., 88., 80., 53., 35. ]
      - [ 86., 69., 53., 47., 71., 55. ]
      - [ 74., 49., 48., 43., 26., 19. ]
      - [ 41., 60., 36., 31., 63., 29. ]
      - [ 109., 146., 74., 92., 76., 52. ]
      - [ 58., 53., 35., 34., 27., 20. ]
      - [ 201., 86., 97., 94., 82., 65. ]
      - [ 61., 54., 33., 34., 16., 5. ]
      - [ 58., 10., 39., 35., 26., 14. ]
      - [ 359., 61., 157., 158., 112., 101. ]
      - [ 143., 81., 45., 65., 58., 82. ]
      - [ 69., 39., 38., 55., 36., 20. ]
      - [ 43., 69., 39., 47., 47., 22. ]
      - [ 157., 33., 84., 72., 46., 78. ]
      - [ 25., 12., 8., 7., 4., 1. ]
      - [ 23., 56., 18., 19., 12., 18. ]
      - [ 65., 45., 34., 44., 25., 12. ]
      - [ 253., 61., 132., 159., 90., 102. ]
      - [ 77., 40., 42., 51., 51., 34. ]
      - [ 26., 72., 16., 19., 2., 5. ]
      - [ 53., 18., 30., 36., 18., 5. ]
      - [ 12., 14., 5., 7., 3., 11. ]
      - [ 48., 26., 28., 39., 30., 19. ]
      - [ 59., 85., 42., 39., 71., 25. ]
      - [ 131., 69., 74., 71., 57., 58. ]
      - [ 90., 53., 52., 63., 54., 41. ]
      - [ 64., 28., 30., 32., 6., 11. ]
      - [ 49., 20., 20., 17., 15., 16. ]
      - [ 33., 61., 30., 38., 12., 6. ]
      - [ 36., 52., 42., 28., 33., 39. ]
      - [ 7., 15., 5., 9., 3., 6. ]
      - [ 13., 15., 10., 7., 9., 4. ]
      - [ 53., 88., 37., 37., 64., 44. ]
      - [ 57., 21., 41., 55., 35., 25. ]
      - [ 117., 100., 63., 59., 47., 64. ]
      - [ 67., 14., 32., 48., 35., 20. ]
      - [ 110., 41., 66., 52., 27., 41. ]
      - [ 219., 27., 77., 70., 39., 93. ]
      - [ 503., 32., 188., 198., 109., 102. ]
      - [ 45., 34., 13., 10., 17., 6. ]
      - [ 20., 32., 18., 21., 18., 10. ]
      - [ 125., 40., 57., 66., 32., 23. ]
      - [ 88., 10., 62., 57., 32., 23. ]
      - [ 224., 46., 120., 119., 48., 43. ]
      - [ 88., 31., 38., 45., 20., 19. ]
      - [ 133., 15., 84., 61., 42., 29. ]
      - [ 21., 19., 20., 17., 6., 10. ]
      - [ 62., 46., 31., 36., 13., 13. ]
      - [ 141., 59., 50., 61., 44., 42. ]
      - [ 55., 55., 38., 39., 38., 26. ]
      - [ 270., 35., 141., 156., 118., 96. ]
      - [ 62., 17., 21., 22., 22., 15. ]
      - [ 392., 62., 163., 189., 144., 136. ]
      - [ 41., 89., 35., 30., 33., 36. ]
      - [ 62., 12., 33., 25., 35., 33. ]
      - [ 85., 81., 42., 36., 53., 63. ]
      - [ 19., 14., 13., 17., 63., 23. ]
      - [ 124., 84., 85., 75., 61., 58. ]
      - [ 261., 49., 106., 140., 55., 32. ]
      - [ 35., 21., 13., 15., 14., 11. ]
      - [ 36., 12., 24., 35., 35., 35. ]
      - [ 75., 81., 50., 81., 154., 67. ]
      - [ 72., 84., 57., 51., 37., 10. ]
      - [ 12., 22., 15., 18., 14., 2. ]
      - [ 110., 43., 60., 57., 23., 35. ]
      - [ 111., 89., 77., 82., 41., 55. ]
      - [ 11., 21., 10., 10., 4., 3. ]
      - [ 27., 45., 22., 30., 30., 16. ]
      - [ 2., 21., 3., 5., 3., 2. ]
      - [ 159., 107., 80., 70., 71., 66. ]
      - [ 21., 37., 11., 18., 13., 13. ]
      - [ 112., 35., 63., 75., 62., 42. ]
      - [ 78., 38., 37., 45., 22., 8. ]
      - [ 86., 72., 59., 71., 32., 26. ]
      - [ 28., 41., 15., 10., 13., 15. ]
      - [ 41., 54., 24., 20., 43., 20. ]
      - [ 242., 52., 106., 131., 70., 77. ]
      - [ 42., 63., 28., 33., 47., 47. ]
      - [ 78., 64., 45., 41., 39., 34. ]
      - [ 8., 25., 4., 7., 3., 3. ]
      - [ 129., 26., 80., 63., 12., 19. ]
      - [ 121., 39., 74., 69., 61., 19. ]
      - [ 24., 54., 21., 19., 11., 9. ]
      - [ 87., 49., 49., 52., 38., 17. ]
      - [ 30., 29., 12., 16., 32., 20. ]
      - [ 153., 44., 71., 72., 42., 20. ]
      - [ 244., 38., 120., 125., 44., 24. ]
      - [ 78., 102., 68., 56., 20., 30. ]
      - [ 153., 78., 71., 66., 63., 42. ]
      - [ 8., 6., 2., 3., 5., 1. ]
      - [ 61., 42., 33., 31., 41., 16. ]
      - [ 11., 14., 2., 5., 3., 1. ]
      - [ 26., 41., 6., 8., 21., 4. ]
      - [ 39., 38., 27., 29., 30., 73. ]
      - [ 6., 12., 5., 5., 6., 1. ]
      - [ 15., 37., 6., 7., 19., 10. ]
      - [ 7., 14., 3., 5., 2., 1. ]
      - [ 22., 37., 8., 12., 24., 15. ]
      - [ 60., 59., 26., 42., 68., 60. ]
      - [ 27., 30., 25., 21., 51., 31. ]
      - [ 66., 50., 34., 41., 90., 48. ]
      - [ 33., 38., 43., 44., 36., 150. ]
      - [ 49., 43., 37., 29., 50., 27. ]
      - [ 15., 48., 9., 14., 13., 11. ]
      - [ 36., 35., 16., 20., 10., 7. ]
      - [ 53., 3., 8., 9., 25., 6. ]
      - [ 14., 25., 8., 10., 12., 0. ]
      - [ 28., 68., 15., 18., 26., 27. ]
      - [ 35., 34., 13., 14., 38., 20. ]
      - [ 20., 22., 9., 13., 21., 14. ]
      - [ 27., 27., 10., 17., 42., 20. ]
      - [ 66., 93., 26., 34., 52., 29. ]
      - [ 26., 31., 10., 10., 24., 10. ]
      - [ 37., 24., 18., 14., 34., 9. ]
      - [ 64., 27., 28., 26., 47., 23. ]
      - [ 40., 31., 17., 18., 71., 58. ]
      - [ 52., 32., 16., 20., 33., 18. ]
      - [ 45., 54., 18., 18., 26., 14. ]
      - [ 15., 18., 19., 26., 19., 4. ]
      - [ 18., 27., 17., 12., 34., 38. ]
      - [ 11., 20., 5., 4., 12., 4. ]
      - [ 9., 37., 4., 2., 5., 0. ]
      - [ 23., 27., 13., 17., 41., 27. ]
      - [ 26., 14., 14., 23., 19., 20. ]
      - [ 37., 45., 17., 21., 41., 44. ]
      - [ 13., 20., 18., 18., 40., 20. ]
      - [ 37., 37., 12., 10., 30., 2. ]
      - [ 14., 34., 0., 9., 11., 11. ]
      - [ 66., 79., 32., 20., 81., 40. ]
      - [ 25., 33., 14., 10., 61., 58. ]
      - [ 30., 18., 15., 23., 43., 23. ]
      - [ 25., 44., 25., 21., 48., 40. ]
      - [ 8., 2., 11., 4., 6., 11. ]
      - [ 20., 24., 15., 11., 16., 4. ]
      - [ 60., 44., 36., 25., 66., 23. ]
      - [ 6., 4., 2., 2., 15., 3. ]
      - [ 16., 13., 8., 14., 7., 16. ]
      - [ 32., 38., 29., 22., 39., 49. ]
      - [ 30., 36., 13., 14., 55., 44. ]
      - [ 12., 6., 7., 5., 16., 8. ]
      - [ 41., 62., 20., 26., 33., 51. ]
      - [ 13., 41., 12., 12., 83., 78. ]
      - [ 13., 12., 9., 8., 14., 6. ]
      - [ 36., 51., 13., 25., 25., 34. ]
      - [ 12., 23., 9., 8., 16., 4. ]
      - [ 15., 23., 9., 9., 28., 19. ]
      - [ 15., 8., 9., 6., 8., 5. ]
      - [ 5., 20., 5., 9., 17., 10. ]
      - [ 14., 23., 8., 4., 23., 9. ]
      - [ 31., 34., 27., 24., 42., 36. ]
      - [ 6., 8., 3., 4., 14., 0. ]
      - [ 21., 31., 16., 15., 18., 19. ]
      - [ 11., 29., 3., 3., 18., 21. ]
      - [ 6., 18., 7., 7., 19., 11. ]
      - [ 13., 11., 9., 8., 6., 14. ]
      - [ 3., 2., 1., 1., 7., 1. ]
      - [ 14., 26., 4., 8., 14., 1. ]
      - [ 12., 5., 28., 26., 10., 13. ]
      - [ 25., 17., 12., 14., 45., 35. ]
      - [ 20., 49., 6., 9., 26., 16. ]
      - [ 49., 34., 24., 17., 36., 29. ]
      - [ 10., 22., 10., 14., 48., 47. ]
      - [ 12., 35., 8., 7., 29., 19. ]
      - [ 22., 20., 7., 8., 27., 12. ]
      - [ 16., 35., 13., 12., 20., 32. ]
      - [ 18., 36., 16., 25., 36., 23. ]
      - [ 29., 45., 27., 29., 16., 8. ]
      - [ 25., 7., 8., 15., 12., 19. ]
      - [ 58., 72., 38., 44., 49., 46. ]
      - [ 5., 2., 1., 1., 5., 7. ]
      - [ 14., 15., 6., 9., 15., 20. ]
      - [ 21., 4., 11., 8., 14., 25. ]
      - [ 22., 49., 14., 14., 32., 29. ]
      - [ 11., 28., 6., 9., 17., 1. ]
      - [ 9., 18., 1., 1., 7., 11. ]
      - [ 16., 30., 6., 11., 62., 15. ]
      - [ 8., 23., 5., 9., 22., 15. ]
      - [ 22., 56., 12., 8., 43., 27. ]
      - [ 28., 24., 8., 9., 14., 4. ]
      - [ 4., 22., 11., 8., 23., 40. ]
      - [ 29., 17., 12., 16., 33., 28. ]
      - [ 19., 45., 14., 10., 18., 21. ]
      - [ 29., 43., 16., 14., 34., 12. ]
      - [ 25., 18., 9., 10., 21., 6. ]
      - [ 14., 41., 4., 6., 26., 13. ]
      - [ 15., 23., 19., 12., 41., 31. ]
      - [ 11., 18., 9., 9., 14., 20. ]
      - [ 21., 25., 5., 8., 31., 27. ]
      - [ 2., 11., 4., 7., 11., 4. ]
      - [ 10., 8., 7., 7., 9., 6. ]
      - [ 7., 11., 5., 6., 25., 15. ]
      - [ 10., 16., 10., 10., 41., 9. ]
      - [ 17., 11., 3., 12., 16., 14. ]
      - [ 1., 10., 7., 1., 34., 18. ]
      - [ 19., 28., 9., 11., 13., 3. ]
      - [ 11., 20., 16., 9., 14., 4. ]
      - [ 9., 9., 4., 5., 9., 1. ]
      - [ 19., 12., 9., 7., 29., 23. ]
      - [ 40., 20., 34., 40., 37., 45. ]
      - [ 14., 16., 3., 5., 11., 13. ]
      - [ 12., 10., 4., 2., 21., 3. ]
      - [ 44., 68., 29., 31., 63., 47. ]
      - [ 6., 18., 5., 1., 8., 5. ]
      - [ 17., 13., 14., 10., 26., 3. ]
      - [ 15., 15., 10., 15., 56., 31. ]
      - [ 11., 22., 3., 6., 13., 14. ]
      - [ 23., 30., 5., 4., 18., 8. ]
      - [ 12., 36., 9., 9., 5., 16. ]
      - [ 24., 17., 11., 15., 18., 6. ]
      - [ 42., 44., 29., 32., 45., 50. ]
      - [ 32., 18., 15., 16., 20., 15. ]
      - [ 50., 40., 23., 32., 47., 21. ]
      - [ 35., 38., 29., 31., 7., 25. ]
      - [ 100., 57., 58., 52., 14., 19. ]
      - [ 2., 5., 5., 4., 1., 2. ]
      - [ 41., 90., 35., 47., 40., 74. ]
      - [ 12., 5., 12., 10., 11., 12. ]
      - [ 26., 2., 16., 27., 4., 8. ]
      - [ 36., 12., 18., 10., 19., 13. ]
      - [ 21., 27., 38., 29., 6., 25. ]
      - [ 11., 27., 3., 3., 17., 19. ]
      - [ 37., 35., 36., 37., 22., 50. ]
      - [ 4., 4., 3., 2., 0., 1. ]
      - [ 1., 0., 0., 0., 0., 1. ]
      - [ 42., 36., 36., 32., 14., 34. ]
      - [ 6., 17., 3., 2., 50., 57. ]
      - [ 8., 8., 10., 12., 2., 20. ]
      - [ 22., 46., 14., 16., 5., 12. ]
      - [ 4., 5., 2., 5., 6., 11. ]
      - [ 3., 13., 6., 4., 1., 6. ]
      - [ 51., 22., 58., 45., 13., 40. ]
      - [ 6., 32., 5., 8., 21., 17. ]
      - [ 8., 8., 6., 12., 1., 2. ]
      - [ 32., 37., 22., 24., 20., 36. ]
      - [ 9., 55., 19., 12., 16., 17. ]
      - [ 106., 51., 83., 83., 21., 11. ]
      - [ 9., 36., 8., 12., 20., 20. ]
      - [ 12., 26., 14., 14., 11., 38. ]
      - [ 37., 45., 30., 26., 57., 50. ]
      - [ 25., 24., 23., 23., 11., 12. ]
      - [ 1., 20., 0., 2., 27., 7. ]
      - [ 27., 30., 29., 20., 5., 27. ]
      - [ 61., 20., 54., 45., 7., 25. ]
      - [ 19., 23., 22., 23., 3., 8. ]
      - [ 0., 4., 1., 0., 0., 0. ]
      - [ 84., 71., 60., 53., 52., 99. ]
      - [ 14., 43., 9., 9., 4., 40. ]
      - [ 35., 69., 33., 31., 50., 40. ]
      - [ 66., 35., 38., 51., 34., 33. ]
      - [ 34., 86., 27., 36., 12., 26. ]
      - [ 14., 28., 20., 17., 14., 16. ]
      - [ 1., 5., 0., 1., 5., 8. ]
      - [ 35., 59., 31., 38., 20., 19. ]
      - [ 28., 18., 25., 15., 1., 11. ]
      - [ 2., 13., 1., 7., 0., 3. ]
      - [ 9., 30., 12., 12., 6., 16. ]
      - [ 160., 72., 100., 97., 65., 32. ]
      - [ 6., 28., 8., 6., 5., 13. ]
      - [ 74., 31., 43., 36., 25., 30. ]
      - [ 27., 45., 31., 26., 8., 26. ]
      - [ 8., 25., 6., 6., 21., 15. ]
      - [ 5., 29., 12., 7., 5., 13. ]
      - [ 105., 73., 64., 73., 26., 54. ]
      - [ 2., 11., 1., 0., 2., 3. ]
      - [ 0., 2., 1., 0., 2., 17. ]
      - [ 35., 41., 21., 32., 14., 23. ]
      - [ 6., 37., 12., 9., 4., 2. ]
      - [ 91., 67., 46., 43., 57., 84. ]
      - [ 99., 46., 64., 56., 40., 72. ]
      - [ 55., 65., 36., 36., 12., 52. ]
      - [ 22., 40., 17., 11., 73., 95. ]
      - [ 54., 40., 48., 55., 15., 42. ]
      - [ 111., 45., 82., 82., 45., 46. ]
      - [ 34., 57., 23., 28., 12., 33. ]
      - [ 35., 41., 16., 24., 15., 33. ]
      - [ 65., 72., 40., 62., 33., 58. ]
      - [ 33., 64., 22., 19., 20., 47. ]
      - [ 32., 65., 18., 27., 26., 50. ]
      - [ 6., 13., 9., 7., 0., 6. ]
      - [ 38., 12., 16., 22., 8., 18. ]
      - [ 4., 32., 15., 9., 9., 60. ]
      - [ 8., 19., 5., 4., 15., 15. ]
      - [ 77., 76., 60., 54., 17., 46. ]
      - [ 33., 47., 37., 29., 9., 23. ]
      - [ 3., 24., 4., 0., 3., 5. ]
      - [ 101., 69., 65., 59., 20., 47. ]
      - [ 22., 65., 21., 24., 17., 17. ]
      - [ 6., 28., 5., 1., 12., 7. ]
      - [ 11., 14., 5., 5., 10., 4. ]
      - [ 62., 61., 37., 42., 22., 38. ]
      - [ 65., 55., 47., 50., 56., 63. ]
      - [ 8., 17., 5., 11., 17., 29. ]
      - [ 17., 21., 8., 12., 3., 2. ]
      - [ 20., 57., 19., 18., 8., 23. ]
      - [ 80., 69., 50., 61., 48., 21. ]
      - [ 8., 29., 11., 16., 1., 10. ]
      - [ 23., 65., 24., 18., 18., 41. ]
      - [ 13., 19., 6., 7., 20., 4. ]
      - [ 68., 33., 43., 52., 34., 25. ]
      - [ 0., 1., 0., 1., 0., 2. ]
      - [ 0., 6., 2., 1., 1., 8. ]
      - [ 19., 20., 15., 12., 10., 15. ]
      - [ 1., 3., 5., 2., 2., 14. ]
      - [ 69., 56., 34., 44., 34., 74. ]
      - [ 16., 18., 7., 6., 11., 6. ]
      - [ 113., 44., 65., 69., 39., 13. ]
      - [ 6., 27., 6., 1., 13., 2. ]
      - [ 5., 24., 4., 6., 8., 6. ]
      - [ 24., 46., 15., 20., 10., 8. ]
      - [ 12., 21., 1., 5., 4., 7. ]
      - [ 56., 45., 62., 54., 53., 61. ]
      - [ 11., 50., 2., 7., 3., 5. ]
      - [ 3., 11., 1., 2., 1., 0. ]
      - [ 47., 74., 28., 31., 15., 14. ]
      - [ 10., 13., 13., 14., 16., 4. ]
      - [ 5., 13., 2., 2., 1., 3. ]
      - [ 20., 9., 17., 19., 11., 26. ]
      - [ 59., 62., 21., 26., 38., 28. ]
      - [ 52., 51., 18., 15., 17., 20. ]
      - [ 3., 46., 6., 3., 11., 1. ]
      - [ 51., 60., 22., 24., 15., 13. ]
      - [ 110., 85., 62., 68., 57., 63. ]
      - [ 70., 45., 41., 39., 35., 6. ]
      - [ 91., 60., 29., 33., 34., 31. ]
      - [ 15., 50., 9., 13., 12., 6. ]
      - [ 4., 15., 5., 7., 5., 0. ]
      - [ 31., 65., 18., 13., 22., 32. ]
      - [ 83., 53., 40., 42., 38., 36. ]
      - [ 4., 11., 3., 1., 4., 1. ]
      - [ 15., 41., 14., 12., 20., 2. ]
      - [ 0., 2., 2., 0., 0., 0. ]
      - [ 9., 52., 12., 6., 14., 2. ]
      - [ 58., 80., 27., 29., 13., 8. ]
      - [ 6., 33., 12., 7., 2., 3. ]
      - [ 9., 24., 4., 7., 5., 11. ]
      - [ 8., 27., 3., 2., 13., 1. ]
      - [ 13., 22., 6., 5., 3., 4. ]
      - [ 17., 35., 7., 7., 25., 27. ]
      - [ 4., 18., 3., 3., 4., 2. ]
      - [ 7., 33., 5., 4., 3., 3. ]
      - [ 6., 24., 2., 5., 6., 2. ]
      - [ 31., 49., 29., 21., 9., 15. ]
      - [ 55., 33., 30., 20., 48., 38. ]
      - [ 26., 3., 10., 11., 13., 3. ]
      - [ 7., 8., 5., 6., 1., 0. ]
      - [ 8., 3., 3., 4., 6., 0. ]
      - [ 11., 16., 8., 8., 6., 21. ]
      - [ 16., 21., 6., 3., 1., 3. ]
      - [ 16., 22., 5., 3., 7., 6. ]
      - [ 3., 36., 10., 9., 6., 7. ]
      - [ 14., 23., 9., 3., 6., 3. ]
      - [ 10., 21., 8., 15., 13., 3. ]
      - [ 23., 38., 4., 7., 78., 35. ]
      - [ 50., 49., 26., 37., 39., 10. ]
      - [ 8., 37., 8., 9., 17., 1. ]
      - [ 41., 44., 20., 21., 16., 12. ]
      - [ 32., 36., 31., 31., 69., 22. ]
      - [ 1., 13., 0., 1., 1., 3. ]
      - [ 10., 21., 4., 7., 12., 3. ]
      - [ 58., 57., 15., 21., 80., 51. ]
      - [ 53., 47., 20., 24., 73., 21. ]
      - [ 36., 35., 26., 30., 107., 13. ]
      - [ 13., 20., 8., 3., 6., 2. ]
      - [ 11., 27., 8., 9., 20., 1. ]
      - [ 11., 42., 10., 4., 9., 12. ]
      - [ 94., 48., 54., 66., 70., 32. ]
      - [ 22., 27., 13., 21., 58., 6. ]
      - [ 0., 21., 1., 1., 2., 2. ]
      - [ 8., 8., 1., 6., 8., 0. ]
      - [ 73., 60., 29., 41., 68., 46. ]
      - [ 81., 109., 45., 37., 46., 102. ]
      - [ 3., 9., 1., 0., 9., 4. ]
      - [ 67., 84., 43., 48., 47., 31. ]
      - [ 28., 88., 11., 20., 76., 17. ]
      - [ 32., 73., 23., 20., 78., 67. ]
      - [ 75., 51., 33., 38., 62., 49. ]
      - [ 43., 43., 16., 21., 40., 32. ]
      - [ 137., 34., 76., 72., 35., 23. ]
      - [ 67., 71., 27., 46., 68., 71. ]
      - [ 118., 104., 69., 68., 107., 50. ]
      - [ 7., 40., 9., 7., 24., 25. ]
      - [ 130., 25., 72., 58., 65., 49. ]
      - [ 18., 17., 0., 0., 6., 4. ]
      - [ 46., 60., 31., 23., 33., 20. ]
      - [ 121., 40., 67., 82., 61., 42. ]
      - [ 37., 86., 20., 32., 29., 37. ]
      - [ 51., 62., 28., 30., 31., 42. ]
      - [ 66., 73., 42., 37., 33., 56. ]
      - [ 121., 54., 47., 59., 57., 83. ]
      - [ 56., 83., 31., 24., 82., 46. ]
      - [ 16., 49., 20., 17., 42., 38. ]
      - [ 103., 89., 75., 59., 63., 69. ]
      - [ 33., 65., 14., 14., 10., 30. ]
      - [ 123., 64., 49., 40., 42., 32. ]
      - [ 91., 80., 44., 58., 101., 53. ]
      - [ 40., 42., 27., 37., 51., 52. ]
      - [ 75., 116., 32., 46., 70., 88. ]
      - [ 120., 51., 87., 83., 58., 46. ]
      - [ 68., 93., 44., 35., 51., 13. ]
      - [ 40., 62., 31., 20., 34., 55. ]
      - [ 36., 81., 9., 15., 47., 26. ]
      - [ 148., 107., 84., 70., 92., 131. ]
      - [ 54., 99., 27., 32., 37., 49. ]
      - [ 81., 109., 45., 37., 46., 102. ]
      - [ 42., 50., 19., 23., 49., 34. ]
      - [ 31., 48., 20., 17., 38., 12. ]
      - [ 38., 34., 26., 27., 55., 49. ]
      - [ 47., 57., 29., 32., 34., 38. ]
      - [ 19., 35., 15., 23., 24., 20. ]
      - [ 78., 75., 36., 47., 83., 81. ]
      - [ 113., 123., 68., 79., 59., 50. ]
      - [ 66., 70., 47., 44., 47., 33. ]
      - [ 61., 34., 31., 39., 41., 33. ]
      - [ 56., 48., 28., 27., 51., 76. ]
   decision_functions:
      -
         sv_count: 94
         rho: -4.3333333333333335e-01
         alpha: [ 5.6666666269302368e-01, 5.6666666269302368e-01,
             5.6666666269302368e-01, 5.6666666269302368e-01,
             5.6666666269302368e-01, 5.6666666269302368e-01,
             5.6666666269302368e-01, 5.6666666269302368e-01,
             5.6666666269302368e-01, 5.6666666269302368e-01,
             5.6666666269302368e-01, 5.6666666269302368e-01,
             5.6666666269302368e-01, 5.6666666269302368e-01,
             5.6666666269302368e-01, 5.6666666269302368e-01,
             5.6666666269302368e-01, 5.6666666269302368e-01,
             5.6666666269302368e-01, 5.6666666269302368e-01,
             5.6666666269302368e-01, 5.6666666269302368e-01,
             5.6666666269302368e-01, 5.6666666269302368e-01,
             5.6666666269302368e-01, 5.6666666269302368e-01,
             5.6666666269302368e-01, 5.6666666269302368e-01,
             5.6666666269302368e-01, 5.6666666269302368e-01,
             5.6666672229766846e-01, 5.6666672229766846e-01,
             5.6666672229766846e-01, 5.6666672229766846e-01,
             5.6666666269302368e-01, 5.6666666269302368e-01,
             5.6666666269302368e-01, 5.6666666269302368e-01,
             5.6666666269302368e-01, 5.6666666269302368e-01,
             5.6666666269302368e-01, 5.6666666269302368e-01,
             5.6666666269302368e-01, 5.6666666269302368e-01,
             5.6666666269302368e-01, 5.6666666269302368e-01,
             5.6666666269302368e-01, 5.6666666269302368e-01,
             5.6666666269302368e-01, 5.6666666269302368e-01,
             5.6666666269302368e-01, 5.6666666269302368e-01,
             5.6666666269302368e-01, 5.6666666269302368e-01,
             5.6666666269302368e-01, 5.6666666269302368e-01,
             5.6666666269302368e-01, 5.6666666269302368e-01,
             5.6666666269302368e-01, 5.6666666269302368e-01, -1., -1.,
             -1., -1., -1., -1., -1., -1., -1., -1., -1., -1., -1., -1.,
             -1., -1., -1., -1., -1., -1., -1., -1., -1., -1., -1., -1.,
             -1., -1., -1., -1., -1., -1., -1., -1. ]
         index: [ 46, 31, 32, 33, 34, 35, 36, 37, 38, 39, 40, 41, 42, 43,
             44, 45, 1, 47, 48, 49, 50, 51, 52, 53, 54, 55, 56, 57, 58,
             59, 0, 29, 2, 3, 4, 5, 6, 7, 8, 9, 10, 11, 12, 13, 14, 15,
             17, 16, 30, 28, 27, 26, 25, 24, 23, 22, 21, 20, 19, 18, 78,
             79, 80, 81, 82, 83, 84, 85, 86, 87, 88, 89, 90, 91, 92, 93,
             71, 76, 60, 61, 62, 63, 64, 65, 66, 67, 69, 70, 77, 72, 73,
             74, 75, 68 ]
      -
         sv_count: 156
         rho: 3.7500000015864554e-01
         alpha: [ 1., 1., 1., 1., 1., 1., 1., 1., 1., 1., 1., 1., 1., 1.,
             1., 1., 1., 1., 1., 1., 1., 1., 1., 1., 1., 1., 1., 1., 1.,
             1., 1., 1., 1., 1., 1., 1., 1., 1., 1., 1., 1., 1., 1., 1.,
             1., 1., 1., 1., 1., 1., 1., 1., 1., 1., 1., 1., 1., 1., 1.,
             1., -6.2500000000000000e-01, -6.2500000000000000e-01,
             -6.2500000000000000e-01, -6.2500000000000000e-01,
             -6.2500000000000000e-01, -6.2500000000000000e-01,
             -6.2500000000000000e-01, -6.2500000000000000e-01,
             -6.2500000000000000e-01, -6.2500000000000000e-01,
             -6.2500000000000000e-01, -6.2500000000000000e-01,
             -6.2500000000000000e-01, -6.2500000000000000e-01,
             -6.2500000000000000e-01, -6.2500000000000000e-01,
             -6.2500000000000000e-01, -6.2500000000000000e-01,
             -6.2500000000000000e-01, -6.2500000000000000e-01,
             -6.2500000000000000e-01, -6.2500000000000000e-01,
             -6.2500000000000000e-01, -6.2499999619250479e-01,
             -6.2500000000000000e-01, -6.2500000000000000e-01,
             -6.2500000000000000e-01, -6.2500000000000000e-01,
             -6.2500000000000000e-01, -6.2500000000000000e-01,
             -6.2500001142248562e-01, -6.2500000000000000e-01,
             -6.2500000000000000e-01, -6.2500000000000000e-01,
             -6.2500000000000000e-01, -6.2500000000000000e-01,
             -6.2500000000000000e-01, -6.2500000000000000e-01,
             -6.2500000000000000e-01, -6.2500000000000000e-01,
             -6.2500000000000000e-01, -6.2500000000000000e-01,
             -6.2500000000000000e-01, -6.2500000000000000e-01,
             -6.2500000000000000e-01, -6.2500000000000000e-01,
             -6.2500000000000000e-01, -6.2500000000000000e-01,
             -6.2500000000000000e-01, -6.2500000000000000e-01,
             -6.2500000000000000e-01, -6.2500000000000000e-01,
             -6.2500000000000000e-01, -6.2500000000000000e-01,
             -6.2500000000000000e-01, -6.2500000000000000e-01,
             -6.2500000000000000e-01, -6.2500000000000000e-01,
             -6.2500000000000000e-01, -6.2500000000000000e-01,
             -6.2500000000000000e-01, -6.2500000000000000e-01,
             -6.2500000000000000e-01, -6.2500000000000000e-01,
             -6.2500000000000000e-01, -6.2500000000000000e-01,
             -6.2500000000000000e-01, -6.2500000000000000e-01,
             -6.2500000000000000e-01, -6.2500000000000000e-01,
             -6.2500000000000000e-01, -6.2500000000000000e-01,
             -6.2500000000000000e-01, -6.2500000000000000e-01,
             -6.2500000000000000e-01, -6.2500000000000000e-01,
             -6.2500000000000000e-01, -6.2500000000000000e-01,
             -6.2500000000000000e-01, -6.2500000000000000e-01,
             -6.2500000000000000e-01, -6.2500000000000000e-01,
             -6.2500000000000000e-01, -6.2500000000000000e-01,
             -6.2500000000000000e-01, -6.2500000000000000e-01,
             -6.2500000000000000e-01, -6.2500000000000000e-01,
             -6.2500000000000000e-01, -6.2500000000000000e-01,
             -6.2500000000000000e-01, -6.2500000000000000e-01,
             -6.2500000000000000e-01, -6.2500000000000000e-01,
             -6.2499999619250479e-01, -6.2499999619250479e-01 ]
         index: [ 46, 31, 32, 33, 34, 35, 36, 37, 38, 39, 40, 41, 42, 43,
             44, 45, 1, 47, 48, 49, 50, 51, 52, 53, 54, 55, 56, 57, 58,
             59, 0, 29, 2, 3, 4, 5, 6, 7, 8, 9, 10, 11, 12, 13, 14, 15,
             17, 16, 30, 28, 27, 26, 25, 24, 23, 22, 21, 20, 19, 18, 156,
             157, 158, 159, 160, 161, 162, 163, 164, 165, 143, 166, 155,
             154, 153, 152, 151, 150, 149, 148, 147, 146, 145, 144, 179,
             136, 189, 188, 187, 186, 185, 184, 183, 182, 181, 180, 167,
             178, 177, 176, 175, 174, 173, 172, 171, 170, 169, 168, 105,
             117, 116, 115, 114, 113, 112, 111, 110, 109, 108, 107, 106,
             141, 104, 103, 102, 101, 100, 99, 98, 97, 96, 95, 142, 119,
             140, 139, 138, 137, 94, 135, 134, 133, 132, 131, 130, 128,
             129, 118, 120, 121, 122, 123, 124, 125, 126, 127 ]
      -
         sv_count: 100
         rho: -3.3333333333333331e-01
         alpha: [ 6.6666662693067291e-01, 6.6666662693067291e-01,
             6.6666662693067291e-01, 6.6666662693067291e-01,
             6.6666662693044043e-01, 6.6666662693044043e-01,
             6.6666662693044043e-01, 6.6666662693044043e-01,
             6.6666662693067291e-01, 6.6666662693067291e-01,
             6.6666662693067291e-01, 6.6666662693067291e-01,
             6.6666662693067291e-01, 6.6666662693067291e-01,
             6.6666662693067291e-01, 6.6666662693067291e-01,
             6.6666674613865418e-01, 6.6666674613865418e-01,
             6.6666674613865418e-01, 6.6666662693090561e-01,
             6.6666662693090561e-01, 6.6666662693090561e-01,
             6.6666662693090561e-01, 6.6666674613865418e-01,
             6.6666674613865418e-01, 6.6666674613865418e-01,
             6.6666674613865418e-01, 6.6666674613865418e-01,
             6.6666674613865418e-01, 6.6666674613865418e-01,
             6.6666674613865418e-01, 6.6666662693067291e-01,
             6.6666662693067291e-01, 6.6666662693067291e-01,
             6.6666662693067291e-01, 6.6666662693067291e-01,
             6.6666662693067291e-01, 6.6666662693067291e-01,
             6.6666662693067291e-01, 6.6666674613865418e-01,
             6.6666674613865418e-01, 6.6666674613865418e-01,
             6.6666674613865418e-01, 6.6666674613865418e-01,
             6.6666662693090561e-01, 6.6666662693090561e-01,
             6.6666662693090561e-01, 6.6666662693090561e-01,
             6.6666674613865418e-01, 6.6666674613865418e-01,
             6.6666674613865418e-01, 6.6666674613865418e-01,
             6.6666662693044043e-01, 6.6666662693044043e-01,
             6.6666662693044043e-01, 6.6666662693044043e-01,
             6.6666662693067291e-01, 6.6666662693067291e-01,
             6.6666662693067291e-01, 6.6666662693067291e-01, -1., -1.,
             -1., -1., -1., -1., -1., -1., -1., -1., -1., -1., -1., -1.,
             -1., -1., -1., -1., -1., -1., -1., -1., -1., -1., -1., -1.,
             -1., -1., -1., -1., -1., -1., -1., -1., -1., -1., -1., -1.,
             -1., -1. ]
         index: [ 46, 31, 32, 33, 34, 35, 36, 37, 38, 39, 40, 41, 42, 43,
             44, 45, 1, 47, 48, 49, 50, 51, 52, 53, 54, 55, 56, 57, 58,
             59, 0, 29, 2, 3, 4, 5, 6, 7, 8, 9, 10, 11, 12, 13, 14, 15,
             17, 16, 30, 28, 27, 26, 25, 24, 23, 22, 21, 20, 19, 18, 211,
             212, 207, 213, 214, 215, 216, 217, 218, 219, 220, 221, 222,
             223, 224, 225, 226, 227, 228, 229, 209, 210, 190, 191, 192,
             193, 194, 195, 196, 197, 198, 200, 199, 208, 206, 205, 204,
             203, 202, 201 ]
      -
         sv_count: 143
         rho: 2.7710843346960207e-01
         alpha: [ 1., 1., 1., 1., 1., 1., 1., 1., 1., 1., 1., 1., 1., 1.,
             1., 1., 1., 1., 1., 1., 1., 1., 1., 1., 1., 1., 1., 1., 1.,
             1., 1., 1., 1., 1., 1., 1., 1., 1., 1., 1., 1., 1., 1., 1.,
             1., 1., 1., 1., 1., 1., 1., 1., 1., 1., 1., 1., 1., 1., 1.,
             1., -7.2289156940263932e-01, -7.2289156940330423e-01,
             -7.2289156940283861e-01, -7.2289156940333132e-01,
             -7.2289156940212507e-01, -7.2289156940264321e-01,
             -7.2289156940082355e-01, -7.2289156940333132e-01,
             -7.2289156940316868e-01, -7.2289156940283861e-01,
             -7.2289156940333132e-01, -7.2289156940219668e-01,
             -7.2289145019673295e-01, -7.2289156940331334e-01,
             -7.2289156940342303e-01, -7.2289156940275601e-01,
             -7.2289156940262145e-01, -7.2289156940333132e-01,
             -7.2289156940126287e-01, -7.2289156940342281e-01,
             -7.2289156940342303e-01, -7.2289156940342303e-01,
             -7.2289156940342281e-01, -7.2289156940342281e-01,
             -7.2289156940316868e-01, -7.2289156940316868e-01,
             -7.2289156940262145e-01, -7.2289156940316868e-01,
             -7.2289156940333132e-01, -7.2289156940262123e-01,
             -7.2289156940218224e-01, -7.2289156940262145e-01,
             -7.2289156940316868e-01, -7.2289156940218224e-01,
             -7.2289156940342303e-01, -7.2289156940262145e-01,
             -7.2289156940316868e-01, -7.2289156940342303e-01,
             -7.2289156940262145e-01, -7.2289156940262145e-01,
             -7.2289156940218224e-01, -7.2289156940342303e-01,
             -7.2289156940262145e-01, -7.2289155839321584e-01,
             -7.2289156940261234e-01, -7.2289156940333132e-01,
             -7.2289156940218224e-01, -7.2289156940218224e-01,
             -7.2289156940218224e-01, -7.2289156940219668e-01,
             -7.2289156940266841e-01, -7.2289145019673295e-01,
             -7.2289156940266108e-01, -7.2289156940264321e-01,
             -7.2289156940219668e-01, -7.2289156940217181e-01,
             -7.2289156940266108e-01, -7.2289156940263932e-01,
             -7.2289156940316868e-01, -7.2289156940316868e-01,
             -7.2289156940333132e-01, -7.2289156940262145e-01,
             -7.2289156940233879e-01, -7.2289156940342281e-01,
             -7.2289156940218224e-01, -7.2289156940333132e-01,
             -7.2289156940218224e-01, -7.2289156940284038e-01,
             -7.2289156940262489e-01, -7.2289156940262123e-01,
             -7.2289156940218224e-01, -7.2289156940218224e-01,
             -7.2289156940218224e-01, -7.2289156940218224e-01,
             -7.2289156940218224e-01, -7.2289156940331334e-01,
             -7.2289156940342303e-01, -7.2289156940283861e-01,
             -7.2289155839304142e-01, -7.2289156940342303e-01,
             -7.2289156940275601e-01, -7.2289156940328836e-01,
             -7.2289156940342303e-01 ]
         index: [ 46, 31, 32, 33, 34, 35, 36, 37, 38, 39, 40, 41, 42, 43,
             44, 45, 1, 47, 48, 49, 50, 51, 52, 53, 54, 55, 56, 57, 58,
             59, 0, 29, 2, 3, 4, 5, 6, 7, 8, 9, 10, 11, 12, 13, 14, 15,
             17, 16, 30, 28, 27, 26, 25, 24, 23, 22, 21, 20, 19, 18, 291,
             290, 289, 288, 287, 286, 257, 285, 284, 283, 282, 281, 280,
             279, 278, 277, 276, 275, 274, 273, 272, 302, 312, 311, 310,
             309, 308, 307, 306, 305, 304, 303, 292, 301, 300, 299, 298,
             297, 296, 295, 294, 293, 238, 248, 247, 246, 245, 244, 243,
             242, 241, 240, 239, 270, 237, 236, 235, 234, 233, 232, 231,
             230, 271, 250, 249, 269, 268, 267, 266, 265, 264, 263, 262,
             261, 259, 258, 256, 255, 254, 253, 252, 251, 260 ]
      -
         sv_count: 152
         rho: 3.4757097547042853e-01
         alpha: [ 1., 1., 1., 1., 1., 1., 1., 1., 1., 1., 1., 1., 1., 1.,
             1., 1., 1., 1., 1., 1., 1., 1., 1., 1., 1., 1., 1., 1., 1.,
             1., 1., 1., 1., 1., 1., 1., 1., 1., 1., 1., 1., 1., 1., 1.,
             1., 1., 1., 1., 1., 1., 1., 1., 1., 1., 1., 1., 1., 1., 1.,
             1., -6.5242904185792772e-01, -6.5242904188246209e-01,
             -6.5242904186208139e-01, -6.5242898704993402e-01,
             -6.5242895105934795e-01, -6.5242904185792772e-01,
             -6.5242906972484493e-01, -6.5242898704993391e-01,
             -6.5242905235638537e-01, -6.5242898704948271e-01,
             -6.5242895105934795e-01, -6.5242900648237767e-01,
             -6.5242899320093151e-01, -6.5242904185792772e-01,
             -6.5242898704993402e-01, -6.5242905235639637e-01,
             -6.5242905235813087e-01, -6.5242900852657171e-01,
             -6.5242904188246209e-01, -6.5242900282695038e-01,
             -6.5242904188246209e-01, -6.5242904186207262e-01,
             -6.5242904186207262e-01, -6.5242905235642168e-01,
             -6.5242900669340920e-01, -6.5242897504848474e-01,
             -6.5242906972484493e-01, -6.5242904168007887e-01,
             -6.4069407859464622e-01, -6.5242897504850716e-01,
             -6.5242900852657171e-01, -6.5242906972484493e-01,
             -6.5242904185792772e-01, -6.5242904185792772e-01,
             -6.5242900669340920e-01, -6.5242905235642168e-01,
             -6.5242905235642168e-01, -6.5242904186207640e-01,
             -6.5242905235642168e-01, -6.5242905235638537e-01,
             -6.5242900648237612e-01, -6.5242904186208139e-01,
             -6.5242904185792772e-01, -6.5242895105934795e-01,
             -6.5242898704993402e-01, -6.5242904188246209e-01,
             -6.5242879361554118e-01, -6.5242906972485182e-01,
             -6.5242904186207640e-01, -6.5242905235642168e-01,
             -6.5242895105934795e-01, -6.5242900852612051e-01,
             -6.5242904186207262e-01, -6.5242898704993391e-01,
             -6.5242904186208139e-01, -6.5242904185792772e-01,
             -6.5242904185792772e-01, -6.4069428076567858e-01,
             -6.5242905235815341e-01, -6.5242904186207640e-01,
             -6.5242904186208139e-01, -6.5242897504850716e-01,
             -6.5242905235642168e-01, -6.5242898704993391e-01,
             -6.5242904186207640e-01, -6.5242906972485182e-01,
             -6.5242885277867269e-01, -6.5242906972484493e-01,
             -6.5242904186208139e-01, -6.5242904870096907e-01,
             -6.5242905235642168e-01, -6.5242898704993402e-01,
             -6.5242904186208139e-01, -6.5242900488430433e-01,
             -6.5242900355221300e-01, -6.5242904186208139e-01,
             -6.5242900834457862e-01, -6.5242900469247278e-01,
             -6.5242904188246209e-01, -6.5242905235815341e-01,
             -6.5242904186208139e-01, -6.5242904188246209e-01,
             -6.5242879361665729e-01, -6.5242904188246209e-01,
             -6.5242899320093151e-01, -6.5242899320545833e-01,
             -6.5242899320545833e-01, -6.5242897504850716e-01,
             -6.5242904188246209e-01, -6.5242905235642168e-01,
             -6.5242900648237612e-01, -6.5242900469247278e-01 ]
         index: [ 46, 31, 32, 33, 34, 35, 36, 37, 38, 39, 40, 41, 42, 43,
             44, 45, 1, 47, 48, 49, 50, 51, 52, 53, 54, 55, 56, 57, 58,
             59, 0, 29, 2, 3, 4, 5, 6, 7, 8, 9, 10, 11, 12, 13, 14, 15,
             17, 16, 30, 28, 27, 26, 25, 24, 23, 22, 21, 20, 19, 18, 370,
             371, 372, 373, 374, 375, 376, 377, 378, 379, 380, 359, 369,
             368, 367, 366, 365, 364, 363, 362, 361, 360, 393, 392, 404,
             403, 402, 401, 400, 399, 398, 397, 396, 395, 394, 381, 391,
             390, 389, 388, 387, 386, 385, 384, 383, 382, 323, 334, 333,
             332, 331, 330, 329, 328, 327, 326, 325, 324, 357, 322, 321,
             320, 319, 318, 317, 316, 315, 314, 313, 358, 336, 335, 356,
             355, 354, 353, 352, 351, 350, 349, 348, 347, 345, 344, 343,
             342, 341, 340, 339, 338, 337, 346 ]
      -
         sv_count: 110
         rho: -1.6666666666666677e-01
         alpha: [ 8.3333337306698729e-01, 8.3333337306698729e-01,
             8.3333337306698729e-01, 8.3333337306698729e-01,
             8.3333325386510482e-01, 8.3333325386510482e-01,
             8.3333337306692412e-01, 8.3333337306692412e-01,
             8.3333337306757849e-01, 8.3333337306757849e-01,
             8.3333337306756228e-01, 8.3333337306756228e-01,
             8.3333337306754374e-01, 8.3333337306756228e-01,
             8.3333337306756228e-01, 8.3333337306754374e-01,
             8.3333325386510482e-01, 8.3333337306754374e-01,
             8.3333337306754374e-01, 8.3333325386510482e-01,
             8.3333337306692412e-01, 8.3333325386575940e-01,
             8.3333337306692412e-01, 8.3333325386575940e-01,
             8.3333337306757849e-01, 8.3333337306757849e-01,
             8.3333325386510482e-01, 8.3333325386575940e-01,
             8.3333325386575940e-01, 8.3333325386510482e-01,
             8.3333337306692412e-01, 8.3333337306692412e-01,
             8.3333337306756228e-01, 8.3333337306754374e-01,
             8.3333337306692412e-01, 8.3333325386575940e-01,
             8.3333337306757849e-01, 8.3333325386510482e-01,
             8.3333337306754374e-01, 8.3333337306754374e-01,
             8.3333337306754374e-01, 8.3333337306698729e-01,
             8.3333325386575940e-01, 8.3333325386575940e-01,
             8.3333325386510482e-01, 8.3333337306692412e-01,
             8.3333325386575940e-01, 8.3333337306757849e-01,
             8.3333337306698729e-01, 8.3333337306756228e-01,
             8.3333337306757849e-01, 8.3333337306757849e-01,
             8.3333337306698729e-01, 8.3333337306698729e-01,
             8.3333337306756228e-01, 8.3333337306756228e-01,
             8.3333325386508017e-01, 8.3333325386508017e-01,
             8.3333325386508017e-01, 8.3333325386508017e-01, -1., -1.,
             -1., -1., -1., -1., -1., -1., -1., -1., -1., -1., -1., -1.,
             -1., -1., -1., -1., -1., -1., -1., -1., -1., -1., -1., -1.,
             -1., -1., -1., -1., -1., -1., -1., -1., -1., -1., -1., -1.,
             -1., -1., -1., -1., -1., -1., -1., -1., -1., -1., -1., -1. ]
         index: [ 46, 31, 32, 33, 34, 35, 36, 37, 38, 39, 40, 41, 42, 43,
             44, 45, 1, 47, 48, 49, 50, 51, 52, 53, 54, 55, 56, 57, 58,
             59, 0, 29, 2, 3, 4, 5, 6, 7, 8, 9, 10, 11, 12, 13, 14, 15,
             17, 16, 30, 28, 27, 26, 25, 24, 23, 22, 21, 20, 19, 18, 441,
             440, 439, 438, 437, 436, 435, 434, 433, 432, 431, 430, 442,
             443, 444, 445, 446, 447, 448, 449, 450, 451, 452, 453, 454,
             428, 429, 405, 406, 407, 408, 409, 410, 411, 412, 413, 414,
             415, 417, 427, 426, 425, 424, 423, 422, 421, 420, 419, 418,
             416 ]
      -
         sv_count: 75
         rho: -7.5000000000000000e-01
         alpha: [ 2.5000000000000000e-01, 2.5000000000000000e-01,
             2.5000000000000000e-01, 2.5000000000000000e-01,
             2.5000000000000000e-01, 2.5000000000000000e-01,
             2.5000000000000000e-01, 2.5000000000000000e-01,
             2.5000000000000000e-01, 2.5000000000000000e-01,
             2.5000000000000000e-01, 2.5000000000000000e-01,
             2.5000000000000000e-01, 2.5000000000000000e-01,
             2.5000000000000000e-01, 2.5000000000000000e-01,
             2.5000000000000000e-01, 2.5000000000000000e-01,
             2.5000000000000000e-01, 2.5000000000000000e-01,
             2.5000000000000000e-01, 2.5000000000000000e-01,
             2.5000000000000000e-01, 2.5000000000000000e-01,
             2.5000000000000000e-01, 2.5000000000000000e-01,
             2.5000000000000000e-01, 2.5000000000000000e-01,
             2.5000000000000000e-01, 2.5000000000000000e-01,
             2.5000000000000000e-01, 2.5000000000000000e-01,
             2.5000000000000000e-01, 2.5000000000000000e-01,
             2.5000000000000000e-01, 2.5000000000000000e-01,
             2.5000000000000000e-01, 2.5000000000000000e-01,
             2.5000000000000000e-01, 2.5000000000000000e-01,
             2.5000000000000000e-01, 2.5000000000000000e-01,
             2.5000000000000000e-01, 2.5000000000000000e-01,
             2.5000000000000000e-01, 2.5000000000000000e-01,
             2.5000000000000000e-01, 2.5000000000000000e-01,
             2.5000000000000000e-01, 2.5000000000000000e-01,
             2.5000000000000000e-01, 2.5000000000000000e-01,
             2.5000000000000000e-01, 2.5000000000000000e-01,
             2.5000000000000000e-01, 2.5000000000000000e-01,
             2.5000000000000000e-01, 2.5000000000000000e-01,
             2.5000000000000000e-01, 2.5000000000000000e-01, -1., -1.,
             -1., -1., -1., -1., -1., -1., -1., -1., -1., -1., -1., -1.,
             -1. ]
         index: [ 46, 31, 32, 33, 34, 35, 36, 37, 38, 39, 40, 41, 42, 43,
             44, 45, 1, 47, 48, 49, 50, 51, 52, 53, 54, 55, 56, 57, 58,
             59, 0, 29, 2, 3, 4, 5, 6, 7, 8, 9, 10, 11, 12, 13, 14, 15,
             17, 16, 30, 28, 27, 26, 25, 24, 23, 22, 21, 20, 19, 18, 461,
             469, 468, 467, 466, 465, 464, 463, 460, 459, 458, 457, 456,
             455, 462 ]
      -
         sv_count: 105
         rho: -2.6229508196721313e-01
         alpha: [ 7.3770493268966675e-01, 7.3770493268966675e-01,
             7.3770493268966675e-01, 7.3770493268966675e-01,
             7.3770493268966675e-01, 7.3770493268966675e-01,
             7.3770493268966675e-01, 7.3770493268966675e-01,
             7.3770493268966675e-01, 7.3770493268966675e-01,
             7.3770493268966675e-01, 7.3770493268966675e-01,
             7.3770493268966675e-01, 7.3770493268966675e-01,
             7.3770493268966675e-01, 7.3770493268966675e-01,
             7.3770493268966675e-01, 7.3770493268966675e-01,
             7.3770493268966675e-01, 7.3770493268966675e-01,
             7.3770493268966675e-01, 7.3770493268966675e-01,
             7.3770493268966675e-01, 7.3770493268966675e-01,
             7.3770493268966675e-01, 7.3770487308502197e-01,
             7.3770487308502197e-01, 7.3770487308502197e-01,
             7.3770487308502197e-01, 7.3770487308502197e-01,
             7.3770487308502197e-01, 7.3770487308502197e-01,
             7.3770487308502197e-01, 7.3770487308502197e-01,
             7.3770487308502197e-01, 7.3770493268966675e-01,
             7.3770493268966675e-01, 7.3770493268966675e-01,
             7.3770493268966675e-01, 7.3770493268966675e-01,
             7.3770493268966675e-01, 7.3770493268966675e-01,
             7.3770493268966675e-01, 7.3770493268966675e-01,
             7.3770493268966675e-01, 7.3770493268966675e-01,
             7.3770493268966675e-01, 7.3770493268966675e-01,
             7.3770493268966675e-01, 7.3770487308502197e-01,
             7.3770487308502197e-01, 7.3770493268966675e-01,
             7.3770493268966675e-01, 7.3770493268966675e-01,
             7.3770493268966675e-01, 7.3770493268966675e-01,
             7.3770493268966675e-01, 7.3770487308502197e-01,
             7.3770487308502197e-01, 7.3770487308502197e-01, -1., -1.,
             -1., -1., -1., -1., -1., -1., -1., -1., -1., -1., -1., -1.,
             -1., -1., -1., -1., -1., -1., -1., -1., -1., -1.,
             -2.6229506731033325e-01, -1., -1., -1., -1., -1., -1., -1.,
             -1., -1., -1., -1., -1., -1., -1., -1., -1., -1., -1., -1.,
             -1. ]
         index: [ 46, 31, 32, 33, 34, 35, 36, 37, 38, 39, 40, 41, 42, 43,
             44, 45, 1, 47, 48, 49, 50, 51, 52, 53, 54, 55, 56, 57, 58,
             59, 0, 29, 2, 3, 4, 5, 6, 7, 8, 9, 10, 11, 12, 13, 14, 15,
             17, 16, 30, 28, 27, 26, 25, 24, 23, 22, 21, 20, 19, 18, 495,
             502, 501, 500, 499, 498, 497, 496, 507, 494, 493, 503, 504,
             505, 506, 508, 509, 510, 511, 512, 513, 514, 481, 470, 471,
             472, 473, 474, 475, 476, 477, 478, 479, 480, 492, 482, 483,
             484, 485, 486, 487, 488, 489, 490, 491 ]
      -
         sv_count: 130
         rho: 6.4583333333333337e-01
         alpha: [ 1., 1., 1., 1., 1., 1., 1., 1., 1., 1., 1., 1., 1., 1.,
             1., 1., 1., 1., 1., 1., 1., 1., 1., 1., 1., 1., 1., 1., 1.,
             1., 1., 1., 1., 1., -3.5416668653488159e-01,
             -3.5416668653488159e-01, -3.5416668653488159e-01,
             -3.5416668653488159e-01, -3.5416668653488159e-01,
             -3.5416668653488159e-01, -3.5416668653488159e-01,
             -3.5416668653488159e-01, -3.5416668653488159e-01,
             -3.5416668653488159e-01, -3.5416668653488159e-01,
             -3.5416668653488159e-01, -3.5416668653488159e-01,
             -3.5416668653488159e-01, -3.5416668653488159e-01,
             -3.5416668653488159e-01, -3.5416668653488159e-01,
             -3.5416668653488159e-01, -3.5416668653488159e-01,
             -3.5416668653488159e-01, -3.5416668653488159e-01,
             -3.5416668653488159e-01, -3.5416668653488159e-01,
             -3.5416668653488159e-01, -3.5416668653488159e-01,
             -3.5416668653488159e-01, -3.5416668653488159e-01,
             -3.5416668653488159e-01, -3.5416668653488159e-01,
             -3.5416668653488159e-01, -3.5416668653488159e-01,
             -3.5416668653488159e-01, -3.5416662693023682e-01,
             -3.5416662693023682e-01, -3.5416662693023682e-01,
             -3.5416662693023682e-01, -3.5416662693023682e-01,
             -3.5416662693023682e-01, -3.5416662693023682e-01,
             -3.5416662693023682e-01, -3.5416662693023682e-01,
             -3.5416662693023682e-01, -3.5416662693023682e-01,
             -3.5416662693023682e-01, -3.5416662693023682e-01,
             -3.5416662693023682e-01, -3.5416662693023682e-01,
             -3.5416662693023682e-01, -3.5416668653488159e-01,
             -3.5416668653488159e-01, -3.5416668653488159e-01,
             -3.5416668653488159e-01, -3.5416668653488159e-01,
             -3.5416668653488159e-01, -3.5416668653488159e-01,
             -3.5416668653488159e-01, -3.5416668653488159e-01,
             -3.5416668653488159e-01, -3.5416668653488159e-01,
             -3.5416668653488159e-01, -3.5416668653488159e-01,
             -3.5416668653488159e-01, -3.5416668653488159e-01,
             -3.5416668653488159e-01, -3.5416668653488159e-01,
             -3.5416668653488159e-01, -3.5416668653488159e-01,
             -3.5416668653488159e-01, -3.5416668653488159e-01,
             -3.5416668653488159e-01, -3.5416668653488159e-01,
             -3.5416668653488159e-01, -3.5416668653488159e-01,
             -3.5416668653488159e-01, -3.5416668653488159e-01,
             -3.5416668653488159e-01, -3.5416668653488159e-01,
             -3.5416668653488159e-01, -3.5416668653488159e-01,
             -3.5416668653488159e-01, -3.5416662693023682e-01,
             -3.5416662693023682e-01, -3.5416662693023682e-01,
             -3.5416662693023682e-01, -3.5416662693023682e-01,
             -3.5416662693023682e-01, -3.5416662693023682e-01,
             -3.5416662693023682e-01, -3.5416662693023682e-01,
             -3.5416662693023682e-01, -3.5416662693023682e-01,
             -3.5416662693023682e-01, -3.5416662693023682e-01,
             -3.5416662693023682e-01, -3.5416662693023682e-01,
             -3.5416662693023682e-01 ]
         index: [ 78, 79, 80, 81, 82, 83, 84, 85, 86, 87, 88, 89, 90, 91,
             92, 93, 71, 76, 60, 61, 62, 63, 64, 65, 66, 67, 69, 70, 77,
             72, 73, 74, 75, 68, 156, 157, 158, 159, 160, 161, 162, 163,
             164, 165, 143, 166, 155, 154, 153, 152, 151, 150, 149, 148,
             147, 146, 145, 144, 179, 136, 189, 188, 187, 186, 185, 184,
             183, 182, 181, 180, 167, 178, 177, 176, 175, 174, 173, 172,
             171, 170, 169, 168, 105, 117, 116, 115, 114, 113, 112, 111,
             110, 109, 108, 107, 106, 141, 104, 103, 102, 101, 100, 99,
             98, 97, 96, 95, 142, 119, 140, 139, 138, 137, 94, 135, 134,
             133, 132, 131, 130, 128, 129, 118, 120, 121, 122, 123, 124,
             125, 126, 127 ]
      -
         sv_count: 74
         rho: 1.4999999935213565e-01
         alpha: [ 1., 1., 1., 1., 1., 1., 1., 1., 1., 1., 1., 1., 1., 1.,
             1., 1., 1., 1., 1., 1., 1., 1., 1., 1., 1., 1., 1., 1., 1.,
             1., 1., 1., 1., 1., -8.5000002448967615e-01,
             -8.5000002448967615e-01, -8.5000002448967615e-01,
             -8.5000002448968881e-01, -8.5000002448967615e-01,
             -8.5000002448967615e-01, -8.5000002448967615e-01,
             -8.5000002448967615e-01, -8.5000002448967615e-01,
             -8.5000002448968881e-01, -8.5000002448967615e-01,
             -8.5000002448968881e-01, -8.5000002448967615e-01,
             -8.4999990528059755e-01, -8.5000002448967615e-01,
             -8.5000002448967615e-01, -8.5000002448967615e-01,
             -8.5000002448967615e-01, -8.5000002448967615e-01,
             -8.5000002448967615e-01, -8.5000002448968881e-01,
             -8.5000002448967615e-01, -8.4999990528059755e-01,
             -8.5000002448967615e-01, -8.4999989233512996e-01,
             -8.4999990528060476e-01, -8.5000002448968881e-01,
             -8.5000002447788403e-01, -8.4999990528060476e-01,
             -8.4999989232332163e-01, -8.5000002448967615e-01,
             -8.4999990528060476e-01, -8.5000002448967615e-01,
             -8.5000002448967615e-01, -8.5000002448968881e-01,
             -8.5000002448968881e-01, -8.5000002448967615e-01,
             -8.4999990528060843e-01, -8.5000002448967615e-01,
             -8.5000002448967615e-01 ]
         index: [ 78, 79, 80, 81, 82, 83, 84, 85, 86, 87, 88, 89, 90, 91,
             92, 93, 71, 76, 60, 61, 62, 63, 64, 65, 66, 67, 69, 70, 77,
             72, 73, 74, 75, 68, 211, 212, 207, 213, 214, 215, 216, 217,
             218, 219, 220, 221, 222, 223, 224, 225, 226, 227, 228, 229,
             209, 210, 190, 191, 192, 193, 194, 195, 196, 197, 198, 200,
             199, 208, 206, 205, 204, 203, 202, 201 ]
      -
         sv_count: 117
         rho: 5.9036144563277415e-01
         alpha: [ 1., 1., 1., 1., 1., 1., 1., 1., 1., 1., 1., 1., 1., 1.,
             1., 1., 1., 1., 1., 1., 1., 1., 1., 1., 1., 1., 1., 1., 1.,
             1., 1., 1., 1., 1., -4.0963852420630970e-01,
             -4.0963864341400252e-01, -4.0963852420636759e-01,
             -4.0963864341401474e-01, -4.0963852420596097e-01,
             -4.0963864341401485e-01, -4.0963852420546037e-01,
             -4.0963852420609176e-01, -4.0963852420609154e-01,
             -4.0963852420636776e-01, -4.0963852420636659e-01,
             -4.0963852420609126e-01, -4.0963852420623359e-01,
             -4.0963852420635494e-01, -4.0963852420624625e-01,
             -4.0963852420636682e-01, -4.0963864341401518e-01,
             -4.0963864341401490e-01, -4.0963864341324496e-01,
             -4.0963864341401490e-01, -4.0963864341401501e-01,
             -4.0963864341400785e-01, -4.0963864341400769e-01,
             -4.0963852420636676e-01, -4.0963852420635499e-01,
             -4.0963864341401490e-01, -4.0963852420609126e-01,
             -4.0963852420609126e-01, -4.0963852420636682e-01,
             -4.0963852420609131e-01, -4.0963852420609131e-01,
             -4.0963852420609143e-01, -4.0963852420609137e-01,
             -4.0963852420623348e-01, -4.0963852420635477e-01,
             -4.0963852420623348e-01, -4.0963852420635494e-01,
             -4.0963852420609148e-01, -4.0963852420635510e-01,
             -4.0963852420609176e-01, -4.0963852420636665e-01,
             -4.0963852420609126e-01, -4.0963864341400780e-01,
             -4.0963851796752315e-01, -4.0963852420608637e-01,
             -4.0963852420609159e-01, -4.0963864341401518e-01,
             -4.0963852420609154e-01, -4.0963852420635477e-01,
             -4.0963852420635477e-01, -4.0963852420609137e-01,
             -4.0963852420630975e-01, -4.0963852420609137e-01,
             -4.0963852420609137e-01, -4.0963852420636759e-01,
             -4.0963852420607749e-01, -4.0963852420636682e-01,
             -4.0963852420630975e-01, -4.0963852420609143e-01,
             -4.0963852420609143e-01, -4.0963852420623392e-01,
             -4.0963852420609137e-01, -4.0963852420580826e-01,
             -4.0963852420623348e-01, -4.0963852420609159e-01,
             -4.0963864341401868e-01, -4.0963864341401868e-01,
             -4.0963864341401501e-01, -4.0963852420609131e-01,
             -4.0963864341401496e-01, -4.0963852420623392e-01,
             -4.0963864341401496e-01, -4.0963864341400780e-01,
             -4.0963864341400785e-01, -4.0963852420636759e-01,
             -4.0963852420623020e-01, -4.0963852420635477e-01,
             -4.0963852420623381e-01, -4.0963851796745837e-01,
             -4.0963852420623376e-01, -4.0963852420624430e-01,
             -4.0963852420607716e-01, -4.0963864341401868e-01 ]
         index: [ 78, 79, 80, 81, 82, 83, 84, 85, 86, 87, 88, 89, 90, 91,
             92, 93, 71, 76, 60, 61, 62, 63, 64, 65, 66, 67, 69, 70, 77,
             72, 73, 74, 75, 68, 291, 290, 289, 288, 287, 286, 257, 285,
             284, 283, 282, 281, 280, 279, 278, 277, 276, 275, 274, 273,
             272, 302, 312, 311, 310, 309, 308, 307, 306, 305, 304, 303,
             292, 301, 300, 299, 298, 297, 296, 295, 294, 293, 238, 248,
             247, 246, 245, 244, 243, 242, 241, 240, 239, 270, 237, 236,
             235, 234, 233, 232, 231, 230, 271, 250, 249, 269, 268, 267,
             266, 265, 264, 263, 262, 261, 259, 258, 256, 255, 254, 253,
             252, 251, 260 ]
      -
         sv_count: 126
         rho: 6.3029021942993080e-01
         alpha: [ 1., 1., 1., 1., 1., 1., 1., 1., 1., 1., 1., 1., 1., 1.,
             1., 1., 1., 1., 1., 1., 1., 1., 1., 1., 1., 1., 1., 1., 1.,
             1., 1., 1., 1., 1., -3.6970973042518956e-01,
             -3.6970981549587006e-01, -3.6970976590199622e-01,
             -3.6970976590199628e-01, -3.6970973042518945e-01,
             -3.6970976588830934e-01, -3.6970976588830934e-01,
             -3.6970982930695023e-01, -3.6970975815664531e-01,
             -3.6970975815638984e-01, -3.6970982930695045e-01,
             -3.6970978320844589e-01, -3.6970975815664531e-01,
             -3.6970981549586751e-01, -3.6970979462758852e-01,
             -3.6970971833801425e-01, -3.6970977892353368e-01,
             -3.6970973042518940e-01, -3.6970982930695045e-01,
             -3.6970980840892703e-01, -3.6970971833801425e-01,
             -3.6970977892354628e-01, -3.6970981048033752e-01,
             -3.6970983468344237e-01, -3.6970976276110951e-01,
             -3.6970978320843317e-01, -3.6970977892354623e-01,
             -3.6970981037723161e-01, -3.6305996789844480e-01,
             -3.6970973042518968e-01, -3.6970973042518962e-01,
             -3.6970981549586762e-01, -3.6970976588830912e-01,
             -3.6970981048033946e-01, -3.6970977892354634e-01,
             -3.6970977892354634e-01, -3.6970982930695045e-01,
             -3.6970981549587523e-01, -3.6970975594283634e-01,
             -3.6970971833801408e-01, -3.6970977892354617e-01,
             -3.6970981549588405e-01, -3.6970975815664536e-01,
             -3.6970977892354623e-01, -3.6970975592342586e-01,
             -3.6970971833801408e-01, -3.6970972158317150e-01,
             -3.6970982930695057e-01, -3.6970983468344237e-01,
             -3.6970981549587523e-01, -3.6970981549588416e-01,
             -3.6970976588794746e-01, -3.6970973042518951e-01,
             -3.6970981549587001e-01, -3.6970981549587006e-01,
             -3.6970982930695029e-01, -3.6970975594293171e-01,
             -3.6306011904346097e-01, -3.6970983468344237e-01,
             -3.6970981549586768e-01, -3.6970976276110951e-01,
             -3.6970982930695029e-01, -3.6970976588830928e-01,
             -3.6970981048036089e-01, -3.6970975919510207e-01,
             -3.6970982930695040e-01, -3.6970965280693524e-01,
             -3.6970973042518962e-01, -3.6970981549588405e-01,
             -3.6970976381679405e-01, -3.6970981549587512e-01,
             -3.6970976590199633e-01, -3.6970973042518968e-01,
             -3.6970981549586762e-01, -3.6970981549587500e-01,
             -3.6970981549588405e-01, -3.6970981037723155e-01,
             -3.6970976588820315e-01, -3.6970977892354623e-01,
             -3.6970981048036089e-01, -3.6970976588820337e-01,
             -3.6970971833801414e-01, -3.6970964282328561e-01,
             -3.6970971833801419e-01, -3.6970975594283623e-01,
             -3.6970981048033924e-01, -3.6970975594293159e-01,
             -3.6970981549587006e-01, -3.6970971833801408e-01,
             -3.6970971833801408e-01, -3.6970976276110928e-01,
             -3.6970976276110928e-01 ]
         index: [ 78, 79, 80, 81, 82, 83, 84, 85, 86, 87, 88, 89, 90, 91,
             92, 93, 71, 76, 60, 61, 62, 63, 64, 65, 66, 67, 69, 70, 77,
             72, 73, 74, 75, 68, 370, 371, 372, 373, 374, 375, 376, 377,
             378, 379, 380, 359, 369, 368, 367, 366, 365, 364, 363, 362,
             361, 360, 393, 392, 404, 403, 402, 401, 400, 399, 398, 397,
             396, 395, 394, 381, 391, 390, 389, 388, 387, 386, 385, 384,
             383, 382, 323, 334, 333, 332, 331, 330, 329, 328, 327, 326,
             325, 324, 357, 322, 321, 320, 319, 318, 317, 316, 315, 314,
             313, 358, 336, 335, 356, 355, 354, 353, 352, 351, 350, 349,
             348, 347, 345, 344, 343, 342, 341, 340, 339, 338, 337, 346 ]
      -
         sv_count: 84
         rho: 3.1999998799527135e-01
         alpha: [ 1., 1., 1., 1., 1., 1., 1., 1., 1., 1., 1., 1., 1., 1.,
             1., 1., 1., 1., 1., 1., 1., 1., 1., 1., 1., 1., 1., 1., 1.,
             1., 1., 1., 1., 1., -6.7999995956243575e-01,
             -6.8000007874051560e-01, -6.8000007873993473e-01,
             -6.7999995957391979e-01, -6.7999995575457273e-01,
             -6.7999975156034975e-01, -6.8000007874051560e-01,
             -6.7999995957074533e-01, -6.7999995957074821e-01,
             -6.8000007873993584e-01, -6.8000007873993584e-01,
             -6.8000007874051560e-01, -6.7999995956492509e-01,
             -6.8000007874051560e-01, -6.8000007874017965e-01,
             -6.7999995957074533e-01, -6.7999995957074533e-01,
             -6.8000007874011570e-01, -6.8000007493181114e-01,
             -6.8000007874049095e-01, -6.7999995957074533e-01,
             -6.7999995956441983e-01, -6.8000007874011570e-01,
             -6.7999995957047699e-01, -6.8000007874051560e-01,
             -6.7999995957043502e-01, -6.7999988164496483e-01,
             -6.8000007874051560e-01, -6.7999995957047699e-01,
             -6.7999975155695258e-01, -6.8000007873653601e-01,
             -6.8000007874001034e-01, -6.7999995956492487e-01,
             -6.8000007874051560e-01, -6.7999995956492509e-01,
             -6.7999987268561202e-01, -6.8000007873993595e-01,
             -6.7999995957074533e-01, -6.7999995957046333e-01,
             -6.7999995957074533e-01, -6.7999995957074710e-01,
             -6.7999995957045323e-01, -6.7999995956590142e-01,
             -6.8000007874001034e-01, -6.7999995957043502e-01,
             -6.7999995956591008e-01, -6.8000007874001034e-01,
             -6.8000007874171309e-01, -6.7999995956492509e-01,
             -6.8000006698220961e-01 ]
         index: [ 78, 79, 80, 81, 82, 83, 84, 85, 86, 87, 88, 89, 90, 91,
             92, 93, 71, 76, 60, 61, 62, 63, 64, 65, 66, 67, 69, 70, 77,
             72, 73, 74, 75, 68, 441, 440, 439, 438, 437, 436, 435, 434,
             433, 432, 431, 430, 442, 443, 444, 445, 446, 447, 448, 449,
             450, 451, 452, 453, 454, 428, 429, 405, 406, 407, 408, 409,
             410, 411, 412, 413, 414, 415, 417, 427, 426, 425, 424, 423,
             422, 421, 420, 419, 418, 416 ]
      -
         sv_count: 49
         rho: -5.5882352941176472e-01
         alpha: [ 4.4117647409439087e-01, 4.4117647409439087e-01,
             4.4117647409439087e-01, 4.4117647409439087e-01,
             4.4117647409439087e-01, 4.4117647409439087e-01,
             4.4117647409439087e-01, 4.4117647409439087e-01,
             4.4117647409439087e-01, 4.4117647409439087e-01,
             4.4117647409439087e-01, 4.4117647409439087e-01,
             4.4117647409439087e-01, 4.4117647409439087e-01,
             4.4117647409439087e-01, 4.4117647409439087e-01,
             4.4117647409439087e-01, 4.4117647409439087e-01,
             4.4117647409439087e-01, 4.4117647409439087e-01,
             4.4117647409439087e-01, 4.4117647409439087e-01,
             4.4117647409439087e-01, 4.4117647409439087e-01,
             4.4117647409439087e-01, 4.4117647409439087e-01,
             4.4117647409439087e-01, 4.4117647409439087e-01,
             4.4117647409439087e-01, 4.4117647409439087e-01,
             4.4117647409439087e-01, 4.4117647409439087e-01,
             4.4117641448974609e-01, 4.4117641448974609e-01, -1., -1.,
             -1., -1., -1., -1., -1., -1., -1., -1., -1., -1., -1., -1.,
             -1. ]
         index: [ 78, 79, 80, 81, 82, 83, 84, 85, 86, 87, 88, 89, 90, 91,
             92, 93, 71, 76, 60, 61, 62, 63, 64, 65, 66, 67, 69, 70, 77,
             72, 73, 74, 75, 68, 461, 469, 468, 467, 466, 465, 464, 463,
             460, 459, 458, 457, 456, 455, 462 ]
      -
         sv_count: 78
         rho: 2.2727272727272727e-01
         alpha: [ 1., 1., 1., 1., 1., 1., 1., 1., 1., 1., 1., 1., 1., 1.,
             1., 1., 1., 1., 1., 1., 1., 1., 1., 1., 1., 1., 1., 1., 1.,
             1., 1., 1., 1., 1., -7.7272731065750122e-01,
             -7.7272731065750122e-01, -7.7272731065750122e-01,
             -7.7272731065750122e-01, -7.7272731065750122e-01,
             -7.7272731065750122e-01, -7.7272731065750122e-01,
             -7.7272731065750122e-01, -7.7272731065750122e-01,
             -7.7272731065750122e-01, -7.7272731065750122e-01,
             -7.7272731065750122e-01, -7.7272725105285645e-01,
             -7.7272725105285645e-01, -7.7272725105285645e-01,
             -7.7272725105285645e-01, -7.7272725105285645e-01,
             -7.7272725105285645e-01, -7.7272725105285645e-01,
             -7.7272725105285645e-01, -7.7272725105285645e-01,
             -7.7272725105285645e-01, -7.7272725105285645e-01,
             -7.7272725105285645e-01, -7.7272725105285645e-01,
             -7.7272725105285645e-01, -7.7272725105285645e-01,
             -7.7272725105285645e-01, -7.7272725105285645e-01,
             -7.7272725105285645e-01, -7.7272725105285645e-01,
             -7.7272725105285645e-01, -7.7272725105285645e-01,
             -7.7272725105285645e-01, -7.7272725105285645e-01,
             -7.7272725105285645e-01, -7.7272731065750122e-01,
             -7.7272731065750122e-01, -7.7272731065750122e-01,
             -7.7272731065750122e-01, -7.7272725105285645e-01,
             -7.7272725105285645e-01, -7.7272725105285645e-01,
             -7.7272725105285645e-01 ]
         index: [ 78, 79, 80, 81, 82, 83, 84, 85, 86, 87, 88, 89, 90, 91,
             92, 93, 71, 76, 60, 61, 62, 63, 64, 65, 66, 67, 69, 70, 77,
             72, 73, 74, 75, 68, 495, 502, 501, 500, 499, 498, 497, 496,
             507, 494, 493, 503, 504, 505, 506, 508, 509, 510, 511, 512,
             513, 514, 481, 470, 472, 473, 474, 475, 476, 477, 478, 479,
             480, 492, 482, 483, 484, 485, 486, 487, 488, 489, 490, 491 ]
      -
         sv_count: 136
         rho: -5.8333333333333315e-01
         alpha: [ 4.1666662693026585e-01, 4.1666662693026585e-01,
             4.1666662693026585e-01, 4.1666662693026585e-01,
             4.1666662693026585e-01, 4.1666662693026585e-01,
             4.1666662693026585e-01, 4.1666662693026585e-01,
             4.1666662693026585e-01, 4.1666662693026585e-01,
             4.1666662693026585e-01, 4.1666662693026585e-01,
             4.1666662693026585e-01, 4.1666662693026585e-01,
             4.1666662693026585e-01, 4.1666662693026585e-01,
             4.1666662693026585e-01, 4.1666662693026585e-01,
             4.1666662693026585e-01, 4.1666662693026585e-01,
             4.1666662693026585e-01, 4.1666662693026585e-01,
             4.1666662693026585e-01, 4.1666662693026585e-01,
             4.1666662693026585e-01, 4.1666662693026579e-01,
             4.1666662693026579e-01, 4.1666662693026579e-01,
             4.1666662693026579e-01, 4.1666662693026579e-01,
             4.1666662693026579e-01, 4.1666662693026585e-01,
             4.1666674613946825e-01, 4.1666674613946830e-01,
             4.1666674613946830e-01, 4.1666674613946830e-01,
             4.1666674613946830e-01, 4.1666674613946830e-01,
             4.1666674613946830e-01, 4.1666674613946825e-01,
             4.1666674613946830e-01, 4.1666674613946830e-01,
             4.1666674613946830e-01, 4.1666674613946830e-01,
             4.1666674613946830e-01, 4.1666674613946830e-01,
             4.1666674613946825e-01, 4.1666674613946825e-01,
             4.1666662693026590e-01, 4.1666662693026585e-01,
             4.1666662693026585e-01, 4.1666662693026585e-01,
             4.1666662693026585e-01, 4.1666662693026585e-01,
             4.1666662693026585e-01, 4.1666662693026590e-01,
             4.1666662693026590e-01, 4.1666662693026590e-01,
             4.1666662693026590e-01, 4.1666662693026590e-01,
             4.1666662693026590e-01, 4.1666662693026590e-01,
             4.1666662693026590e-01, 4.1666662693026590e-01,
             4.1666662693026590e-01, 4.1666662693026590e-01,
             4.1666662693026590e-01, 4.1666662693026590e-01,
             4.1666662693026590e-01, 4.1666662693026590e-01,
             4.1666662693026590e-01, 4.1666662693026590e-01,
             4.1666662693026590e-01, 4.1666662693026590e-01,
             4.1666662693026590e-01, 4.1666662693026590e-01,
             4.1666662693026590e-01, 4.1666662693026590e-01,
             4.1666662693026590e-01, 4.1666662693026590e-01,
             4.1666674613946825e-01, 4.1666674613946825e-01,
             4.1666674613946825e-01, 4.1666674613946825e-01,
             4.1666674613946825e-01, 4.1666674613946825e-01,
             4.1666674613946825e-01, 4.1666674613946825e-01,
             4.1666674613946825e-01, 4.1666674613946825e-01,
             4.1666674613946825e-01, 4.1666674613946825e-01,
             4.1666674613946825e-01, 4.1666674613946825e-01,
             4.1666674613946825e-01, 4.1666674613946825e-01, -1., -1.,
             -1., -1., -1., -1., -1., -1., -1., -1., -1., -1., -1., -1.,
             -1., -1., -1., -1., -1., -1., -1., -1., -1., -1., -1., -1.,
             -1., -1., -1., -1., -1., -1., -1., -1., -1., -1., -1., -1.,
             -1., -1. ]
         index: [ 156, 157, 158, 159, 160, 161, 162, 163, 164, 165, 143,
             166, 155, 154, 153, 152, 151, 150, 149, 148, 147, 146, 145,
             144, 179, 136, 189, 188, 187, 186, 185, 184, 183, 182, 181,
             180, 167, 178, 177, 176, 175, 174, 173, 172, 171, 170, 169,
             168, 105, 117, 116, 115, 114, 113, 112, 111, 110, 109, 108,
             107, 106, 141, 104, 103, 102, 101, 100, 99, 98, 97, 96, 95,
             142, 119, 140, 139, 138, 137, 94, 135, 134, 133, 132, 131,
             130, 128, 129, 118, 120, 121, 122, 123, 124, 125, 126, 127,
             211, 212, 207, 213, 214, 215, 216, 217, 218, 219, 220, 221,
             222, 223, 224, 225, 226, 227, 228, 229, 209, 210, 190, 191,
             192, 193, 194, 195, 196, 197, 198, 200, 199, 208, 206, 205,
             204, 203, 202, 201 ]
      -
         sv_count: 179
         rho: -1.3541666666666671e-01
         alpha: [ 8.6458337306958888e-01, 8.6458337306958888e-01,
             8.6458337306958888e-01, 8.6458337306958888e-01,
             8.6458337306958888e-01, 8.6458337306958888e-01,
             8.6458337306958888e-01, 8.6458337306958888e-01,
             8.6458337306958888e-01, 8.6458337306958888e-01,
             8.6458337306958888e-01, 8.6458337306958888e-01,
             8.6458337306958888e-01, 8.6458337306958888e-01,
             8.6458337306958888e-01, 8.6458337306958888e-01,
             8.6458337306958888e-01, 8.6458337306958888e-01,
             8.6458337306958888e-01, 8.6458337306958888e-01,
             8.6458337306958888e-01, 8.6458337306958888e-01,
             8.6458337306958888e-01, 8.6458337306958888e-01,
             8.6458337306958888e-01, 8.6458337306958888e-01,
             8.6458337306958888e-01, 8.6458337306958888e-01,
             8.6458337306958888e-01, 8.6458337306958888e-01,
             8.6458337306958888e-01, 8.6458337306958888e-01,
             8.6458337306958888e-01, 8.6458337306958888e-01,
             8.6458337306958888e-01, 8.6458337306958888e-01,
             8.6458337306958888e-01, 8.6458337306958888e-01,
             8.6458325386082213e-01, 8.6458337306958888e-01,
             8.6458325386082213e-01, 8.6458325386082213e-01,
             8.6458325386082213e-01, 8.6458325386082213e-01,
             8.6458325386082213e-01, 8.6458337306958888e-01,
             8.6458337306958888e-01, 8.6458337306958888e-01,
             8.6458325386082213e-01, 8.6458325386082213e-01,
             8.6458325386082213e-01, 8.6458325386082213e-01,
             8.6458325386082213e-01, 8.6458325386082213e-01,
             8.6458325386082213e-01, 8.6458325386082213e-01,
             8.6458325386082213e-01, 8.6458325386082213e-01,
             8.6458325386082213e-01, 8.6458325386082213e-01,
             8.6458325386082213e-01, 8.6458325386082213e-01,
             8.6458325386082213e-01, 8.6458325386082213e-01,
             8.6458325386082213e-01, 8.6458325386082213e-01,
             8.6458325386082213e-01, 8.6458337306958888e-01,
             8.6458337306958888e-01, 8.6458337306958888e-01,
             8.6458337306958888e-01, 8.6458337306958888e-01,
             8.6458337306958888e-01, 8.6458337306958888e-01,
             8.6458337306958888e-01, 8.6458337306958888e-01,
             8.6458337306958888e-01, 8.6458337306958888e-01,
             8.6458325386082213e-01, 8.6458337306958888e-01,
             8.6458337306958888e-01, 8.6458325386082213e-01,
             8.6458337306958888e-01, 8.6458337306958888e-01,
             8.6458325386082213e-01, 8.6458337306958888e-01,
             8.6458325386082213e-01, 8.6458337306958888e-01,
             8.6458337306958888e-01, 8.6458325386082213e-01,
             8.6458337306958888e-01, 8.6458337306958888e-01,
             8.6458337306958888e-01, 8.6458337306958888e-01,
             8.6458325386082213e-01, 8.6458325386082213e-01, -1., -1.,
             -1., -1., -1., -1., -1., -1., -1., -1., -1., -1., -1., -1.,
             -1., -1., -1., -1., -1., -1., -1., -1., -1., -1., -1., -1.,
             -1., -1., -1., -1., -1., -1., -1., -1., -1., -1., -1., -1.,
             -1., -1., -1., -1., -1., -1., -1., -1., -1., -1., -1., -1.,
             -1., -1., -1., -1., -1., -1., -1., -1., -1., -1., -1., -1.,
             -1., -1., -1., -1., -1., -1., -1., -1., -1., -1., -1., -1.,
             -1., -1., -1., -1., -1., -1., -1., -1., -1. ]
         index: [ 156, 157, 158, 159, 160, 161, 162, 163, 164, 165, 143,
             166, 155, 154, 153, 152, 151, 150, 149, 148, 147, 146, 145,
             144, 179, 136, 189, 188, 187, 186, 185, 184, 183, 182, 181,
             180, 167, 178, 177, 176, 175, 174, 173, 172, 171, 170, 169,
             168, 105, 117, 116, 115, 114, 113, 112, 111, 110, 109, 108,
             107, 106, 141, 104, 103, 102, 101, 100, 99, 98, 97, 96, 95,
             142, 119, 140, 139, 138, 137, 94, 135, 134, 133, 132, 131,
             130, 128, 129, 118, 120, 121, 122, 123, 124, 125, 126, 127,
             291, 290, 289, 288, 287, 286, 257, 285, 284, 283, 282, 281,
             280, 279, 278, 277, 276, 275, 274, 273, 272, 302, 312, 311,
             310, 309, 308, 307, 306, 305, 304, 303, 292, 301, 300, 299,
             298, 297, 296, 295, 294, 293, 238, 248, 247, 246, 245, 244,
             243, 242, 241, 240, 239, 270, 237, 236, 235, 234, 233, 232,
             231, 230, 271, 250, 249, 269, 268, 267, 266, 265, 264, 263,
             262, 261, 259, 258, 256, 255, 254, 253, 252, 251, 260 ]
      -
         sv_count: 188
         rho: -4.1666666666666664e-02
         alpha: [ 9.5833336310732253e-01, 9.5833336310732253e-01,
             9.5833336310732253e-01, 9.5833336310732253e-01,
             9.5833336310732253e-01, 9.5833336310732253e-01,
             9.5833336310732253e-01, 9.5833336310732253e-01,
             9.5833336310732253e-01, 9.5833336310732253e-01,
             9.5833336310732253e-01, 9.5833336310732253e-01,
             9.5833336310732253e-01, 9.5833336310732253e-01,
             9.5833336310732253e-01, 9.5833336310732253e-01,
             9.5833336310732253e-01, 9.5833336310732253e-01,
             9.5833336310732253e-01, 9.5833336310732253e-01,
             9.5833336310732253e-01, 9.5833336310732253e-01,
             9.5833336310732253e-01, 9.5833336310732253e-01,
             9.5833336310732253e-01, 9.5833336310732253e-01,
             9.5833336310732253e-01, 9.5833336310732253e-01,
             9.5833336310732253e-01, 9.5833336310732253e-01,
             9.5833336310732253e-01, 9.5833336310732253e-01,
             9.5833327378535493e-01, 9.5833327378535493e-01,
             9.5833327378535493e-01, 9.5833327378535493e-01,
             9.5833336310732253e-01, 9.5833336310732253e-01,
             9.5833336310732253e-01, 9.5833336310732253e-01,
             9.5833327378535493e-01, 9.5833336310732253e-01,
             9.5833336310732253e-01, 9.5833336310732253e-01,
             9.5833327378535493e-01, 9.5833336310732253e-01,
             9.5833336310732253e-01, 9.5833336310732253e-01,
             9.5833336310732253e-01, 9.5833327378535493e-01,
             9.5833336310732253e-01, 9.5833336310732253e-01,
             9.5833336310732253e-01, 9.5833336310732253e-01,
             9.5833336310732253e-01, 9.5833327378535493e-01,
             9.5833327378535493e-01, 9.5833336310732253e-01,
             9.5833336310732253e-01, 9.5833336310732253e-01,
             9.5833336310732253e-01, 9.5833336310732253e-01,
             9.5833327378535493e-01, 9.5833327378535493e-01,
             9.5833336310732253e-01, 9.5833327378535493e-01,
             9.5833327378535493e-01, 9.5833336310732253e-01,
             9.5833327378535493e-01, 9.5833336310732253e-01,
             9.5833336310732253e-01, 9.5833327378535493e-01,
             9.5833327378535493e-01, 9.5833327378535493e-01,
             9.5833327378535493e-01, 9.5833336310732253e-01,
             9.5833336310732253e-01, 9.5833327378535493e-01,
             9.5833327378535493e-01, 9.5833327378535493e-01,
             9.5833327378535493e-01, 9.5833327378535493e-01,
             9.5833327378535560e-01, 9.5833327378535671e-01,
             9.5833336310732253e-01, 9.5833327378535493e-01,
             9.5833327378535493e-01, 9.5833327378535493e-01,
             9.5833336310732253e-01, 9.5833327378535493e-01,
             9.5833327378535493e-01, 9.5833336310732253e-01,
             9.5833336310732253e-01, 9.5833336310732253e-01,
             9.5833327378535493e-01, 9.5833327378535493e-01, -1., -1.,
             -1., -1., -1., -1., -1., -1., -1., -1., -1., -1., -1., -1.,
             -1., -1., -1., -1., -1., -1., -1., -1., -1., -1., -1., -1.,
             -1., -1., -1., -1., -1., -1., -1., -1., -1., -1., -1., -1.,
             -1., -1., -1., -1., -1., -1., -1., -1., -1., -1., -1., -1.,
             -1., -1., -1., -1., -1., -1., -1., -1., -1., -1., -1., -1.,
             -1., -1., -1., -1., -1., -1., -1., -1., -1., -1., -1., -1.,
             -1., -1., -1., -1., -1., -1., -1., -1., -1., -1., -1., -1.,
             -1., -1., -1., -1., -1., -1. ]
         index: [ 156, 157, 158, 159, 160, 161, 162, 163, 164, 165, 143,
             166, 155, 154, 153, 152, 151, 150, 149, 148, 147, 146, 145,
             144, 179, 136, 189, 188, 187, 186, 185, 184, 183, 182, 181,
             180, 167, 178, 177, 176, 175, 174, 173, 172, 171, 170, 169,
             168, 105, 117, 116, 115, 114, 113, 112, 111, 110, 109, 108,
             107, 106, 141, 104, 103, 102, 101, 100, 99, 98, 97, 96, 95,
             142, 119, 140, 139, 138, 137, 94, 135, 134, 133, 132, 131,
             130, 128, 129, 118, 120, 121, 122, 123, 124, 125, 126, 127,
             370, 371, 372, 373, 374, 375, 376, 377, 378, 379, 380, 359,
             369, 368, 367, 366, 365, 364, 363, 362, 361, 360, 393, 392,
             404, 403, 402, 401, 400, 399, 398, 397, 396, 395, 394, 381,
             391, 390, 389, 388, 387, 386, 385, 384, 383, 382, 323, 334,
             333, 332, 331, 330, 329, 328, 327, 326, 325, 324, 357, 322,
             321, 320, 319, 318, 317, 316, 315, 314, 313, 358, 336, 335,
             356, 355, 354, 353, 352, 351, 350, 349, 348, 347, 345, 344,
             343, 342, 341, 340, 339, 338, 337, 346 ]
      -
         sv_count: 146
         rho: -4.7916666682638204e-01
         alpha: [ 5.2083337290508780e-01, 5.2083337290508780e-01,
             5.2083337290508780e-01, 5.2083337290508780e-01,
             5.2083337290508780e-01, 5.2083337290508780e-01,
             5.2083337290508780e-01, 5.2083337290508780e-01,
             5.2083337290508780e-01, 5.2083337290508780e-01,
             5.2083337290508780e-01, 5.2083337290508780e-01,
             5.2083337290508780e-01, 5.2083337290508780e-01,
             5.2083337290508780e-01, 5.2083337290508780e-01,
             5.2083337290508780e-01, 5.2083337290508780e-01,
             5.2083337290508780e-01, 5.2083337290508780e-01,
             5.2083337290508780e-01, 5.2083337290508780e-01,
             5.2083337290508780e-01, 5.2083337290508780e-01,
             5.2083337290508780e-01, 5.2083337290508780e-01,
             5.2083325371068045e-01, 5.2083325371068045e-01,
             5.2083325371068045e-01, 5.2083325371068045e-01,
             5.2083325371068045e-01, 5.2083325371068045e-01,
             5.2083325371068045e-01, 5.2083325371068045e-01,
             5.2083325371068045e-01, 5.2083325381329926e-01,
             5.2083337290508780e-01, 5.2083337290508780e-01,
             5.2083337290508780e-01, 5.2083337290508780e-01,
             5.2083337290508780e-01, 5.2083337290508780e-01,
             5.2083337290508780e-01, 5.2083337290508780e-01,
             5.2083325371068045e-01, 5.2083337290508780e-01,
             5.2083338813506930e-01, 5.2083337290508780e-01,
             5.2083337290508780e-01, 5.2083337290508780e-01,
             5.2083337290508780e-01, 5.2083337290508780e-01,
             5.2083337290508780e-01, 5.2083337290508780e-01,
             5.2083337290508780e-01, 5.2083337290508780e-01,
             5.2083337290508780e-01, 5.2083337290508780e-01,
             5.2083325371068034e-01, 5.2083325371068034e-01,
             5.2083337290508780e-01, 5.2083337290508780e-01,
             5.2083337290508780e-01, 5.2083337290508780e-01,
             5.2083337290508780e-01, 5.2083337290508780e-01,
             5.2083337290508780e-01, 5.2083337290508780e-01,
             5.2083337290508780e-01, 5.2083337290508780e-01,
             5.2083337290508780e-01, 5.2083337290508780e-01,
             5.2083325371068034e-01, 5.2083325371068034e-01,
             5.2083325371068034e-01, 5.2083325371068034e-01,
             5.2083325371068034e-01, 5.2083325371068034e-01,
             5.2083337290508780e-01, 5.2083337290508780e-01,
             5.2083325371068034e-01, 5.2083325371068034e-01,
             5.2083325371068057e-01, 5.2083325371068034e-01,
             5.2083325371068034e-01, 5.2083325371068034e-01,
             5.2083325371068034e-01, 5.2083325371068034e-01,
             5.2083325371068034e-01, 5.2083325371068034e-01,
             5.2083337290508780e-01, 5.2083337290508780e-01,
             5.2083325371068034e-01, 5.2083325371068045e-01,
             5.2083337290508780e-01, 5.2083325371068034e-01, -1., -1.,
             -1., -1., -1., -1., -1., -1., -1., -1., -1., -1., -1., -1.,
             -1., -1., -1., -1., -1., -1., -1., -1., -1., -1., -1., -1.,
             -1., -1., -1., -1., -1., -1., -1., -1., -1., -1., -1., -1.,
             -1., -1., -1., -1., -1., -1., -1., -1., -1., -1., -1., -1. ]
         index: [ 156, 157, 158, 159, 160, 161, 162, 163, 164, 165, 143,
             166, 155, 154, 153, 152, 151, 150, 149, 148, 147, 146, 145,
             144, 179, 136, 189, 188, 187, 186, 185, 184, 183, 182, 181,
             180, 167, 178, 177, 176, 175, 174, 173, 172, 171, 170, 169,
             168, 105, 117, 116, 115, 114, 113, 112, 111, 110, 109, 108,
             107, 106, 141, 104, 103, 102, 101, 100, 99, 98, 97, 96, 95,
             142, 119, 140, 139, 138, 137, 94, 135, 134, 133, 132, 131,
             130, 128, 129, 118, 120, 121, 122, 123, 124, 125, 126, 127,
             441, 440, 439, 438, 437, 436, 435, 434, 433, 432, 431, 430,
             442, 443, 444, 445, 446, 447, 448, 449, 450, 451, 452, 453,
             454, 428, 429, 405, 406, 407, 408, 409, 410, 411, 412, 413,
             414, 415, 417, 427, 426, 425, 424, 423, 422, 421, 420, 419,
             418, 416 ]
      -
         sv_count: 111
         rho: -8.4375000000014444e-01
         alpha: [ 1.5625000000000000e-01, 1.5625000000000000e-01,
             1.5625000000000000e-01, 1.5625000000000000e-01,
             1.5625000000000000e-01, 1.5625000000000000e-01,
             1.5625000000000000e-01, 1.5625000000000000e-01,
             1.5625000000000000e-01, 1.5625000000000000e-01,
             1.5625000000000000e-01, 1.5625000000000000e-01,
             1.5625000000000000e-01, 1.5625000000000000e-01,
             1.5625000000000000e-01, 1.5625000000000000e-01,
             1.5625000000000000e-01, 1.5625000000000000e-01,
             1.5625000000000000e-01, 1.5625000000000000e-01,
             1.5624999999913197e-01, 1.5624999999913197e-01,
             1.5624999999913197e-01, 1.5624999999913197e-01,
             1.5625000000000000e-01, 1.5625000000000000e-01,
             1.5625000000000000e-01, 1.5625000000000000e-01,
             1.5624999999913197e-01, 1.5625000000000000e-01,
             1.5625000000000000e-01, 1.5625000000000000e-01,
             1.5625000000000000e-01, 1.5625000000000000e-01,
             1.5625000000000000e-01, 1.5625000000000000e-01,
             1.5625000000000000e-01, 1.5625000000000000e-01,
             1.5625000000000000e-01, 1.5625000000000000e-01,
             1.5625000000000000e-01, 1.5625000000000000e-01,
             1.5625000000000000e-01, 1.5625000000000000e-01,
             1.5625000000000000e-01, 1.5625000000000000e-01,
             1.5625000001301997e-01, 1.5625000000000000e-01,
             1.5625000000000000e-01, 1.5625000000000000e-01,
             1.5625000000000000e-01, 1.5625000000000000e-01,
             1.5625000000000000e-01, 1.5625000000000000e-01,
             1.5625000000000000e-01, 1.5625000000000000e-01,
             1.5625000000000000e-01, 1.5625000000000000e-01,
             1.5624999999913197e-01, 1.5624999999913197e-01,
             1.5625000000000000e-01, 1.5625000000000000e-01,
             1.5625000000000000e-01, 1.5625000000000000e-01,
             1.5625000000000000e-01, 1.5625000000000000e-01,
             1.5625000000000000e-01, 1.5625000000000000e-01,
             1.5625000000000000e-01, 1.5625000000000000e-01,
             1.5625000000000000e-01, 1.5625000000000000e-01,
             1.5625000000000000e-01, 1.5625000000000000e-01,
             1.5625000000000000e-01, 1.5625000000000000e-01,
             1.5625000000000000e-01, 1.5625000000000000e-01,
             1.5625000000000000e-01, 1.5625000000000000e-01,
             1.5625000000000000e-01, 1.5625000000000000e-01,
             1.5625000000000000e-01, 1.5625000000000000e-01,
             1.5625000000000000e-01, 1.5625000000000000e-01,
             1.5625000000000000e-01, 1.5625000000000000e-01,
             1.5624999999913203e-01, 1.5624999999913203e-01,
             1.5624999999913203e-01, 1.5624999999913203e-01,
             1.5624999999913203e-01, 1.5624999999913203e-01,
             1.5624999999913203e-01, 1.5624999999913203e-01, -1., -1.,
             -1., -1., -1., -1., -1., -1., -1., -1., -1., -1., -1., -1.,
             -1. ]
         index: [ 156, 157, 158, 159, 160, 161, 162, 163, 164, 165, 143,
             166, 155, 154, 153, 152, 151, 150, 149, 148, 147, 146, 145,
             144, 179, 136, 189, 188, 187, 186, 185, 184, 183, 182, 181,
             180, 167, 178, 177, 176, 175, 174, 173, 172, 171, 170, 169,
             168, 105, 117, 116, 115, 114, 113, 112, 111, 110, 109, 108,
             107, 106, 141, 104, 103, 102, 101, 100, 99, 98, 97, 96, 95,
             142, 119, 140, 139, 138, 137, 94, 135, 134, 133, 132, 131,
             130, 128, 129, 118, 120, 121, 122, 123, 124, 125, 126, 127,
             461, 469, 468, 467, 466, 465, 464, 463, 460, 459, 458, 457,
             456, 455, 462 ]
      -
         sv_count: 141
         rho: -5.3608247422680411e-01
         alpha: [ 4.6391755342483521e-01, 4.6391755342483521e-01,
             4.6391755342483521e-01, 4.6391755342483521e-01,
             4.6391755342483521e-01, 4.6391755342483521e-01,
             4.6391755342483521e-01, 4.6391755342483521e-01,
             4.6391755342483521e-01, 4.6391755342483521e-01,
             4.6391755342483521e-01, 4.6391755342483521e-01,
             4.6391755342483521e-01, 4.6391755342483521e-01,
             4.6391755342483521e-01, 4.6391755342483521e-01,
             4.6391755342483521e-01, 4.6391755342483521e-01,
             4.6391755342483521e-01, 4.6391755342483521e-01,
             4.6391755342483521e-01, 4.6391755342483521e-01,
             4.6391755342483521e-01, 4.6391755342483521e-01,
             4.6391755342483521e-01, 4.6391755342483521e-01,
             4.6391755342483521e-01, 4.6391755342483521e-01,
             4.6391755342483521e-01, 4.6391755342483521e-01,
             4.6391755342483521e-01, 4.6391755342483521e-01,
             4.6391755342483521e-01, 4.6391755342483521e-01,
             4.6391755342483521e-01, 4.6391755342483521e-01,
             4.6391755342483521e-01, 4.6391755342483521e-01,
             4.6391755342483521e-01, 4.6391749382019043e-01,
             4.6391749382019043e-01, 4.6391749382019043e-01,
             4.6391749382019043e-01, 4.6391749382019043e-01,
             4.6391749382019043e-01, 4.6391749382019043e-01,
             4.6391749382019043e-01, 4.6391749382019043e-01,
             4.6391749382019043e-01, 4.6391749382019043e-01,
             4.6391749382019043e-01, 4.6391749382019043e-01,
             4.6391749382019043e-01, 4.6391749382019043e-01,
             4.6391749382019043e-01, 4.6391749382019043e-01,
             4.6391749382019043e-01, 4.6391749382019043e-01,
             4.6391749382019043e-01, 4.6391749382019043e-01,
             4.6391749382019043e-01, 4.6391749382019043e-01,
             4.6391749382019043e-01, 4.6391749382019043e-01,
             4.6391749382019043e-01, 4.6391749382019043e-01,
             4.6391749382019043e-01, 4.6391755342483521e-01,
             4.6391755342483521e-01, 4.6391755342483521e-01,
             4.6391755342483521e-01, 4.6391755342483521e-01,
             4.6391755342483521e-01, 4.6391755342483521e-01,
             4.6391755342483521e-01, 4.6391749382019043e-01,
             4.6391749382019043e-01, 4.6391749382019043e-01,
             4.6391749382019043e-01, 4.6391749382019043e-01,
             4.6391749382019043e-01, 4.6391749382019043e-01,
             4.6391749382019043e-01, 4.6391749382019043e-01,
             4.6391749382019043e-01, 4.6391755342483521e-01,
             4.6391755342483521e-01, 4.6391755342483521e-01,
             4.6391755342483521e-01, 4.6391749382019043e-01,
             4.6391749382019043e-01, 4.6391749382019043e-01,
             4.6391749382019043e-01, 4.6391749382019043e-01,
             4.6391749382019043e-01, 4.6391749382019043e-01, -1., -1.,
             -1., -1., -1., -1., -1., -1., -1., -1., -1., -1., -1., -1.,
             -1., -1., -1., -1., -1., -1., -1., -1., -1., -1.,
             -5.3608244657516479e-01, -1., -1., -1., -1., -1., -1., -1.,
             -1., -1., -1., -1., -1., -1., -1., -1., -1., -1., -1., -1.,
             -1. ]
         index: [ 156, 157, 158, 159, 160, 161, 162, 163, 164, 165, 143,
             166, 155, 154, 153, 152, 151, 150, 149, 148, 147, 146, 145,
             144, 179, 136, 189, 188, 187, 186, 185, 184, 183, 182, 181,
             180, 167, 178, 177, 176, 175, 174, 173, 172, 171, 170, 169,
             168, 105, 117, 116, 115, 114, 113, 112, 111, 110, 109, 108,
             107, 106, 141, 104, 103, 102, 101, 100, 99, 98, 97, 96, 95,
             142, 119, 140, 139, 138, 137, 94, 135, 134, 133, 132, 131,
             130, 128, 129, 118, 120, 121, 122, 123, 124, 125, 126, 127,
             495, 502, 501, 500, 499, 498, 497, 496, 507, 494, 493, 503,
             504, 505, 506, 508, 509, 510, 511, 512, 513, 514, 481, 470,
             471, 472, 473, 474, 475, 476, 477, 478, 479, 480, 492, 482,
             483, 484, 485, 486, 487, 488, 489, 490, 491 ]
      -
         sv_count: 123
         rho: 5.1807228897980429e-01
         alpha: [ 1., 1., 1., 1., 1., 1., 1., 1., 1., 1., 1., 1., 1., 1.,
             1., 1., 1., 1., 1., 1., 1., 1., 1., 1., 1., 1., 1., 1., 1.,
             1., 1., 1., 1., 1., 1., 1., 1., 1., 1., 1.,
             -4.8192775266351368e-01, -4.8192775266350757e-01,
             -4.8192775266178917e-01, -4.8192763348680051e-01,
             -4.8192775266145427e-01, -4.8192775266178817e-01,
             -4.8192775266587473e-01, -4.8192775266179610e-01,
             -4.8192775266183768e-01, -4.8192763346584722e-01,
             -4.8192775266178806e-01, -4.8192775266183779e-01,
             -4.8192775266183785e-01, -4.8192775266178828e-01,
             -4.8192775266167120e-01, -4.8192775266179616e-01,
             -4.8192763346584006e-01, -4.8192775266183807e-01,
             -4.8192763348589684e-01, -4.8192775266179627e-01,
             -4.8192763348680268e-01, -4.8192775266179616e-01,
             -4.8192775266178922e-01, -4.8192763348680240e-01,
             -4.8192763346583989e-01, -4.8192775266183802e-01,
             -4.8192763348680245e-01, -4.8192775266183779e-01,
             -4.8192775266183796e-01, -4.8192775266183807e-01,
             -4.8192775266167137e-01, -4.8192775266167143e-01,
             -4.8192763348680046e-01, -4.8192775266183713e-01,
             -4.8192763348680040e-01, -4.8192763346584022e-01,
             -4.8192763346583289e-01, -4.8192763346653339e-01,
             -4.8192763346583262e-01, -4.8192775266183802e-01,
             -4.8192775266178911e-01, -4.8192763348680023e-01,
             -4.8192775266188237e-01, -4.8192774532208876e-01,
             -4.8192763348679435e-01, -4.8192775266183796e-01,
             -4.8192763348680051e-01, -4.8192763348680023e-01,
             -4.8192775266179605e-01, -4.8192763348680273e-01,
             -4.8192775266183718e-01, -4.8192763348680051e-01,
             -4.8192775266183807e-01, -4.8192775266178767e-01,
             -4.8192763348680040e-01, -4.8192763348678397e-01,
             -4.8192775266183724e-01, -4.8192775266183807e-01,
             -4.8192775266183807e-01, -4.8192763348680040e-01,
             -4.8192775266183807e-01, -4.8192775266183807e-01,
             -4.8192775266133814e-01, -4.8192775266183807e-01,
             -4.8192763348680046e-01, -4.8192763348680051e-01,
             -4.8192775266351351e-01, -4.8192775266178817e-01,
             -4.8192775266351345e-01, -4.8192775266188237e-01,
             -4.8192775266183774e-01, -4.8192775266178917e-01,
             -4.8192763348680046e-01, -4.8192775266183796e-01,
             -4.8192775266183796e-01, -4.8192775266351340e-01,
             -4.8192775266351345e-01, -4.8192763346584733e-01,
             -4.8192762612608436e-01, -4.8192775266179616e-01,
             -4.8192775266183779e-01, -4.8192763348678591e-01,
             -4.8192775266167137e-01 ]
         index: [ 211, 212, 207, 213, 214, 215, 216, 217, 218, 219, 220,
             221, 222, 223, 224, 225, 226, 227, 228, 229, 209, 210, 190,
             191, 192, 193, 194, 195, 196, 197, 198, 200, 199, 208, 206,
             205, 204, 203, 202, 201, 291, 290, 289, 288, 287, 286, 257,
             285, 284, 283, 282, 281, 280, 279, 278, 277, 276, 275, 274,
             273, 272, 302, 312, 311, 310, 309, 308, 307, 306, 305, 304,
             303, 292, 301, 300, 299, 298, 297, 296, 295, 294, 293, 238,
             248, 247, 246, 245, 244, 243, 242, 241, 240, 239, 270, 237,
             236, 235, 234, 233, 232, 231, 230, 271, 250, 249, 269, 268,
             267, 266, 265, 264, 263, 262, 261, 259, 258, 256, 255, 254,
             253, 252, 251, 260 ]
      -
         sv_count: 132
         rho: 5.6504731697210009e-01
         alpha: [ 1., 1., 1., 1., 1., 1., 1., 1., 1., 1., 1., 1., 1., 1.,
             1., 1., 1., 1., 1., 1., 1., 1., 1., 1., 1., 1., 1., 1., 1.,
             1., 1., 1., 1., 1., 1., 1., 1., 1., 1., 1.,
             -4.3495268085892980e-01, -4.3495268431717093e-01,
             -4.3495268085892974e-01, -4.3495265092591040e-01,
             -4.3495269432432859e-01, -4.3495273082832087e-01,
             -4.3495268109437007e-01, -4.3495268952651600e-01,
             -4.3495264846685261e-01, -4.3495268431692924e-01,
             -4.3495273082942987e-01, -4.3495268109437019e-01,
             -4.3495268431722961e-01, -4.3495268431722961e-01,
             -4.3495265902794789e-01, -4.3495268431717093e-01,
             -4.3495265092597074e-01, -4.3495268431717082e-01,
             -4.3495268636175077e-01, -4.3495272780973937e-01,
             -4.3495268431717077e-01, -4.3495265902318497e-01,
             -4.3495273082442981e-01, -4.3495265092598545e-01,
             -4.3495268431717082e-01, -4.3495265902316982e-01,
             -4.3495273082944474e-01, -4.3495273012535846e-01,
             -4.2712940131402699e-01, -4.3495265902795133e-01,
             -4.3495268431717099e-01, -4.3495265902856178e-01,
             -4.3495268431717077e-01, -4.3495268085892980e-01,
             -4.3495272097808590e-01, -4.3495272097808607e-01,
             -4.3495264846685272e-01, -4.3495265902856178e-01,
             -4.3495268431717077e-01, -4.3495265902795111e-01,
             -4.3495273024667297e-01, -4.3495273082832098e-01,
             -4.3495273024668862e-01, -4.3495265092591034e-01,
             -4.3495268431717088e-01, -4.3495273024667291e-01,
             -4.3495259777069661e-01, -4.3495268431717105e-01,
             -4.3495265902795133e-01, -4.3495265902318497e-01,
             -4.3495268431717099e-01, -4.3495265902765046e-01,
             -4.3495265902856184e-01, -4.3495268431717082e-01,
             -4.3495268431717082e-01, -4.3495273082832081e-01,
             -4.3495265902795127e-01, -4.2712954604458125e-01,
             -4.3495265902856173e-01, -4.3495265092591034e-01,
             -4.3495273082832059e-01, -4.3495268109437002e-01,
             -4.3495273082942992e-01, -4.3495265092591034e-01,
             -4.3495268508671608e-01, -4.3495268431717071e-01,
             -4.3495251787297734e-01, -4.3495268431717077e-01,
             -4.3495268431717088e-01, -4.3495267842197816e-01,
             -4.3495265902318492e-01, -4.3495268952651617e-01,
             -4.3495265902794805e-01, -4.3495268431722944e-01,
             -4.3495265902318492e-01, -4.3495265902318492e-01,
             -4.3495265890662249e-01, -4.3495265902318481e-01,
             -4.3495272097808568e-01, -4.3495265092598534e-01,
             -4.3495265902856184e-01, -4.3495265902856201e-01,
             -4.3495251540783592e-01, -4.3495268636175094e-01,
             -4.3495265902856184e-01, -4.3495265902856184e-01,
             -4.3495265902318497e-01, -4.3495273024668829e-01,
             -4.3495272097808585e-01, -4.3495268109437013e-01,
             -4.3495273082442992e-01, -4.3495264846687093e-01 ]
         index: [ 211, 212, 207, 213, 214, 215, 216, 217, 218, 219, 220,
             221, 222, 223, 224, 225, 226, 227, 228, 229, 209, 210, 190,
             191, 192, 193, 194, 195, 196, 197, 198, 200, 199, 208, 206,
             205, 204, 203, 202, 201, 370, 371, 372, 373, 374, 375, 376,
             377, 378, 379, 380, 359, 369, 368, 367, 366, 365, 364, 363,
             362, 361, 360, 393, 392, 404, 403, 402, 401, 400, 399, 398,
             397, 396, 395, 394, 381, 391, 390, 389, 388, 387, 386, 385,
             384, 383, 382, 323, 334, 333, 332, 331, 330, 329, 328, 327,
             326, 325, 324, 357, 322, 321, 320, 319, 318, 317, 316, 315,
             314, 313, 358, 336, 335, 356, 355, 354, 353, 352, 351, 350,
             349, 348, 347, 345, 344, 343, 342, 341, 340, 339, 338, 337,
             346 ]
      -
         sv_count: 90
         rho: 2.0000003123667678e-01
         alpha: [ 1., 1., 1., 1., 1., 1., 1., 1., 1., 1., 1., 1., 1., 1.,
             1., 1., 1., 1., 1., 1., 1., 1., 1., 1., 1., 1., 1., 1., 1.,
             1., 1., 1., 1., 1., 1., 1., 1., 1., 1., 1.,
             -7.9999992139738751e-01, -7.9999992134613984e-01,
             -7.9999992140166609e-01, -7.9999992140154741e-01,
             -7.9999991690831584e-01, -7.9999967662431481e-01,
             -8.0000004016129922e-01, -7.9999992140147480e-01,
             -7.9999992134613973e-01, -7.9999992134613973e-01,
             -8.0000004016088744e-01, -7.9999992140147502e-01,
             -8.0000004016088777e-01, -7.9999992140147502e-01,
             -7.9999992140154741e-01, -8.0000003934277730e-01,
             -8.0000218167553716e-01, -8.0000004016089232e-01,
             -8.0000003567865074e-01, -7.9999992134604636e-01,
             -8.0000004016090764e-01, -7.9999992133493747e-01,
             -8.0000003934275732e-01, -7.9999992140147103e-01,
             -7.9999992140154741e-01, -8.0000003934277553e-01,
