%YAML:1.0
---
opencv_ml_svm:
   format: 3
   svmType: C_SVC
   kernel:
      type: RBF
      gamma: 1.
   C: 1.
   term_criteria: { epsilon:1.1920928955078125e-07, iterations:1000 }
   var_count: 32
   class_count: 12
   class_labels: !!opencv-matrix
      rows: 12
      cols: 1
      dt: i
      data: [ 0, 1, 2, 3, 4, 5, 6, 7, 8, 9, 10, 11 ]
   sv_total: 517
   support_vectors:
      - [ 2., 2., 4., 6., 1., 4., 18., 0., 2., 2., 2., 3., 7., 1., 3.,
          3., 1., 2., 3., 2., 5., 1., 4., 2., 1., 4., 3., 0., 3., 2., 7.,
          7. ]
      - [ 1., 8., 11., 6., 2., 2., 18., 15., 30., 15., 5., 8., 9., 7.,
          4., 20., 13., 23., 4., 8., 10., 6., 6., 24., 3., 14., 5., 6.,
          5., 17., 7., 5. ]
      - [ 2., 2., 2., 2., 3., 4., 1., 1., 5., 5., 1., 0., 3., 0., 2., 5.,
          0., 0., 0., 3., 5., 7., 1., 2., 1., 2., 0., 0., 0., 0., 4., 5. ]
      - [ 3., 7., 6., 7., 5., 7., 6., 5., 18., 8., 5., 5., 5., 3., 5.,
          11., 4., 8., 4., 8., 4., 9., 6., 8., 3., 8., 6., 6., 5., 6.,
          3., 3. ]
      - [ 5., 7., 9., 9., 4., 9., 15., 6., 8., 14., 11., 7., 6., 15., 4.,
          10., 8., 15., 13., 13., 6., 5., 4., 12., 10., 10., 7., 10., 5.,
          11., 9., 8. ]
      - [ 5., 4., 1., 5., 4., 2., 6., 4., 14., 4., 5., 7., 6., 4., 4.,
          4., 3., 2., 3., 12., 3., 5., 4., 8., 4., 6., 3., 3., 2., 3.,
          10., 2. ]
      - [ 5., 5., 9., 5., 7., 14., 8., 6., 12., 8., 13., 10., 7., 4.,
          11., 9., 6., 10., 11., 8., 5., 9., 6., 7., 2., 14., 2., 10.,
          9., 4., 5., 8. ]
      - [ 4., 2., 5., 5., 2., 11., 3., 1., 2., 1., 9., 5., 10., 3., 4.,
          2., 1., 2., 0., 11., 5., 3., 3., 0., 2., 9., 2., 3., 1., 0.,
          3., 10. ]
      - [ 5., 4., 5., 1., 6., 2., 12., 6., 16., 6., 4., 16., 11., 3.,
          18., 10., 7., 18., 10., 2., 11., 2., 2., 14., 6., 3., 4., 12.,
          5., 8., 8., 7. ]
      - [ 6., 12., 9., 5., 2., 2., 3., 4., 12., 6., 3., 4., 7., 6., 11.,
          8., 6., 6., 5., 11., 5., 4., 5., 8., 2., 13., 4., 3., 3., 5.,
          13., 6. ]
      - [ 0., 1., 6., 1., 2., 0., 3., 2., 6., 7., 0., 3., 6., 1., 1., 1.,
          6., 2., 3., 7., 3., 10., 2., 7., 4., 6., 0., 3., 2., 6., 8.,
          1. ]
      - [ 1., 1., 3., 3., 4., 5., 2., 8., 9., 3., 4., 4., 3., 6., 7., 4.,
          1., 8., 8., 4., 2., 1., 6., 9., 8., 6., 2., 6., 7., 5., 2., 0. ]
      - [ 8., 2., 11., 5., 7., 6., 7., 12., 5., 5., 10., 11., 3., 3., 7.,
          2., 2., 5., 18., 6., 3., 10., 12., 2., 1., 4., 2., 5., 20., 3.,
          14., 8. ]
      - [ 3., 2., 6., 4., 1., 5., 17., 6., 16., 16., 6., 4., 12., 8., 1.,
          3., 12., 3., 3., 7., 11., 10., 8., 7., 5., 6., 2., 2., 1., 11.,
          2., 3. ]
      - [ 1., 2., 4., 5., 3., 1., 8., 1., 31., 1., 2., 3., 6., 1., 4.,
          6., 6., 0., 2., 1., 7., 2., 1., 4., 1., 55., 4., 3., 3., 3.,
          8., 3. ]
      - [ 4., 2., 5., 1., 2., 2., 4., 2., 6., 3., 5., 3., 5., 1., 2., 3.,
          4., 2., 8., 8., 5., 7., 4., 3., 2., 3., 0., 0., 6., 5., 1., 0. ]
      - [ 2., 3., 5., 2., 4., 3., 3., 5., 22., 12., 3., 5., 2., 3., 2.,
          12., 10., 0., 1., 1., 8., 6., 4., 13., 0., 20., 5., 0., 5.,
          11., 18., 1. ]
      - [ 8., 2., 8., 10., 11., 10., 5., 1., 7., 2., 11., 2., 4., 7., 2.,
          5., 4., 4., 4., 9., 7., 15., 7., 6., 5., 4., 5., 3., 4., 4.,
          2., 7. ]
      - [ 3., 4., 0., 4., 2., 1., 1., 4., 3., 7., 3., 9., 3., 8., 9., 2.,
          4., 8., 11., 9., 4., 11., 3., 4., 5., 3., 4., 4., 7., 3., 2.,
          4. ]
      - [ 5., 11., 8., 5., 10., 5., 4., 1., 7., 4., 12., 11., 7., 2.,
          10., 5., 6., 3., 2., 3., 8., 2., 8., 4., 2., 7., 5., 4., 0.,
          3., 3., 12. ]
      - [ 1., 3., 3., 8., 1., 2., 3., 1., 6., 9., 1., 6., 6., 1., 4., 1.,
          3., 2., 2., 2., 8., 0., 1., 4., 0., 10., 1., 3., 0., 6., 4.,
          1. ]
      - [ 7., 4., 8., 3., 12., 3., 1., 4., 9., 9., 10., 3., 9., 2., 6.,
          10., 11., 3., 2., 8., 9., 6., 14., 12., 0., 7., 2., 3., 1., 7.,
          4., 5. ]
      - [ 1., 1., 5., 8., 2., 5., 15., 4., 11., 6., 1., 1., 6., 1., 2.,
          3., 6., 0., 0., 6., 7., 2., 2., 3., 0., 11., 6., 0., 2., 8.,
          6., 3. ]
      - [ 0., 8., 2., 2., 1., 5., 3., 5., 15., 8., 11., 5., 5., 6., 3.,
          2., 7., 2., 5., 5., 4., 5., 4., 7., 1., 8., 3., 2., 2., 8., 5.,
          2. ]
      - [ 10., 8., 5., 6., 5., 7., 12., 4., 11., 12., 8., 6., 10., 7.,
          7., 25., 10., 5., 5., 10., 4., 15., 4., 16., 6., 4., 4., 4.,
          6., 8., 11., 11. ]
      - [ 3., 1., 4., 1., 6., 3., 6., 4., 14., 0., 5., 8., 5., 3., 4.,
          4., 1., 1., 0., 6., 6., 9., 4., 5., 3., 2., 5., 2., 8., 1., 7.,
          1. ]
      - [ 7., 5., 9., 3., 17., 8., 11., 18., 17., 6., 14., 12., 6., 14.,
          13., 12., 8., 16., 14., 13., 2., 13., 6., 6., 15., 15., 8.,
          19., 14., 7., 17., 15. ]
      - [ 1., 6., 3., 1., 3., 2., 8., 5., 9., 8., 6., 6., 6., 5., 3.,
          11., 5., 1., 9., 4., 5., 9., 5., 9., 7., 12., 2., 6., 8., 8.,
          6., 6. ]
      - [ 3., 9., 10., 12., 0., 7., 11., 3., 18., 19., 6., 4., 8., 5.,
          4., 7., 15., 14., 4., 5., 13., 0., 5., 13., 4., 31., 2., 2.,
          1., 22., 3., 6. ]
      - [ 4., 1., 3., 5., 6., 4., 1., 8., 23., 5., 1., 4., 5., 3., 8.,
          9., 2., 1., 3., 4., 7., 5., 3., 2., 5., 23., 0., 3., 5., 4.,
          4., 4. ]
      - [ 4., 3., 3., 6., 2., 4., 11., 1., 15., 11., 3., 4., 3., 2., 3.,
          3., 14., 4., 4., 7., 7., 4., 4., 7., 3., 7., 4., 6., 2., 15.,
          4., 2. ]
      - [ 3., 8., 5., 4., 2., 3., 1., 1., 0., 4., 2., 4., 5., 4., 9., 5.,
          3., 12., 10., 6., 4., 10., 2., 2., 0., 4., 2., 4., 5., 5., 4.,
          6. ]
      - [ 3., 7., 1., 5., 11., 6., 6., 4., 8., 5., 9., 14., 8., 9., 8.,
          7., 6., 13., 5., 5., 8., 8., 5., 4., 5., 2., 3., 3., 10., 1.,
          10., 8. ]
      - [ 5., 6., 7., 11., 2., 12., 7., 3., 19., 6., 7., 9., 2., 5., 17.,
          4., 6., 1., 6., 10., 10., 16., 12., 9., 2., 11., 5., 0., 3.,
          9., 1., 8. ]
      - [ 3., 6., 5., 8., 5., 8., 2., 1., 2., 5., 2., 4., 3., 4., 7., 7.,
          3., 6., 6., 5., 6., 3., 1., 6., 5., 1., 4., 1., 2., 3., 4., 3. ]
      - [ 3., 5., 6., 2., 1., 3., 5., 11., 2., 4., 5., 4., 4., 0., 5.,
          3., 6., 0., 10., 3., 7., 6., 3., 3., 1., 8., 4., 4., 2., 4.,
          7., 5. ]
      - [ 3., 3., 2., 3., 6., 5., 2., 5., 13., 6., 7., 2., 3., 3., 3.,
          6., 9., 6., 4., 15., 3., 2., 7., 6., 2., 4., 1., 4., 6., 4.,
          7., 7. ]
      - [ 0., 4., 2., 0., 6., 5., 3., 3., 4., 2., 7., 8., 1., 4., 5., 7.,
          2., 2., 7., 8., 3., 12., 7., 1., 4., 4., 6., 4., 4., 4., 3.,
          2. ]
      - [ 7., 9., 5., 8., 1., 8., 22., 5., 9., 11., 7., 7., 14., 6., 7.,
          11., 7., 13., 2., 10., 7., 7., 9., 9., 7., 12., 4., 2., 7.,
          10., 10., 9. ]
      - [ 4., 9., 6., 7., 4., 12., 5., 12., 16., 3., 12., 4., 4., 6., 6.,
          6., 1., 5., 17., 7., 7., 6., 4., 19., 4., 12., 4., 2., 5., 5.,
          9., 7. ]
      - [ 4., 5., 4., 7., 2., 6., 4., 6., 9., 5., 9., 5., 9., 3., 5., 2.,
          3., 1., 7., 9., 8., 3., 3., 6., 4., 8., 4., 3., 3., 9., 12.,
          2. ]
      - [ 5., 10., 8., 6., 3., 9., 8., 2., 8., 7., 5., 7., 10., 9., 8.,
          4., 14., 3., 9., 9., 8., 2., 10., 1., 5., 3., 7., 5., 6., 9.,
          1., 5. ]
      - [ 2., 12., 14., 6., 8., 7., 12., 11., 15., 7., 10., 10., 5., 14.,
          8., 5., 12., 13., 10., 11., 6., 11., 6., 6., 8., 15., 12., 13.,
          10., 9., 12., 3. ]
      - [ 5., 9., 9., 6., 4., 11., 12., 4., 10., 13., 4., 6., 9., 6.,
          11., 12., 12., 5., 2., 3., 12., 6., 8., 16., 3., 13., 4., 1.,
          9., 17., 11., 4. ]
      - [ 2., 0., 4., 0., 1., 2., 0., 4., 3., 0., 8., 9., 2., 3., 4., 6.,
          2., 0., 2., 21., 2., 11., 5., 4., 2., 3., 1., 3., 5., 2., 7.,
          3. ]
      - [ 5., 6., 6., 14., 6., 4., 13., 0., 22., 6., 5., 5., 7., 1., 6.,
          6., 8., 2., 2., 11., 10., 11., 7., 7., 1., 12., 1., 6., 1.,
          11., 6., 3. ]
      - [ 5., 1., 1., 2., 1., 3., 0., 3., 10., 1., 6., 1., 2., 1., 4.,
          1., 3., 5., 2., 9., 3., 6., 2., 0., 2., 3., 3., 3., 5., 2., 2.,
          6. ]
      - [ 3., 6., 2., 2., 3., 11., 8., 4., 9., 9., 2., 6., 6., 5., 9.,
          5., 2., 4., 6., 7., 7., 6., 3., 6., 3., 8., 4., 5., 4., 13.,
          1., 3. ]
      - [ 0., 3., 7., 2., 5., 4., 0., 2., 7., 1., 5., 13., 3., 4., 12.,
          5., 0., 2., 1., 3., 4., 8., 6., 4., 6., 6., 3., 5., 6., 4., 3.,
          4. ]
      - [ 1., 1., 6., 1., 2., 2., 1., 6., 2., 2., 1., 2., 0., 0., 3., 3.,
          1., 2., 9., 8., 1., 7., 0., 8., 5., 9., 0., 4., 6., 0., 4., 2. ]
      - [ 1., 1., 8., 2., 1., 2., 1., 4., 2., 3., 3., 4., 4., 3., 2., 3.,
          2., 1., 9., 5., 3., 7., 7., 7., 4., 1., 0., 3., 8., 1., 0., 1. ]
      - [ 1., 4., 5., 3., 8., 6., 2., 6., 7., 6., 6., 9., 4., 4., 4., 1.,
          7., 6., 6., 8., 2., 10., 4., 10., 5., 3., 5., 5., 8., 2., 3.,
          6. ]
      - [ 6., 2., 9., 17., 3., 8., 9., 6., 18., 3., 4., 1., 13., 5., 3.,
          3., 5., 4., 2., 8., 8., 2., 3., 3., 2., 8., 2., 3., 2., 7.,
          12., 6. ]
      - [ 7., 12., 9., 4., 20., 6., 20., 0., 5., 14., 13., 12., 6., 11.,
          19., 15., 18., 36., 8., 6., 10., 6., 10., 9., 10., 3., 13.,
          15., 9., 16., 9., 9. ]
      - [ 1., 3., 5., 1., 2., 1., 2., 10., 4., 2., 2., 5., 2., 5., 1.,
          3., 2., 4., 6., 8., 3., 9., 3., 6., 9., 5., 2., 2., 7., 2., 3.,
          3. ]
      - [ 4., 6., 10., 2., 9., 2., 4., 5., 4., 10., 11., 3., 5., 5., 4.,
          2., 5., 3., 2., 10., 3., 6., 10., 6., 3., 6., 3., 6., 0., 5.,
          8., 3. ]
      - [ 8., 5., 10., 5., 1., 2., 6., 10., 15., 13., 9., 8., 6., 6., 2.,
          6., 11., 5., 3., 10., 9., 8., 2., 13., 2., 10., 4., 6., 5.,
          12., 9., 2. ]
      - [ 3., 3., 2., 4., 4., 2., 1., 4., 6., 10., 5., 3., 11., 2., 6.,
          8., 1., 6., 3., 6., 7., 6., 7., 8., 2., 11., 2., 2., 3., 8.,
          5., 3. ]
      - [ 2., 0., 3., 0., 1., 1., 1., 4., 6., 0., 5., 1., 1., 9., 0., 1.,
          0., 0., 2., 4., 0., 4., 1., 1., 3., 5., 0., 1., 7., 0., 3., 0. ]
      - [ 1., 3., 7., 10., 5., 5., 26., 7., 11., 14., 7., 6., 6., 4., 3.,
          11., 12., 7., 2., 3., 11., 2., 4., 15., 3., 15., 3., 4., 2.,
          10., 3., 5. ]
      - [ 4., 4., 13., 5., 6., 1., 1., 1., 0., 1., 5., 4., 2., 10., 6.,
          3., 2., 4., 6., 20., 2., 7., 8., 2., 9., 3., 7., 6., 3., 0.,
          5., 6. ]
      - [ 3., 4., 7., 6., 13., 3., 9., 3., 15., 4., 7., 4., 2., 5., 8.,
          3., 3., 1., 2., 10., 3., 9., 11., 6., 4., 7., 3., 2., 7., 7.,
          2., 5. ]
      - [ 3., 3., 2., 0., 10., 0., 0., 0., 0., 1., 6., 8., 0., 2., 5.,
          3., 1., 8., 2., 4., 0., 4., 6., 1., 4., 0., 3., 4., 1., 0., 1.,
          1. ]
      - [ 8., 8., 1., 6., 17., 2., 1., 1., 1., 7., 10., 3., 6., 8., 12.,
          6., 3., 8., 2., 10., 3., 9., 10., 4., 10., 5., 3., 5., 4., 4.,
          2., 4. ]
      - [ 11., 7., 7., 19., 5., 22., 18., 2., 8., 13., 10., 7., 13., 16.,
          3., 3., 13., 13., 2., 6., 9., 1., 12., 3., 5., 10., 15., 8.,
          1., 17., 3., 22. ]
      - [ 6., 1., 5., 4., 10., 4., 3., 6., 8., 3., 1., 4., 5., 1., 3.,
          9., 3., 2., 5., 6., 13., 8., 7., 7., 2., 5., 1., 2., 13., 2.,
          8., 7. ]
      - [ 2., 8., 8., 7., 5., 10., 22., 3., 8., 19., 9., 12., 6., 9.,
          10., 4., 17., 11., 9., 6., 5., 7., 6., 12., 13., 6., 5., 6.,
          10., 19., 8., 14. ]
      - [ 13., 17., 7., 15., 17., 18., 21., 2., 3., 18., 20., 10., 13.,
          14., 14., 3., 5., 14., 3., 5., 11., 3., 9., 6., 9., 5., 14.,
          6., 4., 14., 3., 11. ]
      - [ 11., 7., 15., 14., 3., 9., 29., 6., 4., 18., 10., 13., 11., 9.,
          8., 8., 12., 12., 8., 16., 9., 7., 4., 4., 8., 5., 10., 6.,
          10., 21., 6., 6. ]
      - [ 8., 1., 9., 13., 6., 8., 3., 1., 7., 4., 3., 2., 11., 5., 7.,
          0., 4., 6., 5., 25., 10., 20., 10., 5., 3., 5., 7., 5., 9., 5.,
          1., 8. ]
      - [ 2., 4., 2., 5., 10., 4., 4., 3., 6., 6., 5., 8., 2., 7., 4.,
          5., 4., 10., 3., 12., 2., 13., 2., 1., 7., 7., 3., 5., 1., 2.,
          4., 2. ]
      - [ 6., 8., 10., 4., 8., 6., 1., 1., 6., 6., 10., 5., 2., 4., 7.,
          3., 5., 7., 3., 14., 6., 12., 4., 1., 4., 0., 10., 5., 3., 4.,
          5., 4. ]
      - [ 16., 10., 11., 12., 9., 8., 7., 2., 5., 17., 18., 9., 6., 15.,
          15., 6., 3., 12., 3., 7., 7., 9., 16., 6., 9., 6., 19., 10.,
          5., 12., 9., 5. ]
      - [ 10., 12., 9., 8., 12., 9., 27., 11., 11., 13., 11., 16., 20.,
          11., 17., 11., 19., 18., 9., 8., 20., 11., 12., 10., 19., 4.,
          8., 12., 17., 13., 10., 14. ]
      - [ 9., 18., 8., 11., 10., 6., 9., 3., 19., 6., 10., 7., 7., 10.,
          14., 11., 2., 4., 2., 24., 12., 16., 17., 5., 4., 20., 13., 2.,
          7., 7., 6., 8. ]
      - [ 4., 6., 12., 8., 6., 4., 4., 2., 1., 1., 9., 8., 5., 5., 4.,
          2., 6., 3., 0., 14., 6., 12., 9., 2., 2., 1., 6., 3., 0., 4.,
          7., 8. ]
      - [ 1., 6., 2., 14., 6., 8., 12., 6., 9., 7., 5., 2., 8., 8., 6.,
          4., 11., 5., 4., 4., 6., 3., 6., 2., 2., 4., 7., 2., 1., 13.,
          6., 10. ]
      - [ 16., 23., 19., 15., 14., 15., 41., 7., 10., 26., 29., 13., 15.,
          24., 16., 12., 16., 27., 14., 12., 15., 6., 8., 10., 12., 7.,
          23., 11., 5., 19., 8., 17. ]
      - [ 9., 8., 8., 6., 23., 12., 1., 4., 5., 4., 12., 4., 1., 6., 4.,
          3., 2., 2., 1., 15., 3., 13., 13., 2., 3., 1., 4., 2., 0., 3.,
          3., 8. ]
      - [ 10., 4., 12., 2., 15., 3., 1., 0., 2., 3., 11., 3., 3., 5., 8.,
          2., 0., 3., 2., 7., 1., 13., 5., 1., 4., 0., 4., 7., 4., 2.,
          3., 1. ]
      - [ 4., 9., 1., 7., 10., 6., 10., 6., 3., 6., 10., 8., 10., 7., 9.,
          5., 4., 3., 5., 9., 13., 6., 11., 7., 5., 1., 5., 5., 12., 9.,
          10., 5. ]
      - [ 3., 8., 10., 3., 3., 7., 10., 9., 2., 2., 8., 5., 9., 15., 9.,
          7., 8., 18., 15., 7., 10., 7., 3., 7., 6., 2., 8., 5., 16., 9.,
          10., 12. ]
      - [ 5., 11., 9., 7., 11., 8., 5., 2., 5., 6., 5., 7., 4., 3., 13.,
          4., 8., 9., 3., 16., 8., 9., 3., 4., 3., 0., 6., 1., 2., 11.,
          4., 6. ]
      - [ 4., 13., 7., 8., 4., 12., 9., 5., 5., 7., 11., 16., 5., 5.,
          14., 9., 5., 14., 5., 4., 11., 3., 7., 11., 7., 8., 3., 9., 5.,
          10., 8., 6. ]
      - [ 3., 4., 7., 12., 3., 7., 9., 7., 4., 3., 8., 6., 9., 3., 4.,
          4., 3., 3., 3., 21., 8., 4., 9., 3., 2., 2., 4., 8., 2., 5.,
          9., 3. ]
      - [ 3., 7., 7., 6., 10., 7., 7., 7., 8., 5., 4., 7., 6., 3., 11.,
          7., 6., 4., 12., 7., 7., 8., 8., 6., 6., 4., 3., 6., 10., 8.,
          5., 6. ]
      - [ 5., 6., 8., 8., 8., 10., 5., 0., 7., 8., 7., 3., 10., 3., 7.,
          3., 4., 3., 2., 22., 12., 7., 3., 2., 4., 4., 7., 4., 2., 10.,
          1., 7. ]
      - [ 4., 5., 6., 8., 11., 8., 6., 2., 13., 7., 8., 6., 3., 1., 4.,
          8., 6., 10., 3., 13., 7., 5., 7., 2., 4., 9., 8., 1., 3., 8.,
          12., 3. ]
      - [ 11., 14., 16., 14., 21., 14., 32., 3., 11., 11., 20., 7., 16.,
          3., 16., 5., 24., 21., 11., 21., 11., 16., 12., 10., 9., 12.,
          9., 10., 1., 18., 12., 5. ]
      - [ 10., 12., 19., 11., 13., 8., 7., 5., 17., 9., 16., 6., 14.,
          20., 11., 10., 17., 11., 4., 18., 17., 10., 10., 19., 7., 17.,
          11., 4., 2., 14., 10., 7. ]
      - [ 13., 22., 10., 11., 11., 17., 15., 1., 6., 11., 13., 11., 12.,
          25., 24., 6., 13., 31., 2., 6., 18., 4., 16., 7., 10., 3., 18.,
          11., 3., 10., 4., 11. ]
      - [ 5., 16., 16., 15., 14., 10., 19., 1., 8., 16., 25., 18., 10.,
          19., 24., 15., 20., 19., 11., 12., 16., 10., 20., 12., 12.,
          11., 13., 13., 6., 16., 9., 7. ]
      - [ 9., 12., 5., 3., 12., 9., 8., 0., 1., 3., 12., 11., 3., 6.,
          14., 3., 5., 26., 8., 4., 3., 6., 3., 0., 11., 1., 9., 7., 9.,
          4., 0., 12. ]
      - [ 9., 5., 11., 9., 3., 19., 20., 23., 30., 20., 7., 9., 16., 7.,
          14., 24., 22., 17., 18., 16., 16., 3., 4., 34., 8., 35., 7.,
          11., 9., 18., 24., 17. ]
      - [ 7., 17., 13., 6., 9., 12., 8., 11., 5., 11., 8., 17., 5., 7.,
          19., 19., 9., 17., 14., 15., 4., 10., 8., 15., 12., 4., 10.,
          7., 13., 10., 16., 13. ]
      - [ 19., 14., 17., 11., 16., 10., 7., 11., 4., 5., 11., 9., 6., 9.,
          9., 14., 15., 15., 8., 12., 12., 10., 8., 6., 11., 2., 12., 9.,
          8., 16., 9., 12. ]
      - [ 15., 9., 3., 7., 11., 14., 5., 6., 13., 5., 14., 11., 9., 7.,
          10., 8., 8., 4., 10., 9., 12., 7., 10., 7., 7., 2., 7., 6., 3.,
          10., 4., 6. ]
      - [ 14., 6., 15., 13., 10., 9., 3., 2., 7., 11., 10., 8., 18., 8.,
          12., 5., 9., 8., 6., 14., 16., 9., 9., 3., 12., 6., 9., 6., 3.,
          8., 2., 8. ]
      - [ 6., 7., 8., 7., 10., 3., 10., 3., 8., 1., 10., 9., 2., 4., 9.,
          8., 3., 7., 3., 8., 4., 13., 4., 2., 6., 6., 2., 5., 2., 3.,
          4., 1. ]
      - [ 11., 9., 15., 9., 6., 12., 9., 3., 26., 8., 13., 11., 16., 8.,
          13., 13., 10., 2., 6., 24., 13., 9., 10., 10., 4., 16., 12.,
          7., 5., 12., 9., 8. ]
      - [ 9., 14., 13., 19., 4., 13., 13., 4., 9., 9., 5., 16., 9., 6.,
          11., 8., 6., 12., 15., 11., 9., 13., 5., 7., 7., 4., 6., 5.,
          10., 10., 5., 7. ]
      - [ 5., 4., 6., 2., 1., 6., 6., 2., 1., 1., 2., 5., 8., 7., 4., 6.,
          5., 2., 10., 3., 7., 10., 2., 1., 3., 0., 4., 4., 3., 2., 6.,
          8. ]
      - [ 6., 9., 8., 0., 16., 13., 7., 11., 7., 6., 7., 27., 10., 9.,
          24., 9., 11., 30., 14., 2., 16., 2., 6., 12., 13., 6., 11.,
          11., 9., 9., 18., 8. ]
      - [ 11., 11., 18., 3., 12., 10., 6., 8., 1., 0., 9., 6., 6., 8.,
          17., 9., 5., 21., 16., 1., 6., 4., 16., 12., 9., 0., 10., 13.,
          12., 8., 12., 7. ]
      - [ 9., 4., 13., 7., 6., 5., 3., 2., 8., 5., 7., 4., 1., 7., 4.,
          3., 5., 7., 7., 7., 3., 5., 13., 1., 5., 5., 5., 2., 0., 2.,
          3., 4. ]
      - [ 7., 8., 4., 14., 13., 7., 7., 4., 21., 6., 6., 8., 10., 7.,
          14., 7., 8., 5., 1., 5., 12., 4., 8., 5., 4., 15., 4., 4., 0.,
          6., 5., 10. ]
      - [ 2., 3., 5., 4., 4., 7., 13., 2., 1., 4., 7., 1., 5., 5., 6.,
          4., 13., 9., 0., 14., 8., 6., 1., 0., 3., 5., 6., 3., 1., 9.,
          6., 4. ]
      - [ 6., 11., 12., 4., 8., 9., 13., 4., 8., 6., 10., 14., 9., 5.,
          13., 11., 10., 9., 6., 8., 6., 4., 9., 7., 5., 4., 9., 11., 4.,
          9., 5., 6. ]
      - [ 7., 6., 11., 6., 12., 9., 7., 8., 9., 12., 8., 12., 9., 11.,
          10., 15., 6., 14., 3., 5., 10., 8., 6., 11., 10., 9., 10., 12.,
          2., 11., 6., 10. ]
      - [ 5., 0., 1., 1., 0., 3., 0., 0., 0., 0., 5., 1., 0., 0., 1., 0.,
          1., 0., 1., 5., 0., 1., 3., 1., 1., 0., 1., 0., 1., 0., 0., 4. ]
      - [ 3., 11., 3., 2., 14., 5., 13., 2., 1., 6., 7., 6., 5., 10., 8.,
          3., 7., 18., 10., 4., 6., 10., 8., 1., 4., 1., 8., 5., 19., 5.,
          5., 8. ]
      - [ 1., 1., 0., 0., 2., 1., 0., 1., 0., 0., 2., 0., 0., 0., 2., 1.,
          1., 0., 0., 5., 1., 2., 5., 2., 1., 1., 1., 0., 0., 0., 3., 0. ]
      - [ 9., 6., 7., 7., 4., 2., 3., 3., 0., 5., 1., 6., 0., 1., 5., 0.,
          1., 5., 4., 11., 0., 16., 2., 0., 1., 0., 1., 3., 5., 2., 1.,
          2. ]
      - [ 2., 8., 5., 4., 9., 11., 8., 29., 17., 12., 5., 2., 6., 3., 4.,
          0., 2., 4., 10., 8., 9., 16., 7., 5., 4., 6., 8., 3., 3., 5.,
          6., 11. ]
      - [ 2., 0., 0., 1., 0., 1., 0., 0., 0., 3., 4., 1., 1., 1., 2., 1.,
          2., 2., 0., 2., 0., 1., 0., 1., 2., 0., 1., 2., 0., 0., 1., 2. ]
      - [ 6., 3., 4., 4., 5., 2., 1., 2., 4., 1., 2., 5., 2., 1., 5., 5.,
          1., 2., 5., 9., 1., 2., 5., 1., 1., 4., 2., 1., 4., 2., 1., 2. ]
      - [ 1., 0., 1., 0., 6., 1., 1., 0., 0., 0., 2., 3., 0., 1., 3., 0.,
          0., 0., 1., 4., 0., 3., 2., 0., 0., 0., 0., 0., 2., 0., 1., 2. ]
      - [ 1., 3., 10., 2., 3., 2., 2., 10., 0., 3., 7., 5., 1., 2., 4.,
          2., 3., 2., 1., 6., 2., 7., 9., 2., 4., 2., 2., 2., 10., 2.,
          8., 1. ]
      - [ 11., 8., 3., 16., 1., 7., 19., 13., 25., 8., 5., 9., 9., 4.,
          6., 11., 14., 10., 11., 8., 5., 8., 4., 12., 3., 13., 5., 6.,
          15., 4., 5., 7. ]
      - [ 3., 2., 1., 3., 2., 5., 1., 18., 0., 6., 2., 7., 7., 2., 9.,
          3., 3., 6., 24., 6., 5., 5., 4., 2., 9., 4., 3., 5., 17., 2.,
          4., 7. ]
      - [ 5., 5., 7., 7., 9., 7., 10., 19., 14., 3., 13., 14., 5., 7.,
          11., 18., 13., 15., 34., 7., 9., 17., 7., 8., 6., 3., 7., 6.,
          16., 5., 11., 9. ]
      - [ 3., 4., 5., 4., 5., 10., 7., 94., 15., 2., 9., 5., 20., 4., 4.,
          6., 5., 4., 4., 10., 17., 10., 8., 11., 12., 2., 7., 14., 3.,
          2., 24., 7. ]
      - [ 0., 2., 5., 1., 15., 3., 16., 7., 3., 1., 6., 14., 3., 5., 11.,
          3., 4., 15., 25., 5., 2., 6., 11., 2., 12., 1., 2., 11., 28.,
          4., 5., 5. ]
      - [ 6., 1., 5., 8., 4., 2., 0., 4., 3., 0., 11., 7., 1., 4., 3.,
          1., 2., 2., 1., 12., 1., 2., 4., 2., 2., 0., 1., 2., 3., 1.,
          7., 3. ]
      - [ 6., 5., 10., 8., 6., 11., 5., 0., 1., 6., 14., 2., 2., 5., 1.,
          0., 2., 5., 2., 5., 3., 1., 11., 0., 1., 2., 2., 5., 3., 1.,
          2., 7. ]
      - [ 0., 4., 1., 1., 3., 1., 3., 2., 0., 4., 1., 7., 3., 1., 9., 3.,
          16., 10., 2., 0., 4., 1., 0., 7., 3., 2., 2., 3., 2., 7., 0.,
          2. ]
      - [ 2., 1., 3., 1., 0., 5., 0., 0., 0., 1., 7., 2., 2., 0., 4., 0.,
          3., 1., 6., 4., 2., 4., 5., 0., 3., 1., 0., 2., 5., 1., 1., 4. ]
      - [ 12., 3., 2., 2., 7., 8., 1., 4., 7., 6., 4., 5., 2., 3., 6.,
          8., 2., 5., 7., 12., 4., 19., 6., 5., 1., 5., 1., 6., 5., 2.,
          8., 6. ]
      - [ 5., 6., 1., 5., 5., 4., 4., 8., 5., 0., 12., 11., 2., 2., 12.,
          8., 4., 3., 4., 6., 2., 1., 14., 8., 4., 4., 6., 3., 5., 1.,
          2., 2. ]
      - [ 3., 1., 5., 7., 2., 5., 2., 6., 0., 0., 6., 4., 1., 0., 1., 1.,
          1., 3., 6., 6., 2., 2., 7., 3., 4., 1., 4., 1., 5., 0., 4., 5. ]
      - [ 4., 4., 4., 1., 3., 4., 6., 14., 0., 3., 2., 6., 5., 1., 9.,
          8., 3., 4., 13., 1., 2., 6., 5., 8., 2., 0., 6., 7., 10., 6.,
          6., 2. ]
      - [ 5., 7., 14., 5., 16., 3., 2., 9., 4., 6., 17., 10., 6., 7.,
          13., 10., 4., 16., 11., 29., 7., 15., 16., 6., 12., 9., 5.,
          11., 13., 5., 7., 8. ]
      - [ 1., 1., 3., 1., 6., 2., 0., 2., 0., 0., 5., 4., 1., 2., 3., 1.,
          7., 2., 6., 9., 1., 6., 9., 1., 5., 3., 3., 3., 7., 1., 1., 2. ]
      - [ 3., 7., 10., 5., 6., 4., 0., 4., 1., 0., 9., 5., 3., 5., 7.,
          2., 2., 5., 6., 8., 2., 4., 6., 1., 4., 0., 3., 3., 4., 2., 3.,
          8. ]
      - [ 3., 11., 13., 10., 8., 5., 10., 6., 5., 6., 9., 5., 4., 5., 4.,
          9., 12., 5., 11., 6., 7., 2., 11., 7., 3., 5., 8., 4., 5., 6.,
          6., 5. ]
      - [ 2., 1., 5., 0., 0., 6., 9., 25., 13., 3., 3., 3., 8., 7., 9.,
          4., 6., 9., 24., 3., 8., 1., 2., 12., 6., 9., 6., 10., 14., 6.,
          4., 0. ]
      - [ 6., 3., 3., 8., 3., 7., 3., 4., 3., 6., 7., 5., 5., 7., 11.,
          6., 8., 7., 9., 9., 7., 7., 8., 2., 6., 1., 1., 4., 4., 11.,
          4., 6. ]
      - [ 4., 9., 6., 4., 3., 12., 9., 4., 0., 1., 15., 4., 4., 0., 6.,
          8., 8., 3., 5., 16., 1., 7., 14., 4., 3., 5., 1., 2., 9., 2.,
          4., 5. ]
      - [ 0., 2., 1., 2., 1., 12., 0., 1., 1., 0., 1., 2., 2., 6., 6.,
          4., 1., 1., 6., 2., 0., 5., 3., 3., 3., 0., 3., 5., 7., 3., 9.,
          12. ]
      - [ 3., 4., 1., 8., 3., 4., 2., 9., 25., 6., 0., 3., 9., 2., 1.,
          6., 4., 1., 15., 4., 7., 10., 1., 4., 2., 8., 0., 0., 3., 3.,
          9., 2. ]
      - [ 2., 2., 3., 3., 1., 4., 0., 1., 0., 0., 5., 2., 1., 1., 1., 2.,
          2., 0., 2., 6., 0., 4., 4., 0., 0., 0., 1., 0., 6., 0., 1., 3. ]
      - [ 4., 1., 2., 3., 4., 0., 0., 0., 2., 0., 6., 2., 1., 0., 3., 2.,
          1., 1., 0., 6., 1., 7., 5., 0., 0., 1., 0., 2., 0., 0., 2., 1. ]
      - [ 0., 4., 3., 0., 2., 3., 2., 7., 5., 4., 3., 2., 1., 9., 4.,
          10., 1., 11., 9., 11., 4., 11., 1., 10., 2., 3., 5., 2., 7.,
          2., 4., 5. ]
      - [ 0., 5., 0., 3., 3., 7., 0., 2., 2., 2., 3., 3., 6., 5., 3., 5.,
          4., 1., 3., 1., 8., 0., 4., 7., 1., 7., 2., 1., 5., 8., 7., 8. ]
      - [ 1., 6., 1., 2., 3., 2., 7., 9., 12., 9., 2., 4., 10., 2., 2.,
          5., 1., 9., 9., 16., 13., 7., 5., 6., 4., 23., 5., 1., 2., 6.,
          1., 5. ]
      - [ 2., 1., 0., 0., 1., 2., 9., 10., 1., 0., 2., 7., 2., 6., 2.,
          2., 0., 3., 22., 0., 5., 2., 3., 3., 7., 6., 2., 3., 14., 0.,
          4., 4. ]
      - [ 8., 2., 7., 5., 5., 3., 1., 0., 0., 1., 8., 6., 1., 2., 9., 2.,
          1., 7., 6., 5., 0., 6., 10., 1., 3., 1., 1., 7., 4., 1., 2.,
          3. ]
      - [ 8., 0., 1., 6., 2., 1., 0., 2., 3., 1., 6., 3., 2., 1., 3., 0.,
          2., 3., 4., 4., 0., 3., 5., 0., 1., 2., 0., 1., 8., 0., 1., 5. ]
      - [ 8., 7., 7., 4., 9., 4., 10., 11., 13., 4., 10., 8., 7., 9.,
          12., 13., 6., 27., 33., 16., 9., 23., 9., 7., 9., 9., 3., 4.,
          15., 5., 8., 6. ]
      - [ 1., 3., 1., 1., 1., 0., 0., 6., 0., 0., 2., 1., 0., 8., 4., 2.,
          0., 7., 11., 2., 0., 2., 1., 1., 1., 0., 1., 0., 3., 1., 4.,
          2. ]
      - [ 14., 7., 12., 20., 7., 17., 19., 2., 3., 16., 9., 6., 14., 10.,
          18., 2., 40., 14., 3., 8., 9., 1., 6., 3., 15., 0., 8., 6., 5.,
          20., 7., 16. ]
      - [ 0., 0., 1., 2., 3., 2., 0., 1., 0., 1., 5., 6., 1., 2., 3., 0.,
          0., 2., 3., 3., 0., 10., 0., 1., 1., 1., 1., 1., 4., 0., 1.,
          1. ]
      - [ 1., 0., 4., 0., 3., 0., 6., 0., 2., 1., 2., 2., 3., 0., 0., 0.,
          1., 3., 0., 6., 1., 9., 3., 0., 0., 1., 0., 0., 1., 2., 1., 0. ]
      - [ 4., 2., 7., 1., 1., 4., 1., 2., 0., 2., 11., 2., 4., 0., 6.,
          3., 0., 2., 1., 11., 1., 13., 9., 1., 5., 0., 4., 3., 4., 0.,
          11., 5. ]
      - [ 0., 2., 2., 2., 1., 0., 1., 1., 3., 2., 2., 0., 0., 0., 4., 1.,
          0., 1., 0., 4., 0., 4., 3., 0., 0., 0., 2., 1., 0., 0., 2., 1. ]
      - [ 4., 8., 13., 11., 13., 11., 39., 7., 16., 12., 8., 4., 17., 9.,
          8., 10., 13., 2., 5., 11., 12., 7., 5., 14., 5., 17., 5., 7.,
          2., 16., 9., 14. ]
      - [ 2., 0., 5., 2., 2., 1., 4., 1., 2., 1., 4., 1., 0., 1., 2., 0.,
          1., 1., 2., 17., 1., 15., 2., 0., 0., 3., 3., 0., 2., 0., 0.,
          2. ]
      - [ 2., 0., 0., 0., 0., 0., 0., 0., 0., 0., 1., 0., 1., 0., 1., 1.,
          0., 0., 0., 6., 1., 1., 0., 0., 0., 0., 0., 0., 1., 0., 2., 1. ]
      - [ 14., 5., 9., 18., 1., 11., 13., 0., 8., 3., 8., 0., 7., 8., 4.,
          10., 9., 2., 4., 20., 6., 16., 3., 3., 2., 5., 4., 4., 4., 7.,
          2., 12. ]
      - [ 0., 0., 1., 3., 0., 1., 9., 0., 0., 0., 0., 1., 3., 1., 2., 1.,
          3., 5., 8., 2., 2., 8., 0., 0., 1., 0., 0., 4., 5., 0., 2., 5. ]
      - [ 0., 0., 2., 0., 2., 1., 0., 0., 1., 0., 2., 0., 1., 1., 0., 0.,
          0., 1., 0., 5., 0., 2., 4., 0., 0., 0., 0., 0., 0., 0., 4., 0. ]
      - [ 0., 2., 2., 0., 3., 4., 0., 9., 6., 2., 6., 4., 3., 4., 4., 2.,
          0., 3., 1., 0., 4., 3., 7., 3., 3., 0., 5., 4., 9., 1., 4., 4. ]
      - [ 8., 7., 5., 12., 8., 4., 6., 9., 3., 8., 3., 6., 3., 4., 7.,
          7., 2., 18., 17., 10., 2., 22., 8., 7., 9., 0., 7., 4., 16.,
          1., 6., 7. ]
      - [ 5., 12., 6., 6., 2., 7., 4., 8., 3., 4., 2., 5., 4., 1., 5.,
          6., 8., 11., 3., 15., 6., 23., 4., 3., 2., 0., 5., 1., 1., 4.,
          6., 3. ]
      - [ 1., 0., 1., 3., 1., 3., 0., 0., 0., 1., 0., 2., 0., 2., 3., 4.,
          0., 1., 1., 7., 0., 20., 5., 0., 1., 1., 2., 0., 2., 2., 2.,
          1. ]
      - [ 18., 8., 11., 35., 1., 0., 10., 4., 5., 5., 5., 2., 6., 4., 8.,
          4., 6., 0., 1., 9., 8., 6., 3., 1., 2., 2., 2., 2., 2., 5., 8.,
          8. ]
      - [ 9., 12., 9., 23., 15., 23., 13., 7., 13., 21., 22., 19., 18.,
          17., 9., 5., 15., 13., 4., 16., 22., 9., 12., 5., 10., 17.,
          15., 11., 14., 14., 8., 26. ]
      - [ 6., 9., 7., 14., 3., 14., 9., 0., 2., 8., 8., 8., 6., 5., 14.,
          3., 13., 13., 4., 10., 2., 11., 9., 3., 11., 1., 11., 4., 6.,
          10., 0., 13. ]
      - [ 11., 9., 9., 21., 12., 12., 7., 4., 6., 5., 14., 9., 11., 6.,
          17., 7., 18., 10., 4., 13., 8., 3., 21., 7., 6., 3., 5., 1.,
          4., 10., 8., 14. ]
      - [ 4., 1., 7., 5., 9., 3., 4., 0., 0., 1., 4., 2., 2., 2., 0., 3.,
          1., 1., 4., 7., 1., 7., 7., 0., 2., 1., 2., 0., 1., 2., 6., 1. ]
      - [ 1., 1., 3., 1., 1., 2., 0., 0., 0., 0., 2., 0., 2., 1., 1., 0.,
          1., 0., 3., 0., 0., 2., 1., 1., 1., 1., 0., 0., 1., 2., 3., 2. ]
      - [ 9., 3., 9., 7., 1., 6., 6., 4., 10., 5., 6., 4., 3., 4., 3.,
          5., 6., 4., 4., 14., 3., 9., 5., 0., 5., 14., 6., 8., 5., 5.,
          14., 4. ]
      - [ 11., 8., 7., 26., 6., 11., 16., 3., 12., 10., 11., 8., 12., 8.,
          10., 6., 17., 6., 2., 8., 10., 5., 9., 4., 11., 7., 7., 8., 2.,
          16., 9., 14. ]
      - [ 1., 1., 1., 0., 1., 1., 0., 0., 1., 0., 1., 4., 1., 2., 1., 1.,
          0., 0., 1., 3., 0., 4., 2., 0., 0., 0., 1., 0., 0., 0., 0., 0. ]
      - [ 2., 3., 4., 10., 3., 7., 3., 2., 1., 0., 6., 7., 7., 2., 5.,
          3., 3., 2., 6., 12., 3., 5., 2., 2., 1., 2., 1., 3., 1., 0.,
          5., 6. ]
      - [ 0., 0., 0., 0., 0., 0., 3., 0., 0., 0., 0., 0., 0., 0., 0., 0.,
          0., 0., 0., 1., 0., 1., 0., 0., 0., 0., 0., 0., 0., 0., 0., 0. ]
      - [ 1., 2., 5., 4., 2., 1., 3., 1., 0., 1., 4., 2., 3., 2., 2., 6.,
          0., 1., 0., 15., 2., 14., 5., 2., 0., 1., 2., 2., 3., 2., 6.,
          4. ]
      - [ 10., 10., 9., 9., 4., 14., 7., 1., 3., 3., 12., 0., 8., 3., 4.,
          5., 5., 1., 3., 28., 8., 15., 7., 1., 0., 0., 3., 3., 2., 7.,
          3., 14. ]
      - [ 0., 0., 3., 4., 2., 3., 8., 0., 0., 0., 3., 0., 1., 0., 0., 1.,
          1., 2., 0., 15., 0., 4., 1., 0., 1., 0., 2., 1., 1., 0., 10.,
          2. ]
      - [ 0., 1., 1., 3., 1., 1., 3., 0., 4., 4., 0., 2., 5., 0., 1., 2.,
          1., 0., 1., 5., 2., 5., 1., 1., 0., 4., 0., 1., 1., 2., 1., 4. ]
      - [ 0., 2., 0., 0., 0., 1., 0., 0., 0., 0., 1., 2., 0., 0., 3., 0.,
          0., 1., 5., 8., 0., 11., 1., 0., 3., 0., 0., 0., 6., 1., 0.,
          1. ]
      - [ 2., 2., 3., 2., 0., 1., 0., 0., 1., 2., 2., 0., 0., 1., 1., 0.,
          1., 2., 1., 7., 0., 4., 1., 0., 0., 3., 0., 0., 2., 2., 3., 1. ]
      - [ 2., 2., 6., 3., 10., 1., 5., 4., 3., 4., 4., 3., 2., 1., 1.,
          7., 5., 1., 2., 8., 2., 3., 4., 6., 1., 1., 4., 8., 12., 5.,
          3., 1. ]
      - [ 0., 1., 4., 1., 2., 3., 2., 0., 2., 0., 2., 1., 1., 0., 1., 0.,
          0., 0., 0., 11., 2., 7., 0., 0., 1., 1., 0., 1., 1., 0., 4.,
          1. ]
      - [ 0., 0., 3., 4., 2., 1., 4., 0., 2., 0., 0., 0., 1., 0., 1., 0.,
          1., 0., 0., 7., 0., 21., 1., 1., 1., 0., 0., 0., 1., 0., 3.,
          0. ]
      - [ 3., 0., 0., 1., 0., 2., 0., 0., 2., 0., 2., 3., 1., 0., 0., 0.,
          1., 1., 1., 5., 0., 1., 3., 0., 1., 3., 1., 2., 1., 2., 3., 2. ]
      - [ 1., 2., 1., 4., 4., 3., 11., 1., 10., 4., 4., 0., 5., 2., 5.,
          2., 5., 7., 0., 17., 8., 20., 3., 4., 2., 9., 1., 1., 0., 5.,
          4., 8. ]
      - [ 7., 3., 6., 26., 3., 11., 12., 11., 5., 17., 2., 7., 7., 2.,
          5., 2., 20., 6., 11., 6., 8., 3., 2., 9., 4., 4., 1., 3., 8.,
          9., 9., 9. ]
      - [ 0., 1., 3., 1., 1., 3., 3., 1., 0., 5., 1., 1., 0., 3., 2., 0.,
          10., 3., 2., 2., 1., 2., 2., 0., 6., 1., 1., 2., 5., 0., 0.,
          1. ]
      - [ 1., 0., 0., 1., 0., 1., 3., 0., 1., 6., 0., 1., 1., 0., 0., 0.,
          1., 0., 0., 3., 1., 0., 0., 1., 2., 1., 1., 1., 4., 1., 0., 0. ]
      - [ 0., 0., 1., 0., 1., 1., 3., 1., 0., 0., 0., 0., 2., 2., 1., 0.,
          0., 1., 1., 3., 1., 2., 1., 0., 0., 2., 1., 1., 0., 2., 1., 0. ]
      - [ 2., 3., 1., 6., 0., 4., 3., 4., 6., 2., 6., 2., 8., 1., 0., 2.,
          1., 2., 0., 3., 6., 3., 0., 3., 1., 4., 3., 2., 3., 0., 0., 4. ]
      - [ 1., 0., 1., 0., 8., 0., 1., 1., 0., 1., 7., 0., 0., 0., 1., 0.,
          0., 0., 0., 6., 1., 3., 6., 0., 0., 4., 0., 1., 0., 0., 1., 1. ]
      - [ 0., 3., 2., 1., 6., 1., 0., 2., 0., 0., 3., 1., 2., 0., 3., 3.,
          1., 10., 1., 6., 1., 1., 2., 0., 1., 0., 0., 2., 1., 0., 0.,
          0. ]
      - [ 1., 1., 1., 3., 2., 3., 1., 2., 2., 0., 2., 2., 2., 4., 1., 1.,
          0., 1., 3., 11., 2., 14., 1., 2., 0., 3., 2., 1., 3., 0., 3.,
          0. ]
      - [ 1., 0., 0., 0., 0., 4., 6., 0., 0., 2., 1., 2., 0., 1., 2., 0.,
          0., 6., 0., 9., 0., 3., 2., 0., 0., 0., 0., 0., 0., 0., 2., 2. ]
      - [ 1., 1., 4., 2., 5., 6., 4., 1., 2., 1., 3., 0., 0., 1., 0., 1.,
          3., 4., 2., 11., 2., 5., 4., 0., 0., 0., 5., 1., 1., 0., 4.,
          1. ]
      - [ 1., 5., 8., 7., 1., 2., 2., 8., 9., 4., 6., 10., 4., 4., 6.,
          11., 1., 6., 17., 9., 0., 6., 3., 17., 3., 18., 0., 1., 3., 2.,
          12., 0. ]
      - [ 15., 5., 12., 17., 1., 5., 12., 2., 3., 7., 10., 8., 9., 3.,
          9., 2., 16., 5., 10., 6., 6., 7., 2., 1., 5., 1., 5., 6., 5.,
          9., 3., 13. ]
      - [ 2., 2., 5., 1., 4., 2., 0., 0., 0., 0., 6., 4., 0., 2., 3., 0.,
          0., 2., 10., 14., 1., 4., 1., 1., 2., 0., 2., 4., 7., 0., 2.,
          3. ]
      - [ 1., 1., 8., 4., 3., 2., 12., 4., 1., 2., 3., 2., 7., 5., 1.,
          0., 3., 28., 2., 23., 2., 5., 2., 2., 4., 4., 4., 1., 1., 1.,
          2., 2. ]
      - [ 0., 4., 4., 3., 4., 5., 3., 7., 3., 5., 7., 18., 7., 10., 17.,
          3., 2., 8., 25., 11., 5., 6., 7., 5., 10., 5., 10., 11., 7.,
          2., 2., 2. ]
      - [ 2., 0., 0., 0., 2., 0., 0., 0., 0., 0., 0., 0., 0., 0., 2., 0.,
          0., 1., 4., 0., 0., 0., 0., 0., 0., 0., 0., 0., 1., 0., 0., 0. ]
      - [ 2., 2., 3., 1., 1., 1., 0., 0., 0., 0., 2., 2., 0., 5., 0., 1.,
          0., 8., 2., 3., 2., 5., 1., 0., 2., 1., 2., 0., 6., 2., 0., 2. ]
      - [ 4., 4., 16., 6., 1., 2., 14., 21., 8., 13., 7., 7., 4., 4., 7.,
          16., 1., 22., 2., 18., 6., 3., 8., 26., 2., 15., 5., 5., 2.,
          12., 9., 2. ]
      - [ 2., 5., 4., 6., 7., 5., 2., 5., 5., 2., 7., 18., 5., 4., 7.,
          5., 8., 15., 17., 4., 8., 9., 6., 7., 9., 6., 6., 6., 23., 5.,
          0., 5. ]
      - [ 4., 8., 13., 8., 4., 5., 2., 5., 0., 0., 4., 14., 6., 4., 14.,
          2., 4., 8., 45., 4., 2., 3., 4., 14., 10., 2., 5., 3., 11., 1.,
          11., 9. ]
      - [ 0., 1., 1., 1., 2., 2., 0., 1., 0., 0., 4., 4., 1., 2., 4., 0.,
          0., 3., 6., 14., 1., 6., 2., 0., 2., 0., 2., 1., 1., 0., 1.,
          1. ]
      - [ 1., 2., 2., 1., 0., 1., 0., 1., 0., 0., 4., 3., 1., 4., 1., 9.,
          2., 0., 8., 11., 6., 5., 3., 2., 2., 1., 1., 5., 12., 0., 3.,
          1. ]
      - [ 6., 1., 2., 8., 0., 3., 4., 1., 3., 3., 0., 2., 4., 1., 3., 4.,
          3., 0., 0., 8., 8., 8., 1., 1., 1., 5., 0., 0., 0., 0., 3., 4. ]
      - [ 3., 17., 13., 19., 2., 22., 4., 11., 5., 16., 10., 14., 20.,
          8., 12., 4., 20., 10., 11., 9., 16., 3., 13., 7., 13., 8., 15.,
          16., 11., 13., 7., 12. ]
      - [ 4., 3., 6., 2., 1., 2., 4., 1., 1., 1., 7., 11., 4., 6., 13.,
          1., 3., 4., 37., 5., 1., 3., 2., 2., 2., 0., 3., 3., 11., 3.,
          0., 5. ]
      - [ 0., 0., 0., 0., 0., 0., 0., 0., 1., 0., 0., 0., 1., 0., 0., 1.,
          0., 0., 3., 9., 1., 5., 0., 0., 1., 0., 0., 0., 0., 1., 0., 0. ]
      - [ 0., 1., 6., 0., 6., 0., 0., 0., 0., 0., 2., 3., 0., 1., 2., 0.,
          0., 1., 2., 1., 0., 1., 2., 0., 2., 0., 1., 2., 4., 0., 0., 0. ]
      - [ 13., 8., 22., 2., 9., 8., 8., 10., 18., 8., 11., 11., 8., 11.,
          11., 17., 10., 11., 17., 12., 5., 5., 15., 7., 5., 8., 11.,
          10., 6., 8., 10., 9. ]
      - [ 16., 8., 20., 9., 9., 6., 13., 14., 32., 21., 6., 8., 16., 14.,
          3., 6., 3., 14., 7., 26., 15., 9., 7., 9., 15., 46., 7., 14.,
          12., 10., 14., 5. ]
      - [ 0., 1., 0., 0., 0., 0., 0., 0., 3., 0., 2., 2., 0., 0., 1., 2.,
          0., 0., 7., 2., 0., 2., 1., 1., 0., 0., 0., 2., 0., 0., 0., 1. ]
      - [ 9., 5., 23., 13., 2., 10., 17., 5., 4., 12., 6., 9., 9., 7.,
          15., 12., 7., 9., 8., 19., 11., 9., 4., 3., 10., 15., 8., 10.,
          15., 9., 13., 9. ]
      - [ 3., 3., 22., 2., 5., 1., 4., 4., 5., 3., 11., 11., 0., 6., 13.,
          13., 2., 4., 23., 23., 1., 17., 6., 9., 11., 1., 0., 6., 16.,
          0., 14., 4. ]
      - [ 7., 2., 16., 2., 3., 4., 2., 32., 7., 2., 11., 11., 2., 4., 4.,
          12., 2., 1., 18., 21., 3., 9., 6., 18., 14., 5., 3., 10., 31.,
          3., 11., 7. ]
      - [ 8., 10., 13., 5., 13., 5., 4., 8., 6., 3., 18., 7., 9., 7., 7.,
          8., 12., 8., 14., 7., 12., 6., 12., 2., 8., 3., 9., 5., 11.,
          10., 14., 9. ]
      - [ 1., 2., 9., 7., 4., 6., 5., 4., 16., 4., 7., 10., 5., 3., 11.,
          3., 4., 15., 5., 9., 5., 4., 9., 9., 8., 21., 2., 7., 4., 5.,
          3., 1. ]
      - [ 1., 17., 10., 9., 3., 14., 42., 2., 1., 17., 5., 10., 9., 17.,
          14., 3., 42., 45., 0., 6., 12., 7., 9., 7., 19., 9., 14., 18.,
          2., 25., 5., 6. ]
      - [ 5., 12., 0., 7., 13., 8., 9., 9., 27., 13., 10., 11., 20., 6.,
          13., 22., 10., 16., 8., 15., 13., 9., 3., 16., 13., 37., 10.,
          8., 13., 15., 9., 6. ]
      - [ 8., 12., 11., 8., 21., 10., 19., 13., 8., 19., 14., 11., 17.,
          16., 10., 15., 16., 20., 30., 21., 14., 7., 24., 20., 13., 13.,
          14., 11., 38., 17., 11., 9. ]
      - [ 4., 3., 3., 2., 1., 3., 1., 1., 9., 0., 1., 6., 0., 4., 2., 6.,
          1., 2., 3., 5., 3., 9., 3., 8., 1., 19., 2., 1., 3., 1., 6.,
          5. ]
      - [ 4., 17., 5., 13., 3., 9., 40., 8., 9., 24., 6., 7., 15., 15.,
          16., 10., 22., 29., 3., 1., 19., 1., 7., 17., 7., 15., 19., 8.,
          3., 24., 7., 11. ]
      - [ 0., 0., 2., 0., 1., 0., 0., 2., 0., 0., 0., 1., 0., 0., 1., 1.,
          0., 19., 1., 10., 0., 8., 1., 2., 0., 0., 1., 2., 0., 0., 4.,
          0. ]
      - [ 10., 4., 6., 2., 8., 3., 4., 3., 10., 9., 11., 8., 4., 12., 8.,
          4., 6., 13., 3., 14., 9., 18., 8., 4., 9., 7., 6., 5., 3., 2.,
          7., 6. ]
      - [ 9., 16., 15., 9., 9., 18., 13., 4., 7., 14., 5., 16., 12., 19.,
          17., 8., 22., 24., 6., 8., 16., 1., 5., 10., 17., 24., 20.,
          22., 6., 11., 7., 10. ]
      - [ 15., 6., 16., 6., 5., 2., 4., 5., 3., 4., 11., 8., 3., 2., 8.,
          19., 4., 2., 6., 18., 6., 10., 8., 0., 7., 5., 6., 6., 6., 6.,
          23., 9. ]
      - [ 9., 7., 6., 10., 12., 9., 8., 4., 23., 5., 9., 4., 8., 1., 9.,
          2., 5., 3., 8., 11., 7., 11., 7., 4., 2., 16., 4., 5., 9., 12.,
          3., 9. ]
      - [ 10., 7., 10., 11., 5., 15., 1., 8., 16., 15., 9., 3., 10., 7.,
          15., 1., 12., 6., 3., 17., 16., 17., 6., 3., 12., 24., 8., 1.,
          6., 15., 7., 12. ]
      - [ 4., 17., 13., 8., 5., 5., 27., 21., 19., 20., 13., 8., 19.,
          17., 19., 12., 26., 27., 4., 10., 14., 10., 17., 17., 13., 14.,
          17., 7., 6., 19., 20., 10. ]
      - [ 1., 10., 16., 2., 9., 7., 4., 18., 4., 6., 7., 3., 5., 8., 13.,
          18., 5., 12., 13., 28., 6., 8., 8., 18., 8., 17., 9., 7., 8.,
          2., 12., 4. ]
      - [ 4., 2., 11., 1., 5., 4., 0., 17., 4., 0., 4., 2., 2., 1., 7.,
          14., 3., 2., 12., 3., 3., 7., 9., 14., 3., 2., 6., 4., 4., 3.,
          15., 4. ]
      - [ 14., 16., 13., 13., 14., 15., 21., 8., 16., 12., 21., 12., 14.,
          18., 21., 20., 16., 19., 7., 17., 16., 14., 9., 11., 13., 19.,
          19., 9., 5., 13., 12., 15. ]
      - [ 10., 4., 8., 9., 2., 2., 7., 7., 10., 6., 11., 0., 3., 4., 1.,
          8., 2., 2., 1., 15., 10., 8., 7., 7., 1., 7., 3., 1., 2., 3.,
          13., 7. ]
      - [ 5., 2., 5., 7., 0., 4., 38., 5., 5., 37., 1., 13., 10., 13.,
          7., 1., 15., 58., 0., 33., 7., 3., 1., 10., 7., 23., 13., 8.,
          1., 19., 2., 2. ]
      - [ 9., 13., 8., 11., 14., 14., 7., 13., 0., 12., 8., 20., 15., 6.,
          16., 10., 11., 15., 39., 14., 13., 12., 10., 9., 7., 6., 8.,
          19., 23., 15., 12., 2. ]
      - [ 1., 1., 6., 8., 3., 5., 7., 12., 9., 9., 5., 10., 12., 7., 8.,
          9., 2., 11., 4., 14., 14., 8., 8., 8., 10., 10., 6., 10., 1.,
          7., 16., 7. ]
      - [ 9., 8., 16., 10., 7., 10., 7., 15., 26., 8., 10., 7., 10., 6.,
          10., 16., 10., 12., 6., 50., 9., 14., 10., 18., 11., 21., 11.,
          8., 9., 5., 33., 12. ]
      - [ 3., 13., 16., 8., 7., 18., 16., 6., 9., 29., 8., 11., 20., 28.,
          18., 6., 26., 17., 7., 13., 14., 4., 12., 12., 14., 7., 21.,
          14., 9., 22., 15., 13. ]
      - [ 6., 10., 22., 10., 14., 14., 11., 2., 1., 6., 12., 7., 5., 10.,
          13., 5., 7., 20., 21., 28., 9., 25., 12., 0., 5., 5., 14., 11.,
          14., 4., 8., 6. ]
      - [ 4., 4., 4., 4., 2., 11., 8., 7., 20., 6., 4., 6., 14., 4., 4.,
          6., 6., 3., 4., 13., 9., 10., 5., 16., 4., 26., 5., 1., 6.,
          14., 10., 3. ]
      - [ 2., 2., 11., 0., 1., 3., 7., 3., 15., 6., 9., 5., 6., 2., 8.,
          5., 1., 9., 11., 19., 7., 16., 2., 15., 5., 17., 6., 5., 5.,
          8., 10., 2. ]
      - [ 16., 21., 14., 20., 11., 18., 21., 15., 51., 28., 17., 18.,
          24., 20., 21., 20., 6., 16., 12., 14., 35., 14., 22., 20., 9.,
          28., 15., 10., 12., 19., 16., 10. ]
      - [ 7., 8., 16., 7., 5., 12., 9., 7., 9., 5., 15., 3., 9., 8., 4.,
          10., 6., 3., 3., 27., 12., 7., 11., 6., 8., 9., 5., 6., 1., 5.,
          26., 13. ]
      - [ 16., 8., 20., 9., 9., 6., 13., 14., 32., 21., 6., 8., 16., 14.,
          3., 6., 3., 14., 7., 26., 15., 9., 7., 9., 15., 46., 7., 14.,
          12., 10., 14., 5. ]
      - [ 1., 1., 11., 2., 2., 5., 6., 12., 6., 9., 4., 9., 7., 4., 7.,
          8., 4., 6., 7., 20., 4., 6., 7., 10., 10., 2., 1., 6., 5., 6.,
          16., 4. ]
      - [ 7., 5., 9., 2., 2., 5., 2., 3., 1., 6., 4., 5., 5., 5., 5.,
          11., 5., 1., 5., 13., 2., 6., 6., 2., 5., 8., 9., 3., 11., 3.,
          5., 2. ]
      - [ 8., 6., 5., 1., 8., 12., 14., 11., 5., 7., 9., 9., 2., 3., 11.,
          12., 5., 8., 7., 13., 10., 7., 1., 16., 3., 17., 4., 9., 10.,
          4., 3., 8. ]
      - [ 5., 6., 9., 6., 8., 9., 6., 4., 18., 2., 9., 5., 5., 1., 11.,
          4., 3., 5., 9., 10., 7., 7., 10., 8., 6., 16., 3., 6., 5., 11.,
          6., 11. ]
      - [ 4., 2., 13., 2., 1., 8., 9., 4., 0., 5., 2., 1., 4., 3., 3.,
          3., 2., 1., 6., 11., 6., 10., 2., 2., 3., 5., 7., 3., 9., 1.,
          5., 9. ]
      - [ 8., 4., 6., 5., 9., 9., 8., 7., 33., 20., 8., 8., 15., 13.,
          10., 19., 7., 21., 5., 16., 12., 14., 6., 23., 16., 38., 11.,
          15., 19., 19., 8., 5. ]
      - [ 10., 15., 40., 22., 19., 18., 13., 3., 7., 16., 22., 8., 17.,
          23., 17., 3., 15., 25., 4., 43., 13., 33., 15., 7., 11., 22.,
          18., 14., 4., 16., 11., 18. ]
      - [ 4., 7., 5., 5., 12., 8., 12., 4., 9., 6., 9., 9., 16., 12.,
          13., 12., 9., 13., 2., 20., 11., 19., 8., 6., 7., 20., 12., 3.,
          5., 13., 7., 6. ]
      - [ 5., 4., 12., 5., 10., 11., 9., 3., 9., 8., 10., 13., 8., 5.,
          10., 3., 2., 18., 9., 9., 9., 3., 11., 6., 17., 10., 8., 14.,
          4., 3., 6., 4. ]
      - [ 3., 4., 9., 2., 11., 4., 5., 7., 31., 17., 9., 4., 8., 12., 5.,
          8., 8., 8., 3., 16., 11., 10., 8., 11., 8., 33., 6., 9., 8.,
          6., 10., 6. ]
      - [ 0., 0., 0., 0., 0., 0., 0., 0., 0., 0., 0., 1., 0., 0., 1., 0.,
          0., 2., 1., 0., 0., 1., 0., 0., 1., 0., 0., 0., 0., 0., 0., 0. ]
      - [ 0., 7., 0., 0., 7., 4., 0., 2., 0., 1., 3., 11., 5., 7., 12.,
          3., 4., 10., 8., 0., 4., 1., 3., 10., 10., 0., 9., 11., 9., 2.,
          3., 4. ]
      - [ 1., 1., 1., 0., 1., 0., 0., 0., 1., 0., 0., 0., 0., 0., 1., 1.,
          1., 4., 0., 2., 0., 1., 0., 0., 1., 0., 0., 0., 1., 0., 0., 0. ]
      - [ 0., 0., 0., 0., 0., 0., 0., 2., 0., 0., 0., 5., 0., 2., 4., 1.,
          0., 4., 0., 0., 1., 0., 0., 1., 3., 0., 1., 0., 1., 0., 1., 0. ]
      - [ 0., 0., 0., 0., 0., 0., 0., 0., 0., 2., 1., 0., 2., 0., 1., 0.,
          0., 0., 0., 0., 2., 0., 3., 0., 0., 2., 0., 0., 0., 0., 0., 1. ]
      - [ 0., 0., 0., 0., 0., 0., 0., 0., 0., 0., 0., 2., 0., 0., 2., 0.,
          0., 0., 3., 0., 0., 4., 0., 0., 1., 0., 0., 0., 5., 0., 0., 0. ]
      - [ 0., 0., 0., 0., 1., 0., 0., 0., 0., 0., 0., 0., 0., 0., 1., 0.,
          0., 1., 0., 0., 0., 0., 0., 0., 1., 0., 0., 0., 2., 0., 0., 0. ]
      - [ 0., 2., 2., 0., 1., 1., 3., 2., 0., 0., 5., 3., 1., 1., 3., 0.,
          0., 10., 1., 2., 2., 0., 3., 0., 3., 0., 0., 0., 2., 1., 0.,
          0. ]
      - [ 1., 0., 0., 0., 1., 0., 0., 0., 0., 0., 0., 0., 0., 0., 1., 0.,
          0., 0., 0., 1., 0., 0., 0., 0., 0., 0., 0., 0., 0., 0., 0., 0. ]
      - [ 0., 0., 0., 0., 0., 0., 2., 0., 1., 0., 0., 0., 3., 0., 0., 0.,
          0., 0., 0., 4., 1., 2., 0., 0., 0., 0., 0., 0., 0., 0., 0., 0. ]
      - [ 1., 0., 0., 0., 0., 0., 0., 0., 0., 0., 0., 0., 0., 0., 0., 0.,
          0., 0., 0., 2., 0., 1., 0., 0., 0., 0., 0., 0., 0., 0., 0., 0. ]
      - [ 0., 0., 0., 0., 0., 0., 0., 0., 0., 1., 0., 0., 1., 0., 0., 0.,
          0., 0., 0., 2., 0., 1., 0., 0., 0., 0., 0., 0., 0., 0., 0., 0. ]
      - [ 0., 0., 0., 0., 0., 0., 2., 0., 0., 0., 0., 0., 0., 0., 0., 0.,
          0., 0., 0., 2., 0., 2., 0., 0., 0., 0., 0., 0., 0., 1., 0., 0. ]
      - [ 0., 0., 0., 0., 0., 0., 0., 0., 0., 0., 0., 0., 0., 0., 0., 0.,
          0., 1., 0., 1., 0., 0., 0., 0., 1., 0., 0., 0., 2., 0., 0., 0. ]
      - [ 0., 0., 0., 0., 0., 0., 0., 2., 0., 0., 0., 0., 0., 0., 1., 7.,
          0., 1., 0., 8., 0., 2., 1., 0., 2., 0., 0., 0., 0., 0., 3., 0. ]
      - [ 0., 0., 0., 0., 0., 0., 0., 0., 0., 0., 0., 0., 0., 0., 1., 0.,
          0., 0., 0., 0., 0., 0., 0., 0., 1., 0., 0., 0., 0., 0., 0., 0. ]
      - [ 0., 7., 1., 1., 0., 2., 0., 3., 1., 1., 6., 6., 2., 0., 10.,
          0., 2., 1., 1., 1., 1., 2., 5., 0., 0., 5., 0., 0., 0., 2., 0.,
          1. ]
      - [ 0., 0., 0., 0., 0., 0., 0., 0., 0., 0., 0., 1., 0., 0., 0., 0.,
          0., 1., 1., 0., 0., 2., 0., 0., 1., 0., 0., 0., 1., 0., 0., 0. ]
      - [ 0., 0., 0., 0., 0., 0., 0., 0., 0., 0., 0., 2., 0., 0., 2., 0.,
          0., 1., 0., 0., 0., 1., 0., 0., 1., 0., 0., 0., 0., 0., 0., 0. ]
      - [ 0., 0., 0., 0., 0., 0., 0., 0., 0., 0., 0., 0., 1., 0., 0., 0.,
          0., 0., 0., 2., 0., 1., 0., 0., 0., 2., 0., 0., 0., 0., 0., 0. ]
      - [ 0., 0., 0., 0., 0., 0., 0., 0., 0., 0., 0., 0., 1., 0., 0., 0.,
          0., 0., 0., 0., 0., 1., 0., 0., 0., 0., 0., 0., 0., 0., 0., 0. ]
      - [ 1., 0., 0., 0., 0., 0., 0., 0., 0., 0., 0., 1., 0., 0., 1., 0.,
          0., 0., 0., 5., 0., 2., 0., 0., 0., 0., 0., 0., 0., 0., 0., 0. ]
      - [ 0., 0., 0., 0., 0., 0., 2., 0., 0., 1., 0., 0., 1., 0., 0., 0.,
          0., 0., 0., 0., 0., 0., 0., 0., 0., 0., 0., 0., 0., 0., 0., 0. ]
      - [ 0., 0., 0., 1., 0., 0., 0., 0., 0., 2., 0., 0., 0., 1., 0., 0.,
          0., 0., 0., 0., 0., 0., 0., 0., 0., 1., 0., 0., 0., 0., 2., 0. ]
      - [ 1., 0., 0., 0., 1., 0., 0., 0., 0., 0., 0., 0., 0., 0., 0., 0.,
          0., 0., 0., 2., 0., 1., 0., 0., 0., 0., 0., 0., 0., 0., 0., 0. ]
      - [ 0., 0., 0., 0., 0., 0., 0., 0., 0., 0., 0., 1., 0., 0., 2., 0.,
          0., 2., 1., 0., 0., 1., 0., 0., 0., 0., 0., 0., 0., 0., 0., 0. ]
      - [ 0., 0., 0., 0., 0., 0., 1., 0., 2., 1., 0., 0., 2., 0., 0., 0.,
          0., 0., 0., 0., 2., 1., 0., 0., 0., 0., 0., 0., 0., 0., 0., 0. ]
      - [ 0., 0., 0., 0., 0., 0., 2., 0., 0., 1., 0., 0., 0., 0., 0., 0.,
          0., 0., 0., 1., 0., 0., 0., 0., 0., 0., 0., 0., 0., 0., 0., 0. ]
      - [ 0., 0., 0., 0., 0., 0., 0., 0., 0., 0., 0., 1., 0., 0., 0., 0.,
          0., 0., 1., 1., 0., 0., 0., 0., 1., 0., 0., 0., 0., 0., 0., 0. ]
      - [ 0., 0., 0., 0., 0., 0., 0., 0., 0., 0., 0., 0., 0., 0., 0., 0.,
          0., 1., 0., 0., 0., 0., 0., 0., 1., 0., 0., 0., 1., 0., 0., 0. ]
      - [ 3., 2., 6., 6., 5., 7., 2., 6., 14., 2., 12., 4., 5., 6., 6.,
          2., 9., 1., 6., 4., 5., 11., 10., 0., 4., 3., 1., 8., 12., 1.,
          10., 5. ]
      - [ 15., 6., 7., 6., 4., 7., 15., 10., 11., 9., 8., 5., 16., 7.,
          8., 10., 8., 8., 7., 10., 13., 17., 7., 16., 4., 20., 10., 5.,
          10., 14., 12., 14. ]
      - [ 2., 5., 2., 6., 1., 8., 0., 1., 16., 4., 9., 6., 11., 2., 6.,
          3., 6., 0., 1., 5., 10., 2., 9., 4., 0., 17., 3., 0., 0., 2.,
          1., 6. ]
      - [ 12., 7., 12., 11., 5., 6., 9., 14., 23., 15., 17., 11., 18.,
          1., 12., 5., 9., 3., 11., 17., 16., 18., 6., 13., 1., 34., 4.,
          5., 20., 7., 13., 9. ]
      - [ 4., 2., 8., 5., 1., 12., 8., 26., 5., 3., 3., 14., 25., 2., 4.,
          26., 7., 1., 4., 14., 20., 4., 2., 20., 0., 10., 2., 2., 5.,
          5., 22., 10. ]
      - [ 5., 5., 4., 3., 2., 7., 0., 0., 0., 1., 8., 8., 2., 2., 3., 1.,
          1., 0., 5., 2., 2., 4., 4., 0., 3., 2., 2., 1., 4., 0., 0., 8. ]
      - [ 2., 5., 1., 5., 4., 6., 1., 0., 9., 2., 9., 2., 1., 1., 4., 0.,
          4., 3., 5., 4., 0., 4., 8., 0., 0., 3., 0., 0., 1., 1., 2., 6. ]
      - [ 5., 4., 2., 19., 0., 28., 5., 9., 13., 10., 6., 13., 15., 3.,
          5., 13., 6., 0., 2., 6., 19., 30., 6., 13., 0., 2., 3., 2., 1.,
          4., 3., 23. ]
      - [ 9., 8., 1., 1., 1., 7., 6., 14., 22., 7., 2., 7., 13., 1., 8.,
          25., 4., 1., 11., 4., 11., 32., 2., 26., 1., 14., 1., 2., 15.,
          4., 6., 6. ]
      - [ 3., 4., 6., 4., 3., 8., 3., 5., 11., 5., 6., 1., 5., 1., 6.,
          3., 6., 2., 3., 9., 5., 1., 8., 3., 2., 21., 10., 1., 0., 6.,
          28., 8. ]
      - [ 4., 5., 0., 2., 1., 2., 0., 2., 5., 1., 2., 2., 1., 2., 3., 2.,
          1., 0., 7., 6., 2., 4., 2., 3., 0., 17., 0., 0., 1., 2., 1.,
          1. ]
      - [ 6., 0., 3., 4., 0., 4., 2., 9., 5., 4., 2., 2., 4., 5., 3., 7.,
          0., 0., 2., 3., 4., 2., 2., 14., 1., 9., 2., 1., 0., 1., 3.,
          3. ]
      - [ 1., 2., 0., 3., 2., 2., 8., 3., 15., 2., 0., 9., 9., 2., 1.,
          4., 4., 0., 0., 4., 14., 4., 0., 3., 1., 14., 1., 0., 3., 1.,
          4., 2. ]
      - [ 5., 5., 6., 1., 4., 5., 0., 2., 11., 4., 11., 2., 5., 7., 1.,
          5., 1., 2., 2., 14., 4., 13., 6., 0., 0., 6., 4., 0., 2., 2.,
          10., 3. ]
      - [ 3., 9., 4., 3., 6., 8., 4., 5., 16., 5., 9., 3., 6., 6., 3.,
          8., 5., 0., 0., 6., 4., 4., 8., 16., 0., 12., 4., 0., 3., 5.,
          5., 7. ]
      - [ 3., 3., 2., 0., 2., 6., 0., 5., 6., 1., 8., 2., 6., 5., 4., 4.,
          0., 1., 1., 7., 6., 1., 10., 10., 2., 16., 2., 3., 6., 2., 2.,
          1. ]
      - [ 10., 4., 6., 8., 4., 9., 0., 2., 6., 2., 14., 3., 12., 0., 4.,
          8., 0., 0., 8., 25., 7., 40., 19., 6., 0., 15., 6., 0., 16.,
          3., 9., 2. ]
      - [ 1., 3., 1., 2., 1., 5., 2., 25., 7., 1., 5., 10., 11., 0., 10.,
          5., 0., 3., 2., 9., 12., 21., 6., 5., 1., 8., 0., 1., 5., 4.,
          9., 9. ]
      - [ 8., 3., 2., 8., 4., 8., 7., 2., 8., 7., 6., 5., 7., 1., 6., 5.,
          9., 2., 6., 4., 6., 6., 6., 3., 1., 6., 2., 4., 9., 6., 3.,
          17. ]
      - [ 5., 6., 10., 2., 7., 8., 13., 3., 9., 8., 11., 3., 9., 4., 11.,
          6., 12., 8., 0., 9., 6., 11., 5., 11., 5., 18., 5., 4., 10.,
          6., 14., 4. ]
      - [ 6., 3., 2., 4., 6., 8., 7., 2., 6., 5., 14., 8., 8., 10., 4.,
          1., 7., 3., 6., 9., 5., 5., 12., 5., 4., 5., 8., 7., 9., 3.,
          6., 13. ]
      - [ 3., 2., 1., 9., 2., 1., 18., 2., 16., 9., 5., 9., 10., 1., 5.,
          5., 10., 7., 2., 8., 8., 2., 3., 8., 4., 24., 3., 2., 6., 9.,
          7., 2. ]
      - [ 1., 4., 5., 1., 3., 7., 1., 1., 17., 1., 4., 3., 2., 0., 4.,
          3., 2., 1., 0., 5., 2., 9., 5., 4., 0., 13., 2., 0., 1., 2.,
          1., 5. ]
      - [ 1., 4., 10., 3., 1., 5., 4., 4., 12., 9., 7., 3., 7., 4., 2.,
          5., 6., 6., 1., 5., 15., 3., 9., 14., 3., 8., 8., 1., 7., 4.,
          11., 4. ]
      - [ 0., 3., 1., 1., 1., 9., 0., 1., 11., 1., 9., 0., 5., 1., 1.,
          1., 1., 0., 21., 23., 3., 21., 14., 1., 0., 4., 1., 0., 4., 0.,
          1., 1. ]
      - [ 3., 6., 7., 1., 2., 2., 0., 2., 5., 3., 6., 3., 5., 2., 5., 1.,
          1., 0., 3., 9., 8., 7., 4., 0., 0., 14., 5., 1., 7., 1., 2.,
          4. ]
      - [ 4., 5., 2., 12., 0., 4., 2., 3., 6., 5., 1., 3., 4., 3., 5.,
          2., 2., 2., 1., 7., 6., 3., 3., 3., 1., 12., 3., 1., 3., 4.,
          4., 4. ]
      - [ 1., 1., 4., 4., 1., 3., 2., 11., 7., 1., 4., 9., 4., 1., 1.,
          7., 1., 1., 4., 5., 4., 3., 0., 3., 1., 10., 1., 4., 14., 0.,
          6., 1. ]
      - [ 1., 11., 8., 10., 6., 11., 3., 94., 42., 4., 10., 4., 14., 5.,
          8., 27., 4., 2., 9., 7., 13., 17., 12., 37., 4., 23., 9., 5.,
          13., 7., 10., 10. ]
      - [ 5., 2., 11., 3., 2., 5., 6., 3., 2., 2., 8., 1., 2., 2., 3.,
          0., 5., 1., 0., 12., 6., 11., 8., 1., 0., 20., 3., 2., 3., 2.,
          4., 4. ]
      - [ 0., 0., 0., 2., 0., 0., 0., 0., 0., 2., 1., 1., 0., 0., 1., 0.,
          0., 1., 0., 4., 0., 3., 2., 0., 2., 0., 0., 1., 0., 0., 0., 0. ]
      - [ 0., 0., 0., 0., 0., 0., 0., 0., 0., 3., 1., 2., 1., 0., 0., 0.,
          0., 0., 0., 5., 0., 6., 1., 0., 1., 0., 0., 0., 0., 0., 0., 0. ]
      - [ 1., 2., 0., 0., 3., 0., 0., 0., 0., 0., 2., 3., 2., 2., 4., 1.,
          1., 5., 2., 0., 1., 4., 0., 3., 2., 0., 2., 5., 3., 0., 2., 0. ]
      - [ 1., 2., 0., 2., 0., 2., 0., 0., 0., 1., 6., 4., 5., 3., 2., 2.,
          1., 2., 2., 3., 1., 5., 3., 2., 5., 0., 1., 5., 0., 0., 2., 0. ]
      - [ 0., 0., 0., 0., 0., 0., 0., 0., 0., 0., 2., 2., 1., 1., 1., 0.,
          1., 0., 0., 3., 0., 5., 6., 0., 1., 0., 0., 0., 0., 0., 0., 0. ]
      - [ 1., 1., 1., 0., 0., 2., 0., 0., 0., 1., 2., 2., 1., 7., 4., 2.,
          0., 6., 0., 1., 0., 4., 2., 2., 2., 0., 9., 6., 10., 0., 0.,
          2. ]
      - [ 2., 3., 0., 0., 0., 5., 1., 11., 0., 1., 1., 8., 2., 15., 8.,
          1., 0., 22., 9., 0., 3., 0., 1., 0., 12., 0., 8., 8., 14., 0.,
          0., 4. ]
      - [ 0., 1., 0., 1., 1., 1., 0., 0., 0., 2., 5., 5., 1., 2., 0., 0.,
          0., 1., 4., 5., 0., 6., 4., 0., 3., 0., 0., 0., 1., 0., 0., 0. ]
      - [ 4., 2., 0., 2., 2., 2., 1., 0., 0., 3., 4., 3., 5., 0., 1., 0.,
          2., 1., 3., 3., 2., 6., 7., 0., 1., 2., 0., 2., 0., 0., 1., 0. ]
      - [ 0., 0., 0., 0., 1., 1., 0., 0., 0., 2., 7., 4., 1., 0., 1., 0.,
          0., 0., 0., 5., 0., 7., 9., 0., 3., 0., 0., 0., 0., 0., 0., 0. ]
      - [ 0., 0., 0., 0., 1., 0., 0., 0., 0., 0., 2., 0., 0., 0., 0., 0.,
          0., 4., 0., 3., 0., 1., 4., 0., 1., 0., 2., 0., 0., 0., 0., 0. ]
      - [ 0., 2., 0., 1., 0., 0., 5., 0., 0., 6., 2., 0., 5., 1., 0., 0.,
          0., 0., 0., 0., 4., 0., 2., 0., 1., 0., 0., 0., 0., 3., 0., 0. ]
      - [ 0., 1., 0., 2., 0., 0., 0., 0., 0., 2., 4., 0., 0., 1., 0., 0.,
          1., 0., 0., 8., 0., 7., 4., 0., 2., 0., 0., 0., 0., 0., 0., 0. ]
      - [ 0., 0., 0., 0., 0., 1., 5., 0., 0., 1., 0., 0., 1., 0., 0., 0.,
          0., 0., 0., 3., 1., 2., 0., 0., 1., 0., 0., 0., 0., 0., 0., 1. ]
      - [ 1., 4., 0., 0., 0., 3., 0., 5., 0., 2., 0., 5., 0., 6., 8., 0.,
          2., 8., 1., 1., 0., 0., 0., 0., 8., 0., 4., 4., 9., 0., 0., 3. ]
      - [ 1., 3., 0., 2., 1., 0., 1., 1., 0., 2., 2., 5., 5., 4., 2., 0.,
          2., 1., 1., 5., 2., 3., 2., 0., 1., 1., 1., 1., 0., 0., 1., 0. ]
      - [ 0., 0., 0., 1., 0., 0., 0., 0., 0., 3., 5., 4., 0., 0., 0., 0.,
          1., 0., 0., 3., 0., 4., 5., 0., 2., 0., 0., 0., 0., 0., 0., 0. ]
      - [ 0., 0., 0., 0., 0., 0., 0., 0., 0., 0., 3., 1., 1., 0., 0., 0.,
          1., 0., 0., 8., 0., 0., 4., 0., 3., 0., 0., 0., 0., 0., 0., 0. ]
      - [ 4., 4., 0., 0., 0., 4., 0., 3., 0., 0., 1., 4., 0., 7., 7., 0.,
          1., 9., 0., 0., 1., 0., 0., 0., 10., 0., 6., 8., 7., 0., 0.,
          5. ]
      - [ 10., 8., 6., 2., 17., 13., 8., 4., 2., 7., 13., 7., 8., 16.,
          14., 3., 8., 18., 0., 6., 9., 4., 12., 6., 7., 0., 10., 10.,
          3., 5., 7., 9. ]
      - [ 23., 24., 21., 25., 25., 30., 51., 11., 26., 38., 28., 18.,
          36., 45., 24., 19., 33., 20., 7., 9., 35., 7., 21., 15., 18.,
          19., 37., 11., 10., 47., 24., 34. ]
      - [ 9., 4., 10., 8., 4., 8., 1., 5., 4., 4., 7., 4., 10., 7., 5.,
          8., 1., 3., 12., 11., 6., 6., 2., 3., 4., 2., 5., 3., 22., 3.,
          2., 13. ]
      - [ 30., 22., 12., 36., 14., 26., 23., 11., 16., 20., 23., 26.,
          25., 14., 23., 13., 46., 14., 10., 15., 25., 3., 21., 17., 14.,
          19., 18., 8., 4., 20., 9., 43. ]
      - [ 6., 2., 0., 3., 3., 4., 2., 0., 1., 3., 4., 5., 2., 6., 6., 2.,
          4., 3., 0., 6., 6., 10., 2., 3., 2., 2., 5., 1., 1., 2., 3.,
          6. ]
      - [ 2., 6., 1., 5., 18., 7., 8., 1., 1., 5., 10., 7., 2., 8., 9.,
          2., 4., 4., 1., 0., 2., 1., 10., 0., 5., 0., 1., 10., 4., 1.,
          2., 14. ]
      - [ 2., 2., 4., 2., 6., 3., 1., 0., 1., 0., 9., 2., 1., 4., 2., 1.,
          1., 6., 0., 1., 2., 3., 11., 1., 2., 1., 2., 1., 0., 0., 0.,
          3. ]
      - [ 9., 28., 5., 16., 4., 19., 49., 2., 13., 30., 7., 8., 26., 14.,
          21., 7., 47., 46., 4., 1., 22., 0., 11., 9., 7., 2., 13., 9.,
          2., 26., 6., 17. ]
      - [ 17., 12., 11., 22., 12., 14., 13., 6., 16., 10., 8., 8., 16.,
          9., 11., 13., 17., 8., 11., 12., 23., 10., 8., 20., 11., 18.,
          10., 10., 16., 14., 9., 12. ]
      - [ 4., 16., 7., 13., 16., 20., 11., 2., 3., 6., 14., 4., 12., 8.,
          15., 2., 6., 9., 2., 14., 12., 7., 9., 5., 3., 1., 9., 2., 2.,
          3., 5., 8. ]
      - [ 6., 4., 5., 0., 19., 10., 0., 9., 0., 0., 17., 6., 2., 12., 8.,
          6., 0., 18., 14., 4., 2., 1., 23., 17., 6., 2., 7., 6., 4., 0.,
          5., 14. ]
      - [ 30., 12., 17., 40., 9., 28., 14., 8., 18., 20., 19., 12., 31.,
          13., 13., 8., 20., 6., 22., 39., 30., 20., 14., 10., 6., 15.,
          12., 8., 7., 18., 15., 34. ]
      - [ 9., 5., 7., 10., 8., 9., 12., 4., 6., 8., 13., 9., 12., 7.,
          15., 4., 9., 6., 6., 4., 13., 4., 11., 2., 3., 3., 10., 3., 3.,
          8., 7., 5. ]
      - [ 9., 26., 14., 28., 7., 19., 33., 12., 9., 34., 13., 11., 17.,
          24., 29., 6., 35., 43., 7., 44., 17., 13., 12., 12., 18., 5.,
          21., 16., 6., 28., 8., 15. ]
      - [ 6., 10., 12., 0., 14., 10., 9., 0., 2., 7., 8., 1., 6., 5., 5.,
          3., 9., 21., 0., 11., 8., 19., 12., 2., 6., 1., 6., 3., 2.,
          10., 8., 10. ]
      - [ 6., 10., 3., 6., 13., 9., 2., 3., 0., 2., 9., 8., 5., 11., 11.,
          1., 4., 15., 6., 0., 5., 0., 12., 3., 2., 0., 12., 6., 1., 5.,
          4., 9. ]
      - [ 28., 40., 9., 48., 25., 47., 61., 4., 26., 56., 35., 19., 43.,
          42., 28., 22., 54., 32., 9., 8., 37., 1., 33., 10., 26., 26.,
          37., 14., 1., 54., 18., 46. ]
      - [ 5., 19., 7., 11., 9., 6., 28., 8., 32., 23., 15., 15., 13.,
          18., 22., 7., 6., 17., 6., 6., 28., 5., 19., 16., 12., 24.,
          16., 7., 11., 24., 7., 8. ]
      - [ 18., 10., 11., 8., 10., 12., 11., 5., 2., 11., 15., 6., 8.,
          11., 4., 6., 15., 16., 6., 6., 5., 5., 10., 5., 6., 2., 19.,
          8., 4., 7., 3., 14. ]
      - [ 11., 7., 16., 1., 19., 6., 4., 3., 3., 6., 13., 12., 8., 7.,
          4., 7., 4., 13., 11., 9., 7., 9., 14., 6., 8., 0., 9., 10., 6.,
          4., 11., 8. ]
      - [ 8., 23., 4., 24., 5., 20., 29., 8., 16., 42., 7., 8., 25., 10.,
          8., 8., 31., 6., 7., 3., 33., 0., 13., 10., 11., 14., 15., 7.,
          2., 33., 10., 15. ]
      - [ 1., 3., 0., 4., 2., 3., 1., 0., 0., 1., 2., 2., 0., 0., 7., 0.,
          1., 0., 1., 0., 1., 1., 3., 0., 0., 1., 0., 0., 1., 2., 1., 2. ]
      - [ 23., 12., 2., 3., 10., 13., 6., 3., 8., 4., 8., 4., 5., 2., 4.,
          1., 3., 1., 7., 9., 2., 5., 7., 0., 1., 1., 3., 3., 6., 6., 0.,
          10. ]
      - [ 7., 11., 7., 7., 24., 6., 5., 3., 1., 6., 23., 7., 6., 6., 12.,
          4., 11., 9., 3., 2., 7., 3., 13., 1., 7., 3., 7., 10., 3., 2.,
          1., 13. ]
      - [ 9., 28., 5., 11., 27., 31., 53., 14., 22., 33., 27., 34., 29.,
          33., 33., 18., 39., 65., 8., 9., 33., 5., 28., 10., 24., 13.,
          32., 35., 1., 31., 22., 28. ]
      - [ 10., 16., 8., 10., 5., 19., 16., 7., 6., 8., 15., 6., 12., 7.,
          19., 5., 15., 12., 16., 7., 2., 7., 10., 9., 12., 3., 12., 6.,
          11., 9., 3., 17. ]
      - [ 22., 7., 2., 4., 3., 9., 7., 0., 0., 3., 4., 0., 2., 2., 2.,
          3., 1., 7., 0., 17., 1., 18., 5., 1., 0., 0., 4., 4., 1., 3.,
          1., 6. ]
      - [ 5., 11., 5., 1., 8., 7., 6., 1., 0., 3., 11., 5., 3., 4., 16.,
          1., 8., 10., 0., 1., 2., 1., 12., 1., 8., 0., 11., 4., 0., 4.,
          2., 7. ]
      - [ 0., 0., 1., 4., 0., 2., 3., 0., 5., 1., 3., 3., 2., 3., 5., 1.,
          1., 1., 1., 6., 3., 1., 2., 2., 0., 1., 1., 0., 0., 1., 0., 2. ]
      - [ 4., 7., 2., 10., 5., 6., 8., 1., 7., 4., 9., 9., 4., 9., 12.,
          3., 10., 11., 3., 4., 7., 2., 10., 3., 6., 4., 8., 7., 2., 5.,
          1., 6. ]
      - [ 15., 9., 3., 9., 16., 14., 9., 5., 2., 5., 15., 12., 8., 6.,
          11., 16., 10., 9., 38., 13., 6., 14., 11., 5., 9., 2., 1., 15.,
          19., 8., 5., 13. ]
      - [ 17., 10., 13., 25., 15., 19., 21., 6., 6., 21., 15., 14., 19.,
          12., 15., 13., 21., 13., 9., 8., 23., 3., 12., 9., 8., 5., 12.,
          13., 12., 16., 14., 20. ]
      - [ 8., 23., 10., 20., 11., 16., 15., 5., 7., 11., 12., 13., 20.,
          12., 17., 9., 8., 14., 9., 7., 24., 5., 7., 12., 8., 11., 7.,
          8., 8., 8., 5., 28. ]
      - [ 4., 8., 1., 14., 11., 11., 10., 2., 1., 9., 4., 3., 7., 4., 8.,
          2., 12., 2., 0., 3., 7., 7., 7., 1., 5., 4., 7., 5., 1., 10.,
          2., 6. ]
      - [ 2., 7., 3., 8., 1., 3., 5., 0., 3., 3., 3., 8., 9., 1., 7., 0.,
          5., 12., 3., 6., 4., 2., 3., 0., 3., 4., 1., 1., 0., 4., 2.,
          0. ]
      - [ 16., 7., 5., 10., 4., 11., 5., 1., 2., 5., 3., 4., 8., 10., 4.,
          1., 5., 2., 5., 19., 7., 10., 1., 0., 3., 4., 8., 5., 2., 7.,
          1., 14. ]
      - [ 19., 5., 4., 4., 7., 11., 8., 7., 14., 11., 6., 5., 7., 4., 7.,
          12., 14., 2., 8., 5., 10., 4., 5., 6., 8., 9., 4., 10., 1.,
          14., 5., 12. ]
      - [ 1., 0., 0., 0., 1., 3., 1., 2., 3., 3., 2., 0., 3., 0., 3., 2.,
          1., 0., 4., 1., 2., 3., 3., 0., 1., 2., 0., 1., 3., 2., 0., 2. ]
      - [ 3., 1., 0., 1., 1., 3., 2., 0., 2., 0., 3., 1., 1., 0., 6., 5.,
          0., 3., 3., 1., 0., 4., 3., 3., 3., 0., 0., 1., 3., 3., 1., 3. ]
      - [ 10., 9., 11., 18., 7., 10., 11., 10., 6., 7., 11., 8., 12., 7.,
          14., 8., 5., 2., 20., 23., 18., 15., 6., 5., 9., 7., 3., 6.,
          14., 5., 7., 4. ]
      - [ 4., 5., 3., 3., 24., 14., 7., 8., 0., 2., 11., 13., 2., 8., 8.,
          3., 5., 20., 7., 0., 6., 2., 12., 0., 6., 0., 19., 5., 11., 2.,
          7., 15. ]
      - [ 17., 13., 7., 36., 12., 14., 20., 14., 19., 19., 18., 7., 22.,
          10., 13., 9., 12., 12., 11., 18., 20., 6., 14., 8., 9., 23.,
          6., 7., 4., 18., 11., 17. ]
      - [ 5., 11., 7., 9., 13., 11., 11., 1., 5., 5., 11., 6., 6., 11.,
          10., 5., 8., 23., 3., 0., 9., 1., 11., 3., 5., 1., 10., 10.,
          1., 4., 1., 15. ]
      - [ 11., 14., 7., 20., 16., 19., 22., 5., 6., 13., 7., 7., 10.,
          11., 15., 4., 17., 6., 5., 8., 11., 7., 13., 9., 10., 6., 22.,
          7., 5., 14., 17., 14. ]
      - [ 3., 31., 6., 17., 2., 12., 59., 3., 31., 50., 13., 3., 18.,
          14., 10., 5., 33., 14., 0., 0., 33., 0., 16., 16., 6., 18.,
          14., 6., 1., 57., 4., 10. ]
      - [ 21., 42., 12., 44., 13., 35., 123., 6., 15., 79., 22., 25.,
          51., 46., 26., 9., 154., 77., 3., 1., 47., 0., 23., 13., 30.,
          8., 36., 22., 2., 90., 17., 33. ]
      - [ 11., 11., 3., 8., 3., 9., 2., 2., 3., 5., 7., 6., 4., 2., 12.,
          2., 3., 7., 2., 5., 2., 4., 8., 3., 0., 4., 4., 2., 1., 6., 0.,
          5. ]
      - [ 5., 5., 3., 6., 7., 6., 3., 2., 3., 3., 9., 5., 3., 3., 5., 3.,
          2., 7., 4., 4., 2., 3., 6., 0., 0., 1., 4., 4., 2., 2., 1., 5. ]
      - [ 12., 17., 6., 10., 7., 17., 28., 2., 0., 18., 15., 8., 18.,
          14., 15., 4., 22., 9., 1., 2., 16., 1., 18., 8., 7., 11., 7.,
          9., 0., 29., 3., 23. ]
      - [ 5., 16., 5., 4., 8., 12., 13., 1., 1., 10., 8., 10., 9., 21.,
          13., 3., 20., 30., 3., 1., 10., 0., 5., 0., 17., 0., 12., 15.,
          3., 17., 5., 10. ]
      - [ 20., 24., 16., 49., 17., 40., 55., 2., 6., 23., 27., 12., 20.,
          28., 22., 6., 37., 25., 3., 5., 15., 0., 26., 7., 14., 3., 26.,
          23., 6., 30., 8., 34. ]
      - [ 7., 8., 4., 7., 6., 6., 25., 1., 4., 10., 8., 6., 11., 4., 7.,
          1., 16., 15., 2., 6., 15., 0., 2., 3., 13., 4., 11., 5., 1.,
          23., 4., 5. ]
      - [ 1., 16., 3., 6., 6., 15., 48., 8., 2., 20., 14., 11., 12., 24.,
          13., 7., 33., 42., 6., 3., 12., 5., 13., 6., 14., 5., 24., 19.,
          3., 13., 6., 6. ]
      - [ 5., 3., 1., 3., 1., 8., 4., 0., 4., 4., 8., 2., 5., 1., 3., 0.,
          4., 1., 0., 7., 2., 1., 3., 0., 0., 4., 2., 5., 0., 1., 1., 9. ]
      - [ 5., 8., 6., 7., 13., 10., 2., 4., 0., 4., 11., 1., 2., 7., 12.,
          4., 7., 9., 4., 5., 3., 9., 13., 1., 4., 3., 7., 5., 1., 6.,
          7., 12. ]
      - [ 9., 21., 3., 21., 5., 21., 17., 7., 11., 19., 31., 13., 10.,
          13., 18., 6., 11., 7., 5., 9., 18., 4., 32., 14., 7., 12., 11.,
          2., 3., 17., 7., 23. ]
      - [ 10., 8., 5., 5., 13., 8., 3., 8., 4., 5., 15., 9., 9., 3., 9.,
          5., 4., 7., 7., 12., 8., 7., 13., 3., 10., 2., 8., 6., 12., 6.,
          5., 12. ]
      - [ 7., 25., 7., 23., 9., 21., 54., 23., 9., 52., 16., 30., 43.,
          24., 24., 23., 80., 28., 18., 2., 32., 1., 11., 19., 36., 10.,
          35., 32., 15., 54., 21., 22. ]
      - [ 5., 3., 4., 0., 5., 3., 7., 3., 0., 10., 9., 7., 1., 4., 9.,
          3., 5., 17., 0., 2., 3., 2., 9., 0., 5., 0., 6., 4., 3., 6.,
          3., 4. ]
      - [ 15., 43., 16., 21., 21., 20., 86., 21., 25., 84., 35., 33.,
          32., 36., 37., 28., 83., 69., 8., 6., 44., 1., 34., 32., 38.,
          14., 39., 45., 7., 63., 13., 25. ]
      - [ 19., 9., 3., 23., 5., 11., 3., 10., 11., 2., 13., 8., 11., 3.,
          13., 2., 3., 3., 8., 14., 11., 21., 10., 8., 5., 12., 3., 1.,
          7., 5., 4., 14. ]
      - [ 3., 6., 7., 7., 10., 7., 9., 5., 14., 5., 7., 7., 7., 13., 15.,
          4., 5., 6., 8., 3., 9., 3., 9., 5., 7., 3., 8., 7., 0., 9., 4.,
          2. ]
      - [ 7., 13., 4., 19., 9., 10., 7., 20., 17., 24., 9., 13., 20., 3.,
          15., 14., 8., 5., 5., 18., 23., 12., 9., 21., 6., 21., 5., 11.,
          12., 13., 17., 9. ]
      - [ 0., 9., 1., 2., 4., 5., 0., 11., 12., 6., 4., 6., 8., 0., 6.,
          4., 7., 2., 27., 3., 7., 1., 0., 13., 3., 3., 3., 8., 12., 0.,
          3., 2. ]
      - [ 21., 30., 10., 25., 13., 30., 13., 7., 15., 22., 19., 10., 32.,
          10., 19., 13., 12., 10., 8., 14., 27., 7., 17., 21., 5., 5.,
          7., 14., 5., 18., 14., 30. ]
      - [ 15., 30., 9., 43., 22., 20., 53., 4., 8., 28., 21., 9., 23.,
          29., 17., 10., 41., 45., 3., 4., 15., 3., 20., 11., 29., 9.,
          28., 15., 3., 33., 10., 21. ]
      - [ 3., 3., 2., 6., 1., 5., 11., 0., 5., 5., 1., 2., 7., 0., 1.,
          2., 5., 0., 0., 8., 2., 3., 1., 0., 0., 5., 2., 0., 0., 5., 1.,
          5. ]
      - [ 3., 6., 2., 4., 2., 4., 8., 7., 8., 6., 4., 6., 9., 7., 11.,
          2., 13., 5., 2., 2., 7., 3., 1., 13., 12., 7., 7., 12., 2., 5.,
          8., 1. ]
      - [ 14., 15., 8., 14., 21., 21., 10., 10., 17., 12., 17., 15., 22.,
          10., 12., 62., 12., 7., 22., 5., 15., 8., 11., 43., 13., 9.,
          15., 15., 29., 11., 12., 26. ]
      - [ 26., 10., 9., 19., 12., 17., 9., 2., 0., 6., 18., 6., 6., 11.,
          7., 4., 11., 13., 5., 11., 2., 3., 20., 1., 7., 0., 9., 6., 0.,
          5., 6., 21. ]
      - [ 1., 7., 3., 0., 5., 7., 1., 0., 0., 1., 4., 4., 1., 1., 7., 0.,
          1., 2., 0., 5., 2., 2., 7., 0., 7., 1., 4., 2., 1., 0., 3., 9. ]
      - [ 6., 8., 2., 32., 9., 23., 14., 2., 11., 17., 17., 3., 11., 21.,
          9., 5., 26., 4., 3., 8., 10., 2., 7., 6., 6., 7., 16., 4., 3.,
          14., 10., 22. ]
      - [ 15., 26., 8., 37., 15., 33., 6., 2., 15., 12., 13., 12., 16.,
          15., 20., 5., 10., 10., 7., 17., 19., 9., 7., 3., 7., 14., 20.,
          9., 13., 7., 8., 37. ]
      - [ 4., 2., 4., 3., 5., 6., 0., 0., 0., 2., 6., 0., 0., 0., 1., 0.,
          0., 2., 2., 2., 1., 3., 4., 0., 1., 0., 1., 1., 2., 1., 2., 5. ]
      - [ 9., 5., 8., 4., 3., 8., 7., 4., 1., 3., 8., 2., 9., 3., 6., 2.,
          0., 5., 12., 16., 8., 10., 6., 3., 4., 6., 4., 3., 5., 5., 1.,
          9. ]
      - [ 4., 0., 1., 1., 4., 1., 0., 0., 0., 0., 1., 1., 2., 0., 0., 0.,
          0., 2., 0., 5., 0., 2., 3., 0., 1., 0., 0., 0., 1., 0., 3., 2. ]
      - [ 15., 17., 10., 43., 7., 14., 30., 10., 24., 26., 24., 11., 23.,
          16., 21., 11., 33., 7., 7., 31., 25., 10., 15., 16., 8., 33.,
          17., 12., 6., 21., 7., 17. ]
      - [ 5., 4., 4., 9., 2., 4., 0., 0., 7., 3., 4., 4., 4., 2., 4., 6.,
          3., 0., 1., 7., 7., 3., 2., 1., 2., 3., 0., 3., 0., 2., 4., 9. ]
      - [ 17., 16., 5., 25., 8., 16., 18., 10., 11., 21., 11., 12., 21.,
          4., 11., 19., 17., 8., 10., 4., 18., 5., 13., 23., 8., 5., 14.,
          10., 2., 19., 17., 12. ]
      - [ 6., 14., 10., 1., 15., 7., 11., 2., 0., 9., 16., 6., 10., 5.,
          10., 3., 12., 12., 10., 3., 7., 6., 7., 3., 1., 0., 12., 3.,
          2., 9., 2., 7. ]
      - [ 26., 15., 1., 19., 10., 24., 13., 5., 3., 8., 12., 12., 14.,
          6., 18., 7., 10., 7., 8., 7., 10., 4., 7., 5., 7., 3., 8., 9.,
          7., 6., 7., 20. ]
      - [ 5., 5., 1., 12., 5., 7., 3., 0., 8., 4., 4., 2., 2., 4., 4.,
          0., 3., 3., 4., 8., 2., 2., 3., 1., 1., 7., 2., 1., 4., 1., 2.,
          2. ]
      - [ 10., 5., 4., 12., 13., 8., 7., 2., 0., 5., 4., 11., 9., 3.,
          15., 7., 4., 8., 12., 10., 8., 7., 8., 6., 4., 6., 6., 4., 3.,
          9., 6., 7. ]
      - [ 16., 39., 6., 24., 15., 29., 55., 13., 17., 48., 20., 10., 19.,
          16., 31., 12., 46., 50., 3., 8., 28., 2., 18., 21., 16., 5.,
          19., 13., 4., 41., 13., 36. ]
      - [ 9., 6., 4., 14., 3., 5., 8., 4., 18., 12., 7., 4., 14., 3., 2.,
          18., 7., 0., 2., 9., 13., 8., 5., 13., 3., 20., 2., 5., 3.,
          12., 7., 6. ]
      - [ 12., 8., 8., 9., 12., 10., 14., 4., 3., 5., 13., 11., 14., 13.,
          11., 10., 5., 6., 7., 8., 12., 6., 21., 5., 8., 2., 10., 12.,
          5., 11., 12., 10. ]
      - [ 2., 1., 4., 0., 4., 1., 1., 0., 2., 1., 5., 1., 1., 0., 0., 1.,
          0., 2., 0., 5., 1., 4., 4., 0., 1., 0., 1., 0., 2., 1., 3., 3. ]
      - [ 6., 9., 1., 30., 1., 20., 35., 3., 0., 14., 7., 8., 13., 15.,
          8., 9., 29., 2., 1., 2., 14., 0., 4., 3., 6., 2., 12., 6., 1.,
          23., 12., 18. ]
      - [ 5., 13., 10., 11., 10., 16., 36., 3., 1., 20., 11., 11., 14.,
          15., 18., 4., 24., 21., 28., 6., 11., 1., 6., 7., 8., 0., 20.,
          10., 3., 20., 6., 10. ]
      - [ 8., 6., 1., 5., 3., 7., 4., 3., 2., 4., 7., 10., 5., 1., 5.,
          7., 0., 2., 0., 9., 8., 13., 4., 2., 0., 8., 3., 2., 0., 6.,
          2., 4. ]
      - [ 4., 13., 5., 8., 4., 20., 8., 3., 2., 4., 12., 5., 5., 13.,
          14., 3., 12., 17., 12., 7., 2., 4., 11., 6., 10., 2., 13., 11.,
          4., 8., 6., 14. ]
      - [ 6., 4., 1., 10., 3., 6., 1., 0., 9., 4., 8., 3., 1., 4., 5.,
          5., 4., 2., 14., 3., 3., 4., 3., 3., 1., 3., 2., 4., 10., 5.,
          4., 6. ]
      - [ 11., 22., 9., 26., 5., 23., 14., 3., 4., 9., 22., 8., 15., 9.,
          17., 7., 28., 24., 5., 6., 15., 2., 14., 4., 14., 2., 12., 13.,
          1., 13., 6., 24. ]
      - [ 18., 36., 1., 25., 5., 35., 53., 3., 3., 33., 25., 19., 20.,
          15., 15., 10., 59., 34., 1., 1., 16., 0., 16., 8., 17., 0.,
          18., 12., 1., 38., 3., 41. ]
      - [ 26., 14., 4., 33., 15., 17., 34., 3., 11., 10., 21., 2., 15.,
          6., 10., 4., 13., 2., 3., 12., 16., 5., 13., 2., 5., 4., 5.,
          7., 2., 6., 5., 18. ]
      - [ 16., 14., 8., 26., 21., 15., 19., 3., 3., 13., 25., 12., 17.,
          20., 18., 17., 19., 16., 10., 10., 13., 10., 20., 11., 14., 6.,
          25., 18., 2., 17., 14., 14. ]
      - [ 2., 4., 0., 0., 1., 3., 2., 9., 35., 7., 0., 6., 5., 3., 3.,
          7., 5., 4., 8., 0., 8., 3., 1., 26., 3., 36., 2., 4., 11., 6.,
          6., 0. ]
      - [ 3., 7., 2., 3., 5., 1., 5., 10., 2., 4., 5., 4., 4., 3., 4.,
          11., 11., 7., 17., 3., 0., 8., 2., 8., 5., 0., 4., 6., 9., 3.,
          8., 3. ]
      - [ 5., 4., 5., 2., 3., 8., 4., 26., 3., 2., 1., 4., 5., 4., 8.,
          8., 0., 4., 12., 18., 5., 12., 3., 10., 8., 3., 5., 5., 7., 3.,
          13., 5. ]
      - [ 2., 4., 0., 0., 0., 2., 6., 3., 2., 0., 0., 1., 2., 2., 3., 0.,
          1., 3., 3., 0., 2., 0., 0., 1., 2., 0., 2., 2., 2., 0., 0., 0. ]
      - [ 6., 5., 2., 2., 2., 5., 0., 1., 0., 1., 1., 6., 4., 2., 8., 3.,
          0., 1., 2., 5., 3., 8., 3., 0., 5., 0., 1., 2., 5., 3., 1., 3. ]
      - [ 3., 7., 6., 7., 10., 15., 5., 8., 4., 8., 10., 14., 7., 3.,
          12., 10., 12., 5., 14., 11., 7., 7., 6., 13., 10., 5., 7., 7.,
          11., 3., 9., 10. ]
      - [ 2., 3., 0., 0., 1., 1., 0., 0., 2., 1., 4., 5., 2., 0., 7., 0.,
          0., 0., 6., 0., 1., 1., 1., 0., 1., 2., 1., 2., 5., 0., 0., 0. ]
      - [ 4., 0., 0., 4., 0., 4., 6., 0., 7., 4., 1., 2., 3., 1., 1., 2.,
          2., 2., 2., 1., 4., 2., 0., 0., 1., 3., 3., 4., 5., 1., 3., 2. ]
      - [ 12., 4., 1., 6., 6., 3., 5., 8., 12., 9., 2., 8., 8., 4., 5.,
          8., 4., 2., 9., 5., 16., 1., 2., 5., 7., 18., 2., 3., 0., 13.,
          7., 8. ]
      - [ 2., 1., 7., 1., 8., 1., 7., 18., 19., 1., 5., 2., 2., 2., 3.,
          5., 2., 17., 8., 6., 0., 8., 2., 13., 4., 29., 3., 3., 8., 2.,
          7., 3. ]
      - [ 1., 0., 0., 0., 0., 3., 0., 5., 0., 0., 1., 7., 0., 4., 6., 1.,
          0., 8., 3., 2., 0., 1., 3., 0., 3., 0., 2., 1., 4., 0., 0., 1. ]
      - [ 9., 3., 3., 10., 5., 6., 12., 6., 25., 9., 3., 3., 7., 1., 2.,
          13., 9., 4., 7., 6., 17., 9., 2., 11., 2., 18., 4., 3., 5.,
          12., 12., 9. ]
      - [ 3., 2., 11., 1., 2., 5., 1., 36., 31., 3., 1., 8., 3., 0., 8.,
          21., 0., 2., 9., 7., 0., 2., 0., 36., 3., 12., 3., 7., 5., 6.,
          10., 4. ]
      - [ 2., 2., 1., 4., 2., 1., 1., 0., 2., 1., 1., 1., 2., 0., 4., 0.,
          3., 3., 8., 0., 0., 4., 1., 0., 1., 3., 0., 1., 1., 1., 1., 2. ]
      - [ 3., 5., 1., 5., 11., 1., 5., 2., 13., 8., 4., 10., 6., 3., 8.,
          9., 6., 4., 13., 8., 7., 16., 3., 1., 2., 4., 2., 8., 9., 2.,
          4., 8. ]
      - [ 1., 2., 1., 2., 2., 3., 0., 4., 0., 0., 2., 3., 1., 2., 5., 0.,
          2., 3., 6., 10., 1., 4., 4., 1., 3., 1., 1., 1., 6., 0., 0.,
          4. ]
      - [ 2., 3., 4., 2., 1., 4., 0., 9., 3., 3., 4., 8., 3., 3., 6., 5.,
          1., 2., 6., 8., 1., 6., 6., 4., 2., 1., 1., 1., 6., 1., 3., 4. ]
      - [ 0., 1., 2., 1., 0., 3., 0., 2., 1., 0., 2., 2., 0., 2., 1., 1.,
          4., 5., 7., 1., 1., 0., 0., 0., 2., 0., 0., 2., 5., 1., 1., 3. ]
      - [ 1., 1., 4., 0., 2., 0., 3., 2., 3., 1., 0., 0., 1., 1., 1., 3.,
          0., 3., 7., 2., 1., 2., 1., 3., 0., 4., 1., 1., 4., 0., 7., 0. ]
      - [ 2., 1., 1., 0., 0., 2., 0., 5., 0., 1., 3., 5., 3., 1., 7., 3.,
          0., 1., 7., 6., 1., 4., 5., 1., 2., 0., 1., 1., 12., 0., 2.,
          0. ]
      - [ 5., 3., 7., 3., 4., 13., 6., 7., 8., 5., 6., 7., 2., 7., 7.,
          5., 5., 5., 9., 1., 4., 9., 3., 11., 7., 25., 5., 9., 12., 3.,
          7., 7. ]
      - [ 0., 4., 0., 1., 1., 2., 0., 0., 0., 0., 3., 3., 0., 0., 4., 0.,
          0., 0., 6., 3., 1., 1., 0., 0., 1., 0., 0., 2., 4., 0., 0., 4. ]
      - [ 4., 2., 4., 2., 1., 7., 3., 1., 5., 1., 6., 2., 6., 5., 4., 4.,
          2., 0., 10., 8., 2., 9., 2., 3., 0., 1., 2., 5., 7., 1., 3.,
          3. ]
      - [ 2., 1., 8., 0., 1., 0., 1., 2., 10., 1., 4., 1., 0., 1., 2.,
          3., 1., 3., 6., 8., 1., 12., 2., 2., 2., 8., 0., 2., 2., 0.,
          3., 2. ]
      - [ 0., 1., 0., 0., 1., 2., 0., 3., 0., 0., 2., 7., 1., 2., 5., 3.,
          1., 0., 7., 1., 1., 1., 3., 0., 5., 0., 2., 7., 10., 1., 2.,
          1. ]
      - [ 1., 3., 0., 1., 1., 0., 1., 0., 10., 0., 2., 3., 3., 0., 4.,
          4., 0., 2., 1., 0., 3., 5., 1., 1., 0., 1., 0., 0., 2., 0., 3.,
          3. ]
      - [ 0., 1., 0., 0., 1., 0., 0., 0., 0., 0., 0., 0., 0., 1., 3., 0.,
          0., 3., 6., 0., 0., 0., 0., 0., 1., 0., 1., 0., 0., 0., 0., 0. ]
      - [ 4., 4., 2., 1., 3., 1., 0., 0., 0., 0., 2., 6., 1., 0., 10.,
          1., 0., 2., 1., 7., 0., 3., 0., 0., 2., 0., 2., 2., 5., 0., 3.,
          1. ]
      - [ 1., 2., 1., 0., 0., 4., 20., 0., 7., 2., 2., 1., 10., 1., 1.,
          0., 2., 2., 3., 0., 8., 0., 0., 0., 4., 2., 2., 3., 1., 3., 4.,
          2. ]
      - [ 2., 1., 2., 0., 0., 3., 10., 13., 7., 3., 4., 5., 1., 1., 2.,
          5., 2., 11., 9., 4., 5., 1., 4., 6., 6., 9., 1., 5., 4., 3.,
          14., 2. ]
      - [ 5., 2., 9., 3., 2., 0., 2., 6., 0., 3., 3., 5., 3., 0., 4., 3.,
          1., 12., 9., 11., 3., 7., 3., 1., 1., 8., 0., 2., 9., 1., 7.,
          1. ]
      - [ 4., 3., 7., 8., 2., 6., 9., 3., 12., 10., 4., 8., 6., 4., 6.,
          6., 8., 9., 4., 6., 9., 4., 5., 6., 1., 10., 3., 4., 1., 5.,
          5., 3. ]
      - [ 2., 3., 7., 3., 3., 3., 4., 16., 8., 2., 2., 1., 8., 3., 2.,
          9., 0., 0., 11., 8., 5., 4., 1., 13., 1., 6., 7., 2., 3., 3.,
          7., 2. ]
      - [ 0., 1., 2., 1., 0., 3., 0., 8., 9., 0., 3., 3., 2., 0., 5., 3.,
          0., 5., 5., 11., 1., 4., 3., 4., 3., 13., 2., 3., 8., 1., 5.,
          3. ]
      - [ 3., 4., 1., 0., 0., 3., 0., 4., 1., 1., 5., 1., 3., 2., 5., 6.,
          3., 8., 11., 3., 1., 4., 4., 5., 2., 0., 3., 2., 6., 1., 4.,
          4. ]
      - [ 3., 0., 2., 1., 5., 2., 1., 4., 17., 5., 1., 2., 6., 1., 1.,
          6., 1., 1., 4., 9., 6., 6., 5., 4., 1., 4., 3., 3., 6., 4., 4.,
          1. ]
      - [ 4., 1., 7., 8., 4., 9., 8., 5., 8., 4., 2., 3., 2., 3., 5., 9.,
          4., 5., 9., 4., 3., 7., 3., 5., 0., 6., 2., 3., 12., 3., 8.,
          8. ]
      - [ 12., 4., 0., 9., 3., 14., 6., 4., 4., 6., 7., 2., 2., 1., 1.,
          5., 1., 1., 6., 8., 4., 6., 11., 5., 2., 3., 2., 2., 10., 4.,
          2., 13. ]
      - [ 2., 6., 0., 2., 0., 4., 2., 0., 5., 4., 4., 1., 6., 1., 2., 1.,
          4., 2., 8., 3., 4., 1., 0., 1., 3., 2., 3., 3., 5., 3., 0., 4. ]
      - [ 4., 3., 12., 8., 6., 3., 21., 9., 8., 9., 4., 5., 13., 4., 5.,
          14., 11., 10., 15., 24., 14., 19., 5., 6., 8., 9., 6., 10., 3.,
          7., 12., 5. ]
      - [ 0., 0., 0., 2., 5., 0., 1., 1., 1., 0., 1., 2., 0., 0., 0., 0.,
          0., 3., 3., 1., 0., 0., 0., 1., 0., 2., 0., 0., 1., 0., 2., 2. ]
      - [ 4., 2., 0., 3., 2., 2., 3., 2., 3., 2., 2., 6., 2., 1., 8., 1.,
          5., 7., 3., 2., 4., 3., 1., 3., 2., 3., 0., 3., 8., 1., 2., 3. ]
      - [ 1., 0., 0., 0., 1., 1., 4., 5., 5., 2., 4., 7., 4., 0., 1., 2.,
          5., 4., 4., 0., 11., 0., 2., 3., 2., 0., 1., 2., 1., 6., 2.,
          2. ]
      - [ 3., 3., 8., 1., 0., 2., 3., 1., 15., 4., 3., 3., 1., 3., 2.,
          12., 1., 2., 5., 12., 6., 8., 4., 7., 6., 5., 4., 4., 4., 3.,
          9., 2. ]
      - [ 1., 2., 3., 7., 0., 4., 0., 0., 1., 0., 2., 7., 0., 1., 7., 1.,
          0., 2., 3., 5., 0., 9., 1., 0., 1., 1., 3., 1., 7., 2., 0., 3. ]
      - [ 0., 1., 1., 1., 2., 1., 0., 2., 8., 3., 1., 2., 3., 1., 1., 5.,
          1., 1., 2., 4., 1., 2., 1., 3., 0., 3., 1., 0., 0., 0., 5., 0. ]
      - [ 1., 2., 5., 0., 5., 3., 0., 5., 0., 0., 3., 5., 0., 3., 4.,
          17., 0., 5., 22., 8., 1., 3., 1., 9., 4., 4., 5., 2., 13., 0.,
          5., 3. ]
      - [ 2., 2., 0., 2., 2., 2., 0., 3., 8., 1., 0., 5., 2., 0., 5., 0.,
          1., 1., 6., 2., 1., 2., 3., 1., 0., 1., 3., 2., 6., 0., 0., 0. ]
      - [ 8., 3., 10., 3., 4., 0., 0., 11., 9., 2., 5., 5., 5., 2., 6.,
          11., 6., 2., 9., 11., 1., 6., 4., 9., 3., 4., 0., 6., 7., 1.,
          11., 1. ]
      - [ 0., 4., 6., 4., 3., 5., 1., 0., 3., 2., 6., 1., 4., 2., 4., 4.,
          1., 4., 8., 4., 4., 2., 4., 1., 1., 7., 1., 0., 1., 0., 5., 7. ]
      - [ 1., 0., 1., 3., 0., 2., 2., 12., 14., 1., 1., 0., 4., 0., 0.,
          3., 2., 0., 9., 5., 4., 1., 1., 16., 0., 6., 1., 2., 0., 1.,
          10., 5. ]
      - [ 1., 1., 4., 1., 0., 0., 7., 2., 4., 8., 2., 4., 10., 2., 2.,
          3., 10., 2., 1., 4., 9., 2., 1., 8., 4., 10., 1., 7., 6., 4.,
          2., 1. ]
      - [ 5., 2., 1., 0., 3., 2., 3., 4., 14., 6., 4., 4., 5., 1., 3.,
          5., 2., 0., 11., 5., 4., 6., 3., 6., 0., 5., 3., 2., 5., 5.,
          9., 1. ]
      - [ 4., 4., 7., 3., 2., 8., 2., 8., 3., 2., 4., 9., 6., 4., 4., 9.,
          3., 6., 11., 12., 2., 7., 2., 5., 1., 1., 3., 4., 3., 2., 7.,
          1. ]
      - [ 2., 2., 1., 0., 1., 1., 0., 0., 2., 0., 8., 6., 1., 4., 5., 1.,
          3., 4., 9., 7., 1., 3., 6., 0., 4., 2., 4., 5., 7., 2., 1., 3. ]
      - [ 3., 1., 5., 5., 1., 2., 1., 1., 6., 2., 1., 1., 3., 0., 4., 0.,
          3., 0., 8., 9., 2., 8., 2., 7., 0., 4., 2., 0., 12., 4., 3.,
          3. ]
      - [ 5., 5., 1., 2., 4., 4., 2., 7., 13., 1., 3., 6., 2., 3., 4.,
          14., 1., 1., 12., 4., 2., 1., 4., 13., 5., 2., 5., 2., 9., 1.,
          6., 5. ]
      - [ 1., 1., 1., 1., 1., 3., 4., 3., 10., 0., 2., 2., 6., 1., 2.,
          2., 3., 2., 7., 1., 2., 6., 2., 7., 3., 4., 0., 3., 8., 0., 1.,
          3. ]
      - [ 1., 3., 4., 0., 1., 0., 1., 9., 4., 3., 3., 7., 5., 1., 1., 6.,
          1., 4., 12., 5., 5., 3., 4., 4., 2., 7., 1., 1., 4., 4., 5.,
          2. ]
      - [ 2., 1., 3., 0., 0., 1., 0., 1., 1., 0., 1., 2., 2., 0., 4., 0.,
          1., 0., 4., 1., 1., 0., 0., 1., 1., 0., 0., 5., 3., 2., 1., 1. ]
      - [ 0., 1., 0., 2., 3., 1., 4., 0., 5., 0., 1., 4., 3., 2., 3., 0.,
          0., 3., 0., 4., 2., 1., 1., 1., 1., 1., 0., 1., 0., 1., 1., 0. ]
      - [ 0., 0., 3., 1., 1., 0., 0., 3., 1., 0., 0., 3., 3., 3., 1., 4.,
          0., 5., 4., 1., 1., 2., 2., 4., 5., 5., 2., 1., 0., 2., 3., 0. ]
      - [ 1., 2., 0., 1., 0., 2., 5., 4., 1., 0., 1., 2., 1., 0., 2., 1.,
          1., 1., 31., 0., 0., 4., 1., 2., 4., 0., 0., 2., 17., 2., 2.,
          2. ]
      - [ 0., 2., 0., 0., 0., 1., 2., 7., 4., 2., 3., 1., 4., 2., 2., 1.,
          3., 1., 5., 0., 3., 1., 2., 3., 1., 0., 2., 3., 3., 1., 1., 1. ]
      - [ 0., 0., 1., 0., 1., 0., 0., 9., 5., 0., 0., 5., 1., 0., 1., 4.,
          0., 4., 11., 4., 1., 3., 0., 9., 2., 2., 1., 2., 4., 0., 0.,
          0. ]
      - [ 5., 3., 2., 5., 5., 2., 0., 1., 1., 0., 3., 6., 2., 2., 5., 0.,
          2., 6., 2., 6., 3., 3., 0., 0., 4., 0., 3., 3., 6., 1., 0., 5. ]
      - [ 5., 1., 2., 0., 2., 2., 7., 0., 0., 1., 5., 1., 1., 3., 2., 2.,
          3., 0., 7., 4., 1., 3., 7., 0., 3., 0., 1., 2., 2., 1., 1., 2. ]
      - [ 1., 4., 1., 0., 1., 2., 0., 1., 0., 0., 2., 0., 1., 1., 2., 1.,
          0., 1., 7., 3., 2., 0., 4., 0., 0., 1., 2., 1., 2., 1., 2., 2. ]
      - [ 1., 1., 1., 0., 1., 0., 1., 6., 11., 1., 1., 7., 1., 5., 12.,
          1., 1., 6., 12., 6., 3., 1., 1., 2., 3., 2., 4., 1., 5., 3.,
          2., 0. ]
      - [ 9., 3., 3., 2., 7., 6., 5., 10., 8., 4., 4., 11., 15., 9., 7.,
          2., 8., 16., 2., 3., 8., 4., 3., 7., 15., 0., 5., 9., 5., 9.,
          6., 8. ]
      - [ 1., 1., 0., 2., 0., 1., 1., 4., 3., 4., 1., 0., 2., 0., 0., 1.,
          2., 0., 3., 1., 0., 0., 0., 0., 0., 1., 0., 0., 1., 1., 2., 2. ]
      - [ 2., 1., 1., 1., 1., 0., 0., 0., 0., 1., 1., 5., 0., 0., 4., 0.,
          0., 3., 6., 1., 0., 0., 3., 4., 5., 1., 0., 3., 4., 0., 0., 0. ]
      - [ 9., 5., 7., 7., 6., 7., 0., 18., 10., 3., 9., 17., 8., 3., 10.,
          13., 2., 10., 20., 8., 5., 9., 10., 10., 5., 10., 9., 6., 23.,
          3., 11., 10. ]
      - [ 1., 0., 0., 1., 0., 2., 1., 1., 6., 0., 4., 1., 0., 1., 3., 0.,
          0., 1., 4., 1., 0., 2., 7., 0., 3., 1., 0., 0., 3., 1., 3., 0. ]
      - [ 1., 3., 1., 0., 7., 4., 0., 2., 0., 0., 6., 7., 0., 1., 5., 2.,
          0., 5., 9., 2., 0., 1., 4., 0., 2., 2., 5., 4., 6., 0., 1., 4. ]
      - [ 2., 1., 3., 0., 4., 1., 0., 5., 10., 2., 2., 7., 1., 4., 2.,
          17., 2., 8., 12., 0., 1., 3., 1., 16., 2., 1., 3., 5., 11., 1.,
          10., 3. ]
      - [ 4., 1., 1., 2., 2., 3., 0., 3., 8., 3., 1., 4., 0., 1., 1., 0.,
          0., 5., 1., 5., 3., 1., 2., 1., 1., 1., 0., 2., 3., 2., 0., 1. ]
      - [ 2., 2., 9., 5., 1., 2., 1., 4., 0., 2., 2., 1., 0., 1., 1., 3.,
          0., 5., 4., 5., 2., 1., 3., 3., 0., 5., 1., 2., 12., 3., 3.,
          2. ]
      - [ 1., 2., 1., 3., 1., 2., 2., 2., 9., 2., 1., 3., 5., 0., 3., 2.,
          1., 1., 2., 6., 5., 11., 0., 1., 0., 8., 0., 0., 1., 0., 4.,
          2. ]
      - [ 0., 5., 0., 0., 4., 6., 0., 4., 0., 4., 6., 9., 1., 4., 10.,
          0., 2., 4., 4., 3., 1., 2., 4., 0., 5., 0., 0., 1., 4., 0., 2.,
          7. ]
      - [ 13., 8., 6., 6., 6., 4., 5., 12., 11., 7., 7., 8., 10., 7., 7.,
          9., 6., 5., 15., 5., 16., 2., 8., 6., 2., 9., 2., 3., 5., 5.,
          10., 11. ]
      - [ 4., 5., 2., 1., 5., 3., 10., 5., 0., 2., 3., 6., 2., 1., 3.,
          0., 3., 7., 8., 3., 5., 3., 4., 2., 2., 5., 3., 3., 5., 9., 3.,
          5. ]
      - [ 3., 9., 4., 1., 5., 9., 7., 3., 7., 2., 10., 7., 6., 2., 11.,
          8., 7., 7., 9., 5., 4., 9., 10., 9., 4., 9., 7., 4., 10., 3.,
          5., 6. ]
   decision_functions:
      -
         sv_count: 94
         rho: -4.3333333333333335e-01
         alpha: [ 5.6666666269302368e-01, 5.6666666269302368e-01,
             5.6666666269302368e-01, 5.6666666269302368e-01,
             5.6666666269302368e-01, 5.6666666269302368e-01,
             5.6666666269302368e-01, 5.6666666269302368e-01,
             5.6666666269302368e-01, 5.6666666269302368e-01,
             5.6666666269302368e-01, 5.6666666269302368e-01,
             5.6666666269302368e-01, 5.6666666269302368e-01,
             5.6666666269302368e-01, 5.6666666269302368e-01,
             5.6666666269302368e-01, 5.6666666269302368e-01,
             5.6666666269302368e-01, 5.6666666269302368e-01,
             5.6666666269302368e-01, 5.6666666269302368e-01,
             5.6666666269302368e-01, 5.6666666269302368e-01,
             5.6666666269302368e-01, 5.6666666269302368e-01,
             5.6666666269302368e-01, 5.6666666269302368e-01,
             5.6666666269302368e-01, 5.6666666269302368e-01,
             5.6666672229766846e-01, 5.6666672229766846e-01,
             5.6666672229766846e-01, 5.6666672229766846e-01,
             5.6666666269302368e-01, 5.6666666269302368e-01,
             5.6666666269302368e-01, 5.6666666269302368e-01,
             5.6666666269302368e-01, 5.6666666269302368e-01,
             5.6666666269302368e-01, 5.6666666269302368e-01,
             5.6666666269302368e-01, 5.6666666269302368e-01,
             5.6666666269302368e-01, 5.6666666269302368e-01,
             5.6666666269302368e-01, 5.6666666269302368e-01,
             5.6666666269302368e-01, 5.6666666269302368e-01,
             5.6666666269302368e-01, 5.6666666269302368e-01,
             5.6666666269302368e-01, 5.6666666269302368e-01,
             5.6666666269302368e-01, 5.6666666269302368e-01,
             5.6666666269302368e-01, 5.6666666269302368e-01,
             5.6666666269302368e-01, 5.6666666269302368e-01, -1., -1.,
             -1., -1., -1., -1., -1., -1., -1., -1., -1., -1., -1., -1.,
             -1., -1., -1., -1., -1., -1., -1., -1., -1., -1., -1., -1.,
             -1., -1., -1., -1., -1., -1., -1., -1. ]
         index: [ 46, 31, 32, 33, 34, 35, 36, 37, 38, 39, 40, 41, 42, 43,
             44, 45, 1, 47, 48, 49, 50, 51, 52, 53, 54, 55, 56, 57, 58,
             59, 0, 29, 2, 3, 4, 5, 6, 7, 8, 9, 10, 11, 12, 13, 14, 15,
             17, 16, 30, 28, 27, 26, 25, 24, 23, 22, 21, 20, 19, 18, 78,
             79, 80, 81, 82, 83, 84, 85, 86, 87, 88, 89, 90, 91, 92, 93,
             64, 76, 77, 61, 62, 63, 60, 65, 66, 67, 68, 69, 70, 71, 72,
             73, 74, 75 ]
      -
         sv_count: 75
         rho: -7.5000000000000000e-01
         alpha: [ 2.5000000000000000e-01, 2.5000000000000000e-01,
             2.5000000000000000e-01, 2.5000000000000000e-01,
             2.5000000000000000e-01, 2.5000000000000000e-01,
             2.5000000000000000e-01, 2.5000000000000000e-01,
             2.5000000000000000e-01, 2.5000000000000000e-01,
             2.5000000000000000e-01, 2.5000000000000000e-01,
             2.5000000000000000e-01, 2.5000000000000000e-01,
             2.5000000000000000e-01, 2.5000000000000000e-01,
             2.5000000000000000e-01, 2.5000000000000000e-01,
             2.5000000000000000e-01, 2.5000000000000000e-01,
             2.5000000000000000e-01, 2.5000000000000000e-01,
             2.5000000000000000e-01, 2.5000000000000000e-01,
             2.5000000000000000e-01, 2.5000000000000000e-01,
             2.5000000000000000e-01, 2.5000000000000000e-01,
             2.5000000000000000e-01, 2.5000000000000000e-01,
             2.5000000000000000e-01, 2.5000000000000000e-01,
             2.5000000000000000e-01, 2.5000000000000000e-01,
             2.5000000000000000e-01, 2.5000000000000000e-01,
             2.5000000000000000e-01, 2.5000000000000000e-01,
             2.5000000000000000e-01, 2.5000000000000000e-01,
             2.5000000000000000e-01, 2.5000000000000000e-01,
             2.5000000000000000e-01, 2.5000000000000000e-01,
             2.5000000000000000e-01, 2.5000000000000000e-01,
             2.5000000000000000e-01, 2.5000000000000000e-01,
             2.5000000000000000e-01, 2.5000000000000000e-01,
             2.5000000000000000e-01, 2.5000000000000000e-01,
             2.5000000000000000e-01, 2.5000000000000000e-01,
             2.5000000000000000e-01, 2.5000000000000000e-01,
             2.5000000000000000e-01, 2.5000000000000000e-01,
             2.5000000000000000e-01, 2.5000000000000000e-01, -1., -1.,
             -1., -1., -1., -1., -1., -1., -1., -1., -1., -1., -1., -1.,
             -1. ]
         index: [ 46, 31, 32, 33, 34, 35, 36, 37, 38, 39, 40, 41, 42, 43,
             44, 45, 1, 47, 48, 49, 50, 51, 52, 53, 54, 55, 56, 57, 58,
             59, 0, 29, 2, 3, 4, 5, 6, 7, 8, 9, 10, 11, 12, 13, 14, 15,
             17, 16, 30, 28, 27, 26, 25, 24, 23, 22, 21, 20, 19, 18, 108,
             107, 106, 105, 104, 103, 102, 100, 99, 98, 97, 96, 95, 94,
             101 ]
      -
         sv_count: 100
         rho: -3.3333333333333331e-01
         alpha: [ 6.6666668653488159e-01, 6.6666668653488159e-01,
             6.6666668653488159e-01, 6.6666668653488159e-01,
             6.6666668653488159e-01, 6.6666668653488159e-01,
             6.6666668653488159e-01, 6.6666668653488159e-01,
             6.6666668653488159e-01, 6.6666668653488159e-01,
             6.6666668653488159e-01, 6.6666668653488159e-01,
             6.6666668653488159e-01, 6.6666668653488159e-01,
             6.6666668653488159e-01, 6.6666668653488159e-01,
             6.6666668653488159e-01, 6.6666668653488159e-01,
             6.6666668653488159e-01, 6.6666668653488159e-01,
             6.6666668653488159e-01, 6.6666668653488159e-01,
             6.6666668653488159e-01, 6.6666668653488159e-01,
             6.6666668653488159e-01, 6.6666668653488159e-01,
             6.6666668653488159e-01, 6.6666668653488159e-01,
             6.6666668653488159e-01, 6.6666668653488159e-01,
             6.6666668653488159e-01, 6.6666668653488159e-01,
             6.6666668653488159e-01, 6.6666668653488159e-01,
             6.6666668653488159e-01, 6.6666668653488159e-01,
             6.6666668653488159e-01, 6.6666668653488159e-01,
             6.6666668653488159e-01, 6.6666668653488159e-01,
             6.6666662693023682e-01, 6.6666662693023682e-01,
             6.6666662693023682e-01, 6.6666662693023682e-01,
             6.6666662693023682e-01, 6.6666662693023682e-01,
             6.6666662693023682e-01, 6.6666662693023682e-01,
             6.6666662693023682e-01, 6.6666662693023682e-01,
             6.6666662693023682e-01, 6.6666662693023682e-01,
             6.6666662693023682e-01, 6.6666662693023682e-01,
             6.6666662693023682e-01, 6.6666662693023682e-01,
             6.6666662693023682e-01, 6.6666662693023682e-01,
             6.6666662693023682e-01, 6.6666662693023682e-01, -1., -1.,
             -1., -1., -1., -1., -1., -1., -1., -1., -1., -1., -1., -1.,
             -1., -1., -1., -1., -1., -1., -1., -1., -1., -1., -1., -1.,
             -1., -1., -1., -1., -1., -1., -1., -1., -1., -1., -1., -1.,
             -1., -1. ]
         index: [ 46, 31, 32, 33, 34, 35, 36, 37, 38, 39, 40, 41, 42, 43,
             44, 45, 1, 47, 48, 49, 50, 51, 52, 53, 54, 55, 56, 57, 58,
             59, 0, 29, 2, 3, 4, 5, 6, 7, 8, 9, 10, 11, 12, 13, 14, 15,
             17, 16, 30, 28, 27, 26, 25, 24, 23, 22, 21, 20, 19, 18, 139,
             130, 138, 137, 136, 135, 134, 133, 132, 131, 140, 141, 142,
             143, 144, 145, 146, 147, 148, 118, 128, 129, 110, 111, 112,
             113, 114, 115, 116, 117, 109, 120, 121, 122, 123, 124, 125,
             126, 127, 119 ]
      -
         sv_count: 110
         rho: -1.6666666666666666e-01
         alpha: [ 8.3333331346511841e-01, 8.3333331346511841e-01,
             8.3333331346511841e-01, 8.3333331346511841e-01,
             8.3333331346511841e-01, 8.3333331346511841e-01,
             8.3333331346511841e-01, 8.3333331346511841e-01,
             8.3333331346511841e-01, 8.3333331346511841e-01,
             8.3333331346511841e-01, 8.3333331346511841e-01,
             8.3333331346511841e-01, 8.3333331346511841e-01,
             8.3333331346511841e-01, 8.3333331346511841e-01,
             8.3333331346511841e-01, 8.3333331346511841e-01,
             8.3333331346511841e-01, 8.3333331346511841e-01,
             8.3333331346511841e-01, 8.3333337306976318e-01,
             8.3333337306976318e-01, 8.3333337306976318e-01,
             8.3333337306976318e-01, 8.3333337306976318e-01,
             8.3333337306976318e-01, 8.3333337306976318e-01,
             8.3333337306976318e-01, 8.3333337306976318e-01,
             8.3333331346511841e-01, 8.3333331346511841e-01,
             8.3333331346511841e-01, 8.3333331346511841e-01,
             8.3333331346511841e-01, 8.3333331346511841e-01,
             8.3333331346511841e-01, 8.3333331346511841e-01,
             8.3333331346511841e-01, 8.3333331346511841e-01,
             8.3333331346511841e-01, 8.3333331346511841e-01,
             8.3333331346511841e-01, 8.3333331346511841e-01,
             8.3333331346511841e-01, 8.3333337306976318e-01,
             8.3333337306976318e-01, 8.3333337306976318e-01,
             8.3333337306976318e-01, 8.3333337306976318e-01,
             8.3333337306976318e-01, 8.3333337306976318e-01,
             8.3333337306976318e-01, 8.3333337306976318e-01,
             8.3333337306976318e-01, 8.3333337306976318e-01,
             8.3333331346511841e-01, 8.3333331346511841e-01,
             8.3333331346511841e-01, 8.3333331346511841e-01, -1., -1.,
             -1., -1., -1., -1., -1., -1., -1., -1., -1., -1., -1., -1.,
             -1., -1., -1., -1., -1., -1., -1., -1., -1., -1., -1., -1.,
             -1., -1., -1., -1., -1., -1., -1., -1., -1., -1., -1., -1.,
             -1., -1., -1., -1., -1., -1., -1., -1., -1., -1., -1., -1. ]
         index: [ 46, 31, 32, 33, 34, 35, 36, 37, 38, 39, 40, 41, 42, 43,
             44, 45, 1, 47, 48, 49, 50, 51, 52, 53, 54, 55, 56, 57, 58,
             59, 0, 29, 2, 3, 4, 5, 6, 7, 8, 9, 10, 11, 12, 13, 14, 15,
             17, 16, 30, 28, 27, 26, 25, 24, 23, 22, 21, 20, 19, 18, 185,
             184, 183, 174, 181, 180, 179, 178, 177, 176, 175, 182, 186,
             187, 188, 189, 190, 191, 192, 193, 194, 195, 196, 197, 198,
             172, 173, 149, 150, 151, 152, 153, 154, 155, 156, 157, 158,
             159, 161, 171, 170, 169, 168, 167, 166, 165, 164, 163, 162,
             160 ]
      -
         sv_count: 75
         rho: -7.5000000000000000e-01
         alpha: [ 2.5000000000000000e-01, 2.5000000000000000e-01,
             2.5000000000000000e-01, 2.5000000000000000e-01,
             2.5000000000000000e-01, 2.5000000000000000e-01,
             2.5000000000000000e-01, 2.5000000000000000e-01,
             2.5000000000000000e-01, 2.5000000000000000e-01,
             2.5000000000000000e-01, 2.5000000000000000e-01,
             2.5000000000000000e-01, 2.5000000000000000e-01,
             2.5000000000000000e-01, 2.5000000000000000e-01,
             2.5000000000000000e-01, 2.5000000000000000e-01,
             2.5000000000000000e-01, 2.5000000000000000e-01,
             2.5000000000000000e-01, 2.5000000000000000e-01,
             2.5000000000000000e-01, 2.5000000000000000e-01,
             2.5000000000000000e-01, 2.5000000000000000e-01,
             2.5000000000000000e-01, 2.5000000000000000e-01,
             2.5000000000000000e-01, 2.5000000000000000e-01,
             2.5000000000000000e-01, 2.5000000000000000e-01,
             2.5000000000000000e-01, 2.5000000000000000e-01,
             2.5000000000000000e-01, 2.5000000000000000e-01,
             2.5000000000000000e-01, 2.5000000000000000e-01,
             2.5000000000000000e-01, 2.5000000000000000e-01,
             2.5000000000000000e-01, 2.5000000000000000e-01,
             2.5000000000000000e-01, 2.5000000000000000e-01,
             2.5000000000000000e-01, 2.5000000000000000e-01,
             2.5000000000000000e-01, 2.5000000000000000e-01,
             2.5000000000000000e-01, 2.5000000000000000e-01,
             2.5000000000000000e-01, 2.5000000000000000e-01,
             2.5000000000000000e-01, 2.5000000000000000e-01,
             2.5000000000000000e-01, 2.5000000000000000e-01,
             2.5000000000000000e-01, 2.5000000000000000e-01,
             2.5000000000000000e-01, 2.5000000000000000e-01, -1., -1.,
             -1., -1., -1., -1., -1., -1., -1., -1., -1., -1., -1., -1.,
             -1. ]
         index: [ 46, 31, 32, 33, 34, 35, 36, 37, 38, 39, 40, 41, 42, 43,
             44, 45, 1, 47, 48, 49, 50, 51, 52, 53, 54, 55, 56, 57, 58,
             59, 0, 29, 2, 3, 4, 5, 6, 7, 8, 9, 10, 11, 12, 13, 14, 15,
             17, 16, 30, 28, 27, 26, 25, 24, 23, 22, 21, 20, 19, 18, 213,
             212, 211, 210, 209, 208, 205, 207, 204, 203, 202, 201, 200,
             199, 206 ]
      -
         sv_count: 105
         rho: -2.6229508196721313e-01
         alpha: [ 7.3770493268966675e-01, 7.3770493268966675e-01,
             7.3770493268966675e-01, 7.3770493268966675e-01,
             7.3770493268966675e-01, 7.3770493268966675e-01,
             7.3770493268966675e-01, 7.3770493268966675e-01,
             7.3770493268966675e-01, 7.3770493268966675e-01,
             7.3770493268966675e-01, 7.3770493268966675e-01,
             7.3770493268966675e-01, 7.3770493268966675e-01,
             7.3770493268966675e-01, 7.3770493268966675e-01,
             7.3770493268966675e-01, 7.3770493268966675e-01,
             7.3770493268966675e-01, 7.3770493268966675e-01,
             7.3770493268966675e-01, 7.3770493268966675e-01,
             7.3770493268966675e-01, 7.3770493268966675e-01,
             7.3770493268966675e-01, 7.3770487308502197e-01,
             7.3770487308502197e-01, 7.3770487308502197e-01,
             7.3770487308502197e-01, 7.3770487308502197e-01,
             7.3770487308502197e-01, 7.3770487308502197e-01,
             7.3770487308502197e-01, 7.3770487308502197e-01,
             7.3770487308502197e-01, 7.3770493268966675e-01,
             7.3770493268966675e-01, 7.3770493268966675e-01,
             7.3770493268966675e-01, 7.3770493268966675e-01,
             7.3770493268966675e-01, 7.3770493268966675e-01,
             7.3770493268966675e-01, 7.3770493268966675e-01,
             7.3770493268966675e-01, 7.3770493268966675e-01,
             7.3770493268966675e-01, 7.3770493268966675e-01,
             7.3770493268966675e-01, 7.3770487308502197e-01,
             7.3770487308502197e-01, 7.3770493268966675e-01,
             7.3770493268966675e-01, 7.3770493268966675e-01,
             7.3770493268966675e-01, 7.3770493268966675e-01,
             7.3770493268966675e-01, 7.3770487308502197e-01,
             7.3770487308502197e-01, 7.3770487308502197e-01, -1., -1.,
             -1., -1., -1., -1., -1., -1., -1., -1., -1., -1., -1., -1.,
             -1., -1., -1., -1., -1., -1., -1., -1., -1., -1., -1.,
             -2.6229506731033325e-01, -1., -1., -1., -1., -1., -1., -1.,
             -1., -1., -1., -1., -1., -1., -1., -1., -1., -1., -1., -1. ]
         index: [ 46, 31, 32, 33, 34, 35, 36, 37, 38, 39, 40, 41, 42, 43,
             44, 45, 1, 47, 48, 49, 50, 51, 52, 53, 54, 55, 56, 57, 58,
             59, 0, 29, 2, 3, 4, 5, 6, 7, 8, 9, 10, 11, 12, 13, 14, 15,
             17, 16, 30, 28, 27, 26, 25, 24, 23, 22, 21, 20, 19, 18, 247,
