%YAML:1.0
---
opencv_ml_svm:
   format: 3
   svmType: C_SVC
   kernel:
      type: RBF
      gamma: 1.
   C: 1.
   term_criteria: { epsilon:1.1920928955078125e-07, iterations:1000 }
   var_count: 16
   class_count: 16
   class_labels: !!opencv-matrix
      rows: 16
      cols: 1
      dt: i
      data: [ 0, 1, 2, 3, 4, 5, 6, 7, 8, 9, 10, 11, 12, 13, 14, 15 ]
   sv_total: 671
   support_vectors:
      - [ 7., 5., 12., 8., 13., 20., 23., 8., 8., 8., 16., 18., 7., 4.,
          12., 8. ]
      - [ 17., 34., 16., 17., 13., 14., 23., 11., 33., 24., 12., 9., 12.,
          8., 44., 25. ]
      - [ 11., 15., 32., 16., 16., 19., 21., 26., 24., 16., 18., 22.,
          12., 9., 16., 24. ]
      - [ 8., 31., 13., 25., 4., 20., 11., 12., 18., 24., 6., 11., 11.,
          25., 26., 3. ]
      - [ 8., 8., 10., 15., 16., 10., 24., 21., 24., 12., 17., 36., 15.,
          18., 24., 17. ]
      - [ 27., 52., 16., 12., 22., 14., 14., 22., 42., 15., 26., 5., 9.,
          3., 20., 35. ]
      - [ 28., 15., 26., 31., 21., 13., 17., 25., 33., 24., 12., 12.,
          14., 9., 40., 26. ]
      - [ 24., 80., 30., 13., 11., 13., 13., 26., 39., 21., 26., 34., 5.,
          13., 15., 28. ]
      - [ 9., 5., 19., 10., 3., 8., 18., 10., 37., 15., 11., 8., 25.,
          14., 29., 31. ]
      - [ 36., 41., 23., 9., 32., 9., 22., 21., 36., 20., 17., 6., 8.,
          1., 24., 50. ]
      - [ 15., 27., 25., 22., 19., 12., 17., 14., 29., 14., 27., 12.,
          13., 7., 37., 23. ]
      - [ 17., 8., 18., 27., 9., 24., 16., 29., 17., 20., 32., 33., 12.,
          15., 27., 19. ]
      - [ 32., 5., 8., 21., 28., 5., 17., 28., 18., 26., 37., 30., 23.,
          25., 24., 29. ]
      - [ 38., 47., 19., 3., 44., 5., 6., 18., 57., 7., 15., 2., 4., 2.,
          22., 62. ]
      - [ 26., 31., 12., 17., 36., 6., 13., 28., 50., 17., 22., 9., 8.,
          7., 18., 23. ]
      - [ 8., 9., 35., 21., 12., 18., 18., 22., 9., 12., 11., 44., 28.,
          18., 14., 7. ]
      - [ 40., 24., 19., 33., 44., 18., 30., 15., 26., 30., 26., 35.,
          21., 10., 12., 29. ]
      - [ 11., 21., 35., 11., 12., 34., 12., 24., 41., 13., 14., 17.,
          19., 10., 20., 26. ]
      - [ 14., 21., 21., 35., 16., 13., 21., 11., 18., 18., 24., 34.,
          64., 29., 6., 4. ]
      - [ 24., 28., 18., 38., 20., 14., 14., 22., 28., 22., 23., 33.,
          20., 11., 20., 25. ]
      - [ 17., 38., 10., 22., 20., 11., 31., 18., 39., 18., 34., 21.,
          14., 1., 21., 34. ]
      - [ 14., 38., 20., 18., 12., 69., 50., 21., 13., 26., 9., 20., 23.,
          9., 26., 7. ]
      - [ 12., 28., 23., 12., 9., 12., 12., 17., 41., 12., 12., 11., 11.,
          3., 15., 24. ]
      - [ 27., 31., 11., 5., 19., 12., 9., 26., 43., 14., 25., 17., 14.,
          11., 35., 32. ]
      - [ 37., 35., 36., 18., 20., 24., 30., 29., 47., 31., 18., 15.,
          26., 2., 20., 26. ]
      - [ 11., 7., 47., 7., 0., 85., 15., 7., 12., 28., 5., 17., 20., 3.,
          32., 0. ]
      - [ 15., 27., 27., 24., 42., 14., 21., 43., 21., 35., 20., 31.,
          22., 34., 29., 18. ]
      - [ 6., 15., 14., 24., 25., 7., 13., 8., 25., 26., 13., 25., 5.,
          5., 21., 27. ]
      - [ 26., 60., 20., 9., 41., 5., 13., 22., 54., 12., 21., 1., 4.,
          6., 25., 56. ]
      - [ 23., 24., 16., 11., 17., 44., 13., 12., 38., 19., 19., 23.,
          10., 13., 13., 27. ]
      - [ 22., 41., 13., 13., 17., 26., 14., 14., 46., 18., 32., 6., 5.,
          3., 29., 30. ]
      - [ 19., 16., 31., 33., 9., 8., 9., 19., 2., 19., 14., 24., 44.,
          28., 15., 14. ]
      - [ 13., 15., 22., 34., 17., 10., 12., 19., 10., 17., 19., 21.,
          38., 19., 20., 9. ]
      - [ 20., 47., 13., 44., 18., 16., 32., 22., 35., 34., 23., 21.,
          34., 10., 12., 26. ]
      - [ 10., 4., 27., 33., 8., 40., 24., 11., 24., 53., 6., 40., 32.,
          9., 34., 10. ]
      - [ 15., 16., 11., 17., 12., 1., 31., 14., 42., 7., 7., 7., 15.,
          7., 6., 19. ]
      - [ 22., 38., 57., 12., 20., 19., 31., 15., 30., 13., 7., 10., 12.,
          19., 30., 25. ]
      - [ 21., 13., 20., 25., 27., 22., 21., 20., 10., 18., 30., 39.,
          29., 17., 23., 13. ]
      - [ 16., 57., 23., 18., 25., 6., 25., 11., 47., 15., 14., 14., 13.,
          19., 20., 40. ]
      - [ 5., 8., 16., 21., 23., 28., 16., 28., 15., 23., 7., 26., 28.,
          14., 46., 5. ]
      - [ 13., 25., 13., 13., 9., 14., 25., 12., 27., 32., 16., 27., 16.,
          4., 34., 31. ]
      - [ 14., 18., 18., 10., 17., 17., 21., 14., 31., 18., 17., 35.,
          18., 18., 21., 24. ]
      - [ 15., 29., 41., 27., 16., 8., 23., 20., 17., 25., 21., 20., 8.,
          9., 21., 7. ]
      - [ 29., 49., 11., 8., 23., 10., 18., 16., 91., 16., 24., 20., 14.,
          6., 17., 46. ]
      - [ 5., 15., 10., 32., 23., 48., 38., 17., 20., 28., 15., 26., 15.,
          20., 13., 16. ]
      - [ 35., 32., 2., 18., 27., 7., 8., 13., 80., 11., 22., 7., 9., 4.,
          20., 67. ]
      - [ 20., 21., 30., 21., 33., 12., 11., 16., 35., 13., 23., 24.,
          12., 27., 26., 11. ]
      - [ 50., 51., 14., 27., 30., 13., 23., 26., 25., 25., 13., 14., 8.,
          12., 25., 23. ]
      - [ 12., 10., 12., 10., 17., 7., 8., 11., 9., 27., 25., 45., 16.,
          14., 16., 8. ]
      - [ 24., 9., 16., 20., 32., 11., 31., 16., 14., 26., 15., 12., 16.,
          14., 28., 12. ]
      - [ 32., 13., 22., 18., 21., 8., 16., 26., 11., 22., 22., 31., 27.,
          33., 22., 3. ]
      - [ 18., 24., 46., 18., 6., 31., 23., 16., 18., 29., 18., 10., 35.,
          12., 42., 16. ]
      - [ 20., 24., 26., 14., 17., 13., 26., 16., 69., 10., 21., 18., 3.,
          2., 10., 57. ]
      - [ 16., 23., 21., 21., 10., 62., 33., 14., 13., 37., 24., 27.,
          33., 20., 35., 6. ]
      - [ 14., 17., 32., 26., 18., 8., 22., 15., 10., 16., 21., 15., 13.,
          26., 11., 14. ]
      - [ 9., 40., 21., 14., 11., 45., 24., 22., 17., 16., 9., 16., 17.,
          5., 22., 4. ]
      - [ 32., 43., 27., 9., 27., 16., 11., 11., 36., 15., 29., 27., 6.,
          9., 28., 36. ]
      - [ 14., 23., 20., 16., 19., 22., 25., 22., 12., 16., 16., 17., 8.,
          30., 24., 12. ]
      - [ 4., 2., 13., 13., 12., 16., 16., 10., 7., 10., 6., 47., 22.,
          12., 12., 5. ]
      - [ 22., 31., 15., 33., 5., 8., 19., 15., 21., 24., 18., 11., 30.,
          13., 18., 20. ]
      - [ 2., 5., 16., 25., 12., 36., 24., 15., 8., 14., 6., 10., 28.,
          15., 12., 2. ]
      - [ 1., 7., 29., 18., 2., 16., 14., 19., 3., 17., 10., 7., 49.,
          28., 24., 0. ]
      - [ 2., 4., 18., 16., 1., 10., 8., 21., 0., 12., 8., 7., 44., 34.,
          12., 1. ]
      - [ 5., 10., 11., 20., 3., 18., 9., 23., 10., 15., 20., 18., 54.,
          71., 16., 10. ]
      - [ 14., 22., 11., 16., 19., 2., 6., 13., 18., 29., 17., 10., 8.,
          8., 19., 13. ]
      - [ 13., 25., 30., 18., 16., 8., 13., 26., 28., 16., 25., 30., 27.,
          36., 14., 11. ]
      - [ 28., 45., 19., 14., 19., 5., 9., 24., 42., 17., 20., 22., 7.,
          10., 12., 30. ]
      - [ 24., 21., 24., 23., 16., 22., 25., 29., 14., 16., 30., 18.,
          41., 33., 17., 13. ]
      - [ 20., 19., 33., 14., 12., 30., 10., 19., 27., 9., 12., 22., 15.,
          4., 12., 10. ]
      - [ 6., 23., 14., 27., 14., 17., 13., 30., 49., 18., 18., 24., 8.,
          12., 8., 29. ]
      - [ 11., 5., 7., 21., 25., 16., 10., 24., 21., 14., 27., 28., 41.,
          29., 9., 29. ]
      - [ 11., 15., 35., 30., 3., 67., 31., 25., 14., 26., 15., 7., 14.,
          17., 28., 12. ]
      - [ 27., 22., 18., 37., 33., 3., 15., 26., 20., 21., 12., 29., 29.,
          20., 32., 24. ]
      - [ 27., 12., 18., 31., 25., 3., 13., 21., 7., 30., 18., 33., 43.,
          43., 28., 24. ]
      - [ 11., 25., 22., 55., 23., 24., 25., 24., 16., 21., 16., 18.,
          64., 25., 19., 12. ]
      - [ 10., 27., 22., 18., 15., 15., 3., 22., 37., 18., 10., 17., 41.,
          16., 10., 16. ]
      - [ 20., 18., 19., 14., 29., 5., 19., 19., 35., 28., 19., 16., 16.,
          14., 27., 36. ]
      - [ 25., 30., 22., 34., 32., 9., 42., 31., 32., 17., 29., 19., 28.,
          23., 15., 32. ]
      - [ 9., 18., 17., 37., 7., 5., 8., 28., 24., 8., 19., 25., 58.,
          19., 9., 17. ]
      - [ 9., 10., 8., 51., 24., 3., 9., 13., 2., 29., 21., 30., 46.,
          64., 17., 7. ]
      - [ 15., 41., 35., 26., 10., 20., 16., 45., 26., 25., 19., 13.,
          44., 16., 29., 21. ]
      - [ 12., 12., 20., 18., 14., 6., 12., 22., 11., 22., 29., 14., 29.,
          20., 17., 12. ]
      - [ 27., 23., 14., 33., 18., 6., 20., 20., 8., 11., 18., 27., 40.,
          23., 17., 17. ]
      - [ 29., 25., 28., 23., 19., 21., 14., 23., 22., 27., 24., 23.,
          25., 24., 27., 24. ]
      - [ 31., 52., 25., 10., 19., 12., 9., 35., 46., 15., 25., 26., 17.,
          19., 7., 32. ]
      - [ 19., 20., 26., 26., 14., 10., 13., 26., 19., 9., 23., 18., 44.,
          19., 7., 12. ]
      - [ 28., 35., 27., 53., 23., 5., 12., 21., 29., 39., 22., 17., 26.,
          16., 20., 28. ]
      - [ 30., 31., 21., 6., 33., 4., 10., 28., 59., 6., 17., 26., 19.,
          22., 27., 47. ]
      - [ 23., 37., 24., 23., 17., 13., 20., 27., 34., 16., 38., 40.,
          25., 27., 30., 22. ]
      - [ 9., 7., 14., 32., 12., 19., 13., 25., 13., 25., 23., 27., 66.,
          46., 13., 10. ]
      - [ 15., 15., 22., 15., 28., 14., 32., 26., 14., 28., 26., 34.,
          40., 36., 6., 14. ]
      - [ 16., 17., 24., 34., 10., 7., 19., 31., 27., 31., 24., 27., 24.,
          26., 24., 8. ]
      - [ 8., 5., 12., 31., 14., 5., 12., 18., 2., 20., 8., 9., 29., 23.,
          17., 9. ]
      - [ 26., 50., 12., 11., 18., 4., 15., 20., 40., 11., 22., 19., 10.,
          9., 23., 52. ]
      - [ 16., 26., 30., 43., 21., 18., 16., 18., 10., 44., 26., 33.,
          44., 32., 29., 17. ]
      - [ 23., 23., 26., 13., 16., 24., 15., 16., 26., 10., 31., 18.,
          21., 7., 18., 17. ]
      - [ 6., 29., 21., 27., 27., 9., 11., 28., 30., 17., 31., 39., 54.,
          28., 15., 18. ]
      - [ 23., 39., 18., 22., 40., 7., 10., 16., 44., 35., 25., 22., 24.,
          23., 20., 40. ]
      - [ 8., 27., 11., 24., 4., 8., 11., 18., 36., 27., 19., 14., 39.,
          11., 15., 16. ]
      - [ 26., 40., 32., 29., 35., 13., 24., 23., 42., 24., 35., 20.,
          24., 20., 29., 23. ]
      - [ 20., 59., 15., 20., 14., 15., 44., 14., 31., 17., 29., 10.,
          16., 1., 20., 26. ]
      - [ 16., 15., 8., 17., 13., 11., 17., 22., 19., 16., 14., 8., 27.,
          18., 17., 6. ]
      - [ 10., 3., 9., 23., 26., 2., 12., 29., 0., 17., 28., 30., 82.,
          85., 6., 10. ]
      - [ 27., 19., 37., 28., 9., 11., 37., 30., 19., 30., 12., 18., 38.,
          40., 40., 22. ]
      - [ 22., 20., 28., 33., 22., 22., 20., 12., 16., 29., 18., 13.,
          26., 24., 28., 16. ]
      - [ 18., 26., 19., 24., 25., 22., 28., 42., 16., 21., 29., 14.,
          26., 30., 36., 11. ]
      - [ 24., 52., 12., 15., 22., 7., 11., 18., 38., 9., 17., 13., 8.,
          6., 14., 28. ]
      - [ 5., 41., 17., 7., 30., 13., 12., 11., 23., 17., 17., 7., 2.,
          6., 12., 33. ]
      - [ 41., 38., 16., 21., 28., 25., 30., 24., 34., 26., 22., 33.,
          15., 17., 21., 29. ]
      - [ 5., 1., 9., 8., 3., 3., 13., 11., 5., 1., 24., 12., 7., 14.,
          1., 5. ]
      - [ 17., 17., 23., 22., 15., 20., 33., 23., 16., 22., 21., 19.,
          36., 24., 18., 11. ]
      - [ 4., 1., 3., 23., 5., 21., 10., 7., 3., 16., 3., 5., 10., 7.,
          11., 5. ]
      - [ 9., 10., 22., 25., 14., 47., 29., 12., 7., 31., 15., 14., 47.,
          22., 13., 5. ]
      - [ 17., 19., 33., 10., 17., 22., 27., 28., 28., 15., 17., 19.,
          15., 16., 13., 24. ]
      - [ 9., 5., 8., 25., 10., 22., 3., 26., 14., 7., 8., 7., 14., 14.,
          8., 11. ]
      - [ 10., 29., 13., 16., 19., 8., 15., 21., 13., 15., 24., 16., 20.,
          21., 13., 7. ]
      - [ 5., 12., 16., 37., 7., 7., 18., 4., 7., 14., 9., 27., 9., 26.,
          12., 16. ]
      - [ 5., 9., 38., 38., 8., 21., 59., 16., 7., 49., 9., 16., 29.,
          25., 45., 12. ]
      - [ 25., 38., 11., 26., 38., 11., 10., 20., 42., 17., 45., 27.,
          11., 14., 21., 53. ]
      - [ 32., 16., 15., 36., 30., 13., 27., 22., 18., 37., 42., 41.,
          22., 15., 14., 27. ]
      - [ 29., 18., 13., 21., 17., 24., 18., 15., 43., 17., 36., 14.,
          26., 13., 27., 50. ]
      - [ 16., 21., 29., 32., 13., 18., 20., 13., 27., 27., 14., 25.,
          44., 15., 28., 12. ]
      - [ 13., 8., 7., 25., 19., 13., 21., 26., 11., 37., 19., 14., 43.,
          21., 41., 6. ]
      - [ 3., 10., 1., 14., 3., 29., 24., 8., 16., 1., 15., 10., 22., 2.,
          3., 7. ]
      - [ 14., 11., 17., 19., 14., 15., 14., 26., 23., 14., 27., 21.,
          12., 19., 13., 26. ]
      - [ 20., 25., 21., 32., 28., 11., 17., 25., 11., 26., 20., 32.,
          41., 20., 19., 6. ]
      - [ 10., 8., 4., 12., 6., 30., 16., 11., 10., 13., 12., 4., 23.,
          27., 12., 2. ]
      - [ 13., 16., 11., 17., 16., 4., 21., 10., 20., 21., 30., 30., 23.,
          13., 13., 28. ]
      - [ 11., 6., 8., 6., 12., 8., 12., 1., 5., 20., 18., 5., 29., 20.,
          36., 7. ]
      - [ 4., 12., 31., 21., 8., 57., 46., 6., 10., 19., 34., 16., 6.,
          0., 25., 6. ]
      - [ 12., 9., 13., 23., 18., 23., 31., 22., 4., 19., 12., 18., 19.,
          19., 22., 5. ]
      - [ 15., 13., 35., 31., 21., 11., 33., 33., 40., 20., 26., 18.,
          23., 17., 17., 18. ]
      - [ 19., 8., 21., 18., 18., 8., 29., 15., 13., 32., 23., 20., 20.,
          31., 28., 11. ]
      - [ 16., 8., 55., 29., 12., 22., 30., 28., 6., 18., 10., 17., 23.,
          44., 29., 3. ]
      - [ 21., 33., 35., 22., 31., 10., 14., 29., 18., 21., 21., 19.,
          17., 17., 28., 28. ]
      - [ 34., 29., 24., 14., 20., 5., 24., 24., 38., 21., 34., 17., 8.,
          7., 40., 33. ]
      - [ 6., 17., 13., 22., 15., 10., 16., 11., 8., 23., 28., 21., 25.,
          33., 23., 15. ]
      - [ 16., 17., 16., 11., 15., 17., 27., 9., 39., 14., 26., 27., 17.,
          57., 5., 36. ]
      - [ 11., 5., 9., 21., 22., 9., 15., 18., 7., 20., 29., 12., 54.,
          68., 14., 14. ]
      - [ 34., 26., 15., 12., 30., 7., 23., 25., 38., 10., 29., 20., 12.,
          21., 15., 27. ]
      - [ 6., 3., 16., 14., 9., 9., 23., 5., 8., 22., 16., 17., 12., 13.,
          16., 6. ]
      - [ 12., 22., 14., 7., 10., 39., 16., 2., 10., 20., 18., 6., 8.,
          9., 24., 7. ]
      - [ 9., 22., 18., 46., 22., 12., 5., 24., 22., 26., 24., 25., 32.,
          24., 11., 19. ]
      - [ 18., 20., 12., 37., 48., 3., 22., 22., 35., 29., 44., 24., 8.,
          11., 14., 38. ]
      - [ 34., 18., 5., 13., 37., 5., 3., 13., 21., 8., 25., 20., 7.,
          15., 13., 21. ]
      - [ 26., 15., 27., 20., 16., 2., 31., 28., 12., 35., 11., 10., 18.,
          25., 39., 7. ]
      - [ 12., 9., 18., 31., 9., 31., 30., 15., 15., 27., 54., 20., 38.,
          37., 10., 5. ]
      - [ 13., 9., 9., 22., 9., 29., 15., 10., 12., 27., 36., 19., 43.,
          26., 24., 14. ]
      - [ 26., 28., 20., 15., 20., 32., 36., 14., 24., 35., 10., 14.,
          21., 26., 8., 7. ]
      - [ 1., 6., 22., 15., 3., 18., 11., 6., 1., 14., 6., 14., 33., 47.,
          11., 0. ]
      - [ 47., 39., 12., 31., 27., 5., 10., 15., 20., 26., 30., 16., 21.,
          20., 13., 43. ]
      - [ 10., 1., 4., 11., 2., 15., 4., 4., 2., 8., 2., 8., 39., 56.,
          12., 6. ]
      - [ 1., 0., 6., 0., 10., 3., 4., 5., 4., 25., 17., 8., 19., 9., 8.,
          5. ]
      - [ 15., 37., 17., 21., 19., 9., 18., 23., 31., 19., 13., 15., 31.,
          14., 28., 18. ]
      - [ 3., 21., 20., 11., 10., 35., 11., 2., 6., 30., 6., 21., 13.,
          12., 9., 3. ]
      - [ 18., 50., 19., 17., 21., 23., 21., 36., 38., 19., 34., 23.,
          17., 19., 28., 28. ]
      - [ 6., 58., 41., 12., 3., 53., 12., 20., 19., 28., 11., 10., 15.,
          19., 18., 8. ]
      - [ 0., 0., 0., 0., 0., 3., 0., 0., 0., 0., 0., 0., 0., 0., 0., 0. ]
      - [ 26., 37., 10., 31., 19., 10., 22., 43., 30., 27., 27., 9., 45.,
          23., 7., 39. ]
      - [ 12., 24., 15., 15., 11., 24., 21., 12., 25., 21., 12., 0., 12.,
          6., 22., 13. ]
      - [ 3., 4., 2., 0., 1., 6., 3., 2., 4., 0., 7., 1., 2., 1., 2., 3. ]
      - [ 18., 26., 21., 10., 11., 8., 21., 14., 13., 31., 12., 16., 33.,
          34., 18., 18. ]
      - [ 12., 39., 29., 16., 14., 31., 11., 10., 36., 16., 13., 5., 33.,
          15., 17., 35. ]
      - [ 1., 1., 5., 31., 0., 193., 13., 9., 31., 41., 10., 1., 9., 1.,
          7., 0. ]
      - [ 9., 11., 18., 15., 8., 29., 14., 12., 3., 42., 6., 16., 26.,
          14., 25., 5. ]
      - [ 24., 37., 16., 17., 10., 9., 18., 10., 45., 13., 31., 10., 12.,
          4., 13., 57. ]
      - [ 23., 25., 20., 14., 41., 16., 26., 36., 24., 23., 53., 13.,
          17., 23., 26., 27. ]
      - [ 6., 15., 10., 26., 15., 7., 11., 30., 15., 15., 17., 23., 32.,
          23., 8., 24. ]
      - [ 15., 20., 17., 11., 34., 8., 13., 20., 28., 18., 37., 15., 21.,
          24., 6., 18. ]
      - [ 16., 24., 9., 10., 4., 56., 18., 8., 65., 18., 21., 7., 14.,
          5., 8., 12. ]
      - [ 5., 4., 6., 3., 2., 5., 7., 8., 18., 9., 4., 8., 9., 3., 6.,
          1. ]
      - [ 10., 20., 27., 20., 9., 27., 18., 16., 44., 24., 38., 12., 27.,
          8., 34., 25. ]
      - [ 26., 29., 27., 19., 23., 30., 27., 18., 48., 10., 29., 10.,
          17., 5., 26., 25. ]
      - [ 7., 4., 1., 16., 6., 1., 2., 3., 6., 0., 1., 6., 3., 8., 1.,
          4. ]
      - [ 23., 7., 27., 32., 12., 16., 13., 7., 25., 14., 22., 13., 29.,
          29., 14., 20. ]
      - [ 5., 5., 0., 1., 8., 4., 8., 3., 21., 4., 2., 12., 0., 5., 12.,
          18. ]
      - [ 11., 10., 13., 21., 5., 22., 5., 4., 10., 34., 20., 12., 17.,
          4., 4., 4. ]
      - [ 24., 58., 21., 21., 10., 27., 23., 14., 57., 18., 32., 2., 4.,
          1., 23., 43. ]
      - [ 7., 9., 17., 8., 5., 34., 20., 3., 42., 6., 14., 6., 12., 3.,
          19., 34. ]
      - [ 5., 23., 8., 7., 8., 8., 0., 3., 19., 4., 2., 1., 1., 4., 4.,
          6. ]
      - [ 7., 1., 6., 21., 5., 5., 5., 10., 9., 2., 16., 6., 15., 5., 2.,
          3. ]
      - [ 11., 16., 19., 4., 9., 24., 10., 7., 46., 2., 8., 6., 2., 3.,
          17., 23. ]
      - [ 24., 14., 45., 13., 13., 20., 23., 17., 11., 29., 5., 31., 24.,
          28., 40., 9. ]
      - [ 0., 0., 0., 1., 0., 4., 0., 1., 0., 1., 1., 0., 3., 0., 1., 0. ]
      - [ 7., 10., 38., 6., 9., 24., 14., 10., 27., 32., 13., 6., 35.,
          14., 26., 14. ]
      - [ 1., 6., 1., 4., 0., 1., 1., 2., 2., 0., 0., 1., 2., 2., 5., 1. ]
      - [ 11., 21., 11., 13., 11., 20., 12., 13., 30., 27., 16., 39.,
          22., 20., 14., 31. ]
      - [ 28., 44., 9., 18., 27., 13., 21., 13., 58., 18., 25., 8., 20.,
          15., 10., 84. ]
      - [ 16., 26., 28., 3., 13., 3., 17., 8., 8., 13., 13., 5., 13.,
          10., 48., 8. ]
      - [ 2., 6., 2., 4., 0., 1., 6., 6., 12., 2., 7., 0., 3., 1., 4.,
          4. ]
      - [ 1., 0., 2., 0., 1., 2., 5., 1., 0., 6., 1., 0., 1., 10., 2.,
          1. ]
      - [ 29., 23., 11., 16., 13., 24., 14., 15., 22., 22., 21., 16.,
          10., 3., 10., 25. ]
      - [ 9., 19., 26., 12., 11., 8., 18., 21., 33., 26., 5., 27., 5.,
          20., 21., 15. ]
      - [ 11., 5., 16., 13., 4., 9., 8., 11., 6., 15., 6., 22., 28., 35.,
          14., 8. ]
      - [ 12., 16., 50., 8., 5., 28., 8., 15., 20., 38., 11., 1., 16.,
          6., 31., 5. ]
      - [ 0., 7., 8., 8., 3., 45., 5., 3., 1., 11., 0., 1., 6., 2., 7.,
          1. ]
      - [ 1., 8., 52., 10., 0., 83., 17., 3., 10., 47., 9., 11., 37.,
          10., 33., 3. ]
      - [ 2., 11., 13., 18., 16., 12., 5., 8., 9., 18., 8., 15., 2., 3.,
          9., 7. ]
      - [ 21., 23., 7., 11., 8., 10., 11., 13., 44., 25., 25., 10., 20.,
          14., 10., 42. ]
      - [ 5., 0., 19., 23., 7., 25., 13., 3., 4., 22., 17., 18., 35.,
          45., 9., 1. ]
      - [ 5., 7., 8., 16., 9., 32., 27., 5., 12., 12., 10., 22., 14.,
          11., 14., 4. ]
      - [ 10., 1., 15., 27., 24., 6., 6., 19., 7., 14., 25., 23., 85.,
          64., 8., 6. ]
      - [ 1., 2., 1., 3., 9., 1., 2., 1., 5., 1., 2., 1., 13., 5., 0.,
          1. ]
      - [ 2., 0., 9., 3., 4., 3., 7., 8., 1., 8., 2., 7., 11., 17., 4.,
          1. ]
      - [ 13., 17., 15., 27., 11., 31., 17., 11., 13., 25., 9., 33., 11.,
          15., 28., 15. ]
      - [ 21., 8., 11., 30., 32., 3., 8., 23., 8., 15., 41., 33., 32.,
          43., 17., 17. ]
      - [ 6., 5., 13., 31., 4., 8., 11., 17., 1., 14., 10., 23., 50.,
          64., 5., 1. ]
      - [ 5., 4., 4., 45., 7., 1., 11., 8., 3., 19., 8., 6., 25., 17.,
          4., 2. ]
      - [ 1., 1., 6., 12., 1., 9., 5., 6., 0., 6., 3., 0., 23., 7., 3.,
          0. ]
      - [ 20., 43., 8., 12., 18., 10., 11., 3., 43., 15., 13., 8., 2.,
          1., 0., 45. ]
      - [ 18., 17., 20., 32., 24., 9., 21., 37., 25., 7., 32., 36., 35.,
          19., 8., 11. ]
      - [ 7., 5., 6., 28., 7., 14., 9., 28., 6., 14., 12., 14., 41., 38.,
          4., 2. ]
      - [ 0., 0., 3., 0., 2., 1., 0., 5., 0., 0., 4., 2., 0., 0., 1., 3. ]
      - [ 0., 0., 2., 5., 1., 3., 0., 2., 0., 1., 0., 7., 32., 19., 5.,
          0. ]
      - [ 7., 13., 21., 12., 8., 26., 17., 14., 17., 19., 19., 29., 7.,
          3., 22., 9. ]
      - [ 13., 29., 22., 39., 30., 10., 15., 31., 13., 23., 20., 50.,
          20., 19., 23., 23. ]
      - [ 0., 0., 1., 0., 0., 0., 0., 1., 0., 0., 0., 0., 9., 4., 0., 0. ]
      - [ 11., 6., 9., 40., 25., 32., 29., 12., 5., 28., 35., 30., 33.,
          31., 32., 5. ]
      - [ 4., 12., 31., 19., 23., 42., 24., 14., 5., 66., 14., 24., 47.,
          19., 62., 5. ]
      - [ 29., 7., 20., 13., 39., 9., 27., 22., 18., 26., 22., 20., 13.,
          21., 22., 14. ]
      - [ 23., 23., 31., 17., 30., 21., 20., 29., 32., 25., 28., 23.,
          18., 8., 25., 23. ]
      - [ 6., 13., 5., 24., 11., 5., 9., 5., 7., 25., 10., 18., 24., 10.,
          15., 19. ]
      - [ 40., 17., 16., 16., 41., 3., 12., 14., 20., 15., 17., 19., 7.,
          10., 22., 31. ]
      - [ 16., 30., 28., 24., 12., 7., 23., 31., 28., 22., 18., 25., 7.,
          12., 23., 9. ]
      - [ 27., 33., 37., 22., 30., 11., 33., 31., 22., 39., 26., 13.,
          13., 11., 45., 18. ]
      - [ 10., 11., 5., 27., 3., 10., 5., 7., 1., 18., 6., 8., 14., 8.,
          6., 4. ]
      - [ 25., 21., 15., 9., 25., 8., 18., 31., 30., 9., 25., 21., 17.,
          31., 12., 20. ]
      - [ 0., 0., 34., 23., 4., 57., 6., 7., 0., 19., 2., 6., 33., 12.,
          10., 0. ]
      - [ 4., 23., 33., 38., 11., 30., 16., 30., 16., 12., 15., 13., 29.,
          23., 10., 1. ]
      - [ 15., 23., 21., 19., 15., 5., 15., 31., 13., 23., 11., 23., 22.,
          32., 27., 21. ]
      - [ 16., 15., 34., 13., 17., 41., 53., 21., 6., 49., 24., 9., 25.,
          8., 56., 17. ]
      - [ 19., 27., 19., 13., 27., 8., 13., 26., 19., 21., 24., 24., 29.,
          18., 20., 24. ]
      - [ 20., 19., 12., 20., 16., 10., 17., 28., 28., 24., 30., 20.,
          27., 29., 23., 20. ]
      - [ 25., 40., 18., 22., 31., 7., 24., 34., 32., 21., 16., 20., 18.,
          7., 24., 44. ]
      - [ 21., 10., 16., 32., 26., 5., 17., 21., 22., 18., 17., 19., 24.,
          13., 20., 19. ]
      - [ 7., 19., 17., 19., 18., 17., 20., 6., 2., 23., 11., 4., 24.,
          16., 29., 1. ]
      - [ 12., 24., 15., 26., 28., 13., 15., 31., 18., 31., 16., 29.,
          20., 28., 24., 13. ]
      - [ 33., 21., 11., 14., 13., 59., 29., 12., 45., 20., 21., 6., 14.,
          4., 20., 17. ]
      - [ 32., 31., 12., 24., 22., 21., 33., 18., 20., 14., 16., 42.,
          11., 12., 28., 30. ]
      - [ 29., 37., 19., 28., 31., 21., 10., 24., 24., 19., 21., 24.,
          23., 21., 26., 32. ]
      - [ 5., 12., 24., 14., 20., 4., 8., 25., 36., 14., 22., 12., 18.,
          23., 9., 25. ]
      - [ 37., 34., 35., 14., 51., 22., 14., 19., 24., 22., 38., 12., 9.,
          14., 26., 33. ]
      - [ 10., 12., 12., 26., 15., 22., 36., 18., 7., 24., 10., 41., 22.,
          14., 29., 6. ]
      - [ 11., 22., 31., 46., 10., 25., 27., 34., 10., 26., 11., 19.,
          57., 33., 29., 4. ]
      - [ 15., 12., 11., 14., 20., 7., 11., 10., 25., 13., 16., 15., 13.,
          12., 13., 28. ]
      - [ 14., 33., 16., 25., 12., 15., 16., 11., 51., 19., 12., 23.,
          26., 4., 18., 23. ]
      - [ 29., 30., 20., 16., 26., 21., 21., 13., 41., 23., 22., 11.,
          15., 6., 29., 28. ]
      - [ 9., 27., 24., 14., 30., 15., 34., 9., 37., 23., 46., 8., 20.,
          6., 29., 24. ]
      - [ 13., 29., 22., 39., 30., 10., 15., 31., 13., 23., 20., 50.,
          20., 19., 23., 23. ]
      - [ 17., 30., 35., 19., 22., 18., 24., 26., 14., 37., 16., 12.,
          14., 14., 26., 18. ]
      - [ 16., 18., 30., 26., 18., 7., 20., 27., 17., 30., 25., 20., 28.,
          14., 33., 16. ]
      - [ 8., 16., 22., 31., 26., 15., 17., 11., 12., 26., 6., 15., 18.,
          21., 23., 11. ]
      - [ 8., 18., 16., 18., 16., 47., 11., 8., 21., 18., 8., 21., 17.,
          12., 9., 20. ]
      - [ 2., 14., 4., 7., 6., 3., 2., 2., 8., 9., 1., 23., 8., 5., 7.,
          9. ]
      - [ 19., 31., 28., 20., 13., 10., 25., 26., 39., 35., 20., 31., 9.,
          13., 22., 11. ]
      - [ 19., 17., 15., 39., 26., 11., 21., 28., 14., 28., 27., 37.,
          42., 55., 17., 13. ]
      - [ 8., 14., 11., 25., 24., 8., 13., 21., 16., 23., 16., 19., 12.,
          20., 18., 18. ]
      - [ 18., 6., 17., 14., 17., 6., 15., 19., 16., 14., 27., 27., 31.,
          23., 13., 11. ]
      - [ 20., 37., 27., 21., 33., 11., 25., 24., 19., 25., 18., 37.,
          37., 21., 35., 32. ]
      - [ 4., 0., 0., 0., 6., 0., 0., 0., 0., 1., 1., 5., 6., 36., 0.,
          2. ]
      - [ 0., 0., 0., 1., 0., 0., 2., 0., 0., 0., 0., 2., 5., 1., 0., 0. ]
      - [ 11., 11., 20., 13., 5., 30., 5., 21., 29., 10., 8., 5., 14.,
          5., 11., 10. ]
      - [ 1., 0., 1., 2., 4., 0., 9., 1., 0., 6., 1., 3., 7., 7., 2., 0. ]
      - [ 12., 0., 0., 10., 9., 1., 5., 6., 7., 2., 13., 17., 0., 12.,
          0., 46. ]
      - [ 0., 0., 2., 2., 0., 0., 2., 1., 1., 1., 0., 6., 0., 0., 0., 2. ]
      - [ 3., 0., 0., 0., 2., 0., 0., 0., 0., 1., 1., 2., 4., 26., 1.,
          0. ]
      - [ 0., 0., 0., 0., 0., 0., 0., 0., 0., 0., 0., 1., 0., 0., 0., 0. ]
      - [ 0., 0., 0., 0., 0., 0., 0., 0., 0., 0., 0., 0., 0., 0., 0., 1. ]
      - [ 0., 0., 0., 0., 0., 0., 1., 1., 3., 0., 1., 7., 0., 3., 0., 9. ]
      - [ 0., 0., 0., 0., 0., 1., 0., 0., 0., 0., 0., 1., 0., 0., 0., 3. ]
      - [ 2., 0., 0., 0., 0., 0., 1., 0., 3., 0., 2., 7., 1., 7., 0., 0. ]
      - [ 0., 0., 0., 3., 0., 3., 0., 0., 0., 0., 2., 3., 0., 0., 0., 0. ]
      - [ 0., 0., 0., 0., 0., 0., 3., 0., 0., 0., 0., 0., 0., 0., 0., 3. ]
      - [ 1., 0., 0., 2., 0., 1., 1., 0., 0., 1., 0., 6., 10., 9., 0.,
          11. ]
      - [ 0., 0., 0., 1., 0., 0., 1., 0., 1., 0., 0., 6., 11., 2., 0.,
          8. ]
      - [ 10., 2., 4., 12., 7., 6., 15., 7., 13., 4., 10., 12., 2., 7.,
          7., 27. ]
      - [ 1., 0., 0., 3., 1., 0., 2., 0., 1., 0., 0., 1., 5., 3., 0., 3. ]
      - [ 3., 0., 0., 1., 2., 0., 0., 0., 0., 1., 2., 3., 8., 26., 0.,
          2. ]
      - [ 4., 0., 0., 0., 1., 0., 2., 3., 1., 0., 3., 10., 0., 8., 0.,
          5. ]
      - [ 0., 0., 0., 0., 0., 0., 1., 3., 2., 0., 0., 1., 0., 9., 0., 0. ]
      - [ 0., 0., 0., 1., 0., 0., 2., 0., 0., 0., 0., 1., 0., 0., 0., 1. ]
      - [ 3., 0., 0., 1., 3., 0., 1., 3., 10., 0., 1., 1., 1., 2., 0.,
          65. ]
      - [ 12., 5., 0., 1., 11., 0., 2., 2., 40., 1., 6., 1., 1., 0., 1.,
          94. ]
      - [ 0., 0., 0., 0., 0., 1., 0., 0., 2., 0., 0., 1., 0., 0., 0., 4. ]
      - [ 1., 0., 3., 20., 2., 0., 1., 0., 1., 4., 2., 20., 28., 20., 0.,
          5. ]
      - [ 0., 0., 0., 0., 0., 0., 3., 0., 0., 0., 1., 2., 0., 4., 0., 0. ]
      - [ 3., 0., 0., 1., 16., 0., 0., 1., 6., 0., 7., 3., 0., 0., 0.,
          49. ]
      - [ 0., 0., 0., 2., 0., 0., 2., 0., 0., 0., 0., 1., 0., 1., 0., 3. ]
      - [ 0., 1., 0., 2., 0., 0., 0., 0., 0., 0., 0., 0., 0., 0., 0., 6. ]
      - [ 21., 22., 28., 13., 15., 9., 19., 13., 20., 13., 24., 10., 10.,
          10., 23., 13. ]
      - [ 30., 25., 9., 10., 22., 9., 17., 14., 43., 10., 34., 64., 6.,
          2., 14., 75. ]
      - [ 33., 16., 26., 17., 12., 30., 41., 20., 42., 16., 17., 30., 9.,
          13., 19., 31. ]
      - [ 15., 14., 23., 13., 18., 45., 33., 17., 29., 12., 38., 114.,
          8., 3., 36., 15. ]
      - [ 26., 68., 10., 4., 14., 16., 40., 14., 33., 18., 39., 5., 9.,
          5., 27., 35. ]
      - [ 10., 8., 5., 12., 10., 7., 5., 16., 16., 10., 9., 5., 7., 8.,
          8., 11. ]
      - [ 24., 28., 21., 14., 20., 6., 13., 7., 60., 22., 29., 10., 21.,
          16., 17., 42. ]
      - [ 22., 28., 27., 11., 32., 35., 35., 16., 39., 24., 21., 32.,
          14., 12., 15., 28. ]
      - [ 15., 25., 12., 8., 27., 38., 70., 3., 10., 18., 18., 64., 6.,
          3., 27., 17. ]
      - [ 19., 8., 13., 1., 29., 12., 10., 14., 52., 1., 13., 105., 4.,
          3., 13., 55. ]
      - [ 15., 78., 12., 5., 7., 16., 25., 2., 5., 21., 6., 34., 3., 6.,
          49., 3. ]
      - [ 9., 13., 13., 5., 16., 22., 15., 3., 54., 20., 14., 29., 9.,
          3., 2., 30. ]
      - [ 5., 6., 16., 6., 2., 69., 26., 1., 92., 6., 21., 89., 1., 0.,
          15., 14. ]
      - [ 2., 16., 21., 23., 9., 114., 55., 10., 8., 25., 6., 15., 16.,
          14., 21., 4. ]
      - [ 28., 39., 15., 19., 7., 27., 10., 9., 54., 38., 31., 19., 23.,
          6., 14., 24. ]
      - [ 28., 6., 9., 20., 22., 11., 13., 10., 28., 16., 26., 115., 10.,
          9., 46., 26. ]
      - [ 9., 13., 20., 39., 8., 28., 49., 12., 21., 20., 15., 29., 63.,
          28., 16., 5. ]
      - [ 22., 10., 27., 11., 14., 74., 35., 6., 23., 7., 14., 73., 2.,
          4., 13., 18. ]
      - [ 16., 23., 15., 22., 14., 3., 9., 12., 37., 26., 26., 13., 17.,
          6., 7., 30. ]
      - [ 8., 22., 12., 17., 59., 12., 18., 11., 15., 20., 12., 97., 16.,
          23., 27., 25. ]
      - [ 29., 15., 16., 24., 18., 13., 14., 23., 20., 26., 37., 22.,
          28., 24., 27., 20. ]
      - [ 28., 32., 11., 10., 41., 11., 8., 4., 54., 3., 15., 19., 8.,
          2., 9., 73. ]
      - [ 9., 55., 5., 3., 10., 32., 41., 5., 18., 4., 6., 36., 0., 1.,
          17., 9. ]
      - [ 24., 34., 29., 5., 20., 46., 49., 15., 25., 6., 9., 20., 12.,
          16., 36., 20. ]
      - [ 11., 23., 13., 15., 11., 41., 53., 14., 16., 12., 8., 23., 25.,
          15., 23., 23. ]
      - [ 14., 11., 5., 21., 15., 21., 30., 5., 13., 13., 31., 103., 9.,
          6., 20., 10. ]
      - [ 10., 6., 22., 9., 13., 14., 12., 9., 44., 11., 25., 79., 10.,
          11., 30., 28. ]
      - [ 1., 1., 2., 11., 1., 112., 4., 1., 6., 8., 7., 177., 1., 1.,
          32., 4. ]
      - [ 21., 22., 9., 28., 37., 18., 22., 18., 48., 15., 37., 28., 15.,
          9., 18., 44. ]
      - [ 17., 25., 11., 9., 38., 21., 18., 13., 27., 13., 8., 17., 2.,
          6., 25., 32. ]
      - [ 0., 0., 2., 20., 0., 0., 11., 6., 6., 4., 7., 13., 12., 35.,
          0., 12. ]
      - [ 0., 0., 0., 2., 2., 0., 5., 2., 1., 0., 1., 0., 2., 9., 0., 2. ]
      - [ 12., 1., 32., 30., 17., 11., 28., 17., 4., 94., 20., 20., 46.,
          55., 38., 3. ]
      - [ 17., 1., 9., 15., 42., 4., 11., 4., 1., 24., 44., 15., 16.,
          15., 13., 25. ]
      - [ 0., 1., 0., 9., 1., 0., 1., 6., 0., 0., 6., 10., 3., 26., 0.,
          11. ]
      - [ 5., 1., 3., 14., 20., 1., 7., 9., 1., 17., 16., 11., 30., 43.,
          6., 5. ]
      - [ 6., 3., 13., 14., 5., 6., 13., 11., 0., 38., 9., 19., 23., 43.,
          18., 2. ]
      - [ 2., 0., 6., 15., 4., 7., 14., 7., 0., 11., 7., 19., 8., 26.,
          0., 6. ]
      - [ 6., 0., 1., 6., 28., 1., 6., 1., 2., 2., 28., 3., 2., 5., 2.,
          27. ]
      - [ 0., 0., 0., 10., 3., 0., 17., 5., 0., 2., 7., 7., 5., 13., 0.,
          3. ]
      - [ 1., 0., 3., 15., 3., 1., 3., 6., 5., 13., 13., 17., 20., 29.,
          2., 5. ]
      - [ 9., 9., 4., 1., 17., 8., 7., 7., 13., 18., 5., 18., 1., 3., 7.,
          39. ]
      - [ 0., 0., 0., 8., 3., 0., 7., 3., 1., 0., 1., 3., 3., 15., 0.,
          4. ]
      - [ 2., 1., 0., 4., 0., 1., 0., 9., 2., 2., 3., 7., 2., 5., 0.,
          17. ]
      - [ 6., 0., 2., 2., 5., 0., 3., 2., 1., 8., 11., 3., 10., 9., 5.,
          1. ]
      - [ 7., 0., 3., 7., 21., 2., 7., 0., 0., 5., 37., 5., 6., 8., 2.,
          32. ]
      - [ 0., 0., 0., 3., 0., 1., 5., 2., 0., 0., 3., 6., 2., 11., 0.,
          5. ]
      - [ 0., 0., 0., 12., 1., 0., 11., 6., 0., 2., 6., 6., 5., 20., 0.,
          5. ]
      - [ 9., 1., 4., 32., 9., 1., 22., 17., 4., 47., 20., 20., 52., 64.,
          32., 3. ]
      - [ 7., 13., 28., 36., 7., 46., 17., 22., 9., 49., 14., 15., 100.,
          28., 43., 8. ]
      - [ 8., 4., 12., 21., 19., 30., 14., 13., 7., 15., 11., 10., 5.,
          16., 13., 25. ]
      - [ 9., 4., 5., 15., 9., 5., 6., 12., 0., 18., 11., 13., 27., 22.,
          19., 6. ]
      - [ 26., 41., 29., 27., 27., 27., 29., 49., 25., 30., 37., 22.,
          23., 28., 31., 23. ]
      - [ 32., 22., 28., 30., 30., 21., 42., 20., 34., 24., 43., 43.,
          27., 18., 24., 37. ]
      - [ 48., 55., 8., 21., 48., 13., 12., 36., 41., 18., 41., 16., 14.,
          22., 11., 49. ]
      - [ 15., 24., 37., 35., 27., 48., 26., 24., 35., 37., 37., 44.,
          25., 25., 22., 19. ]
      - [ 14., 27., 7., 10., 14., 4., 12., 19., 46., 9., 9., 5., 4., 4.,
          3., 40. ]
      - [ 43., 44., 22., 21., 35., 7., 15., 29., 53., 12., 27., 21., 20.,
          22., 23., 43. ]
      - [ 25., 24., 5., 21., 45., 9., 8., 18., 41., 6., 31., 6., 9., 9.,
          3., 32. ]
      - [ 12., 14., 18., 35., 14., 74., 36., 22., 23., 10., 35., 26.,
          43., 46., 16., 14. ]
      - [ 23., 19., 26., 29., 25., 15., 22., 31., 33., 37., 32., 31.,
          42., 31., 37., 17. ]
      - [ 12., 21., 31., 45., 24., 17., 28., 31., 24., 54., 30., 35.,
          36., 31., 30., 22. ]
      - [ 37., 36., 14., 18., 21., 25., 18., 19., 68., 18., 34., 27.,
          18., 14., 25., 50. ]
      - [ 8., 13., 15., 31., 15., 24., 29., 17., 12., 24., 19., 37., 85.,
          47., 19., 12. ]
      - [ 39., 61., 16., 20., 23., 28., 28., 7., 50., 34., 51., 22., 5.,
          12., 21., 44. ]
      - [ 27., 46., 18., 8., 13., 71., 28., 20., 119., 10., 22., 2., 2.,
          2., 24., 48. ]
      - [ 35., 35., 19., 19., 28., 25., 11., 46., 52., 17., 54., 20.,
          11., 10., 19., 36. ]
      - [ 9., 15., 22., 43., 48., 22., 33., 19., 29., 32., 38., 37., 30.,
          31., 29., 41. ]
      - [ 27., 30., 27., 43., 18., 22., 17., 34., 26., 27., 37., 25.,
          52., 58., 12., 24. ]
      - [ 10., 19., 14., 24., 11., 7., 17., 25., 16., 10., 25., 13., 10.,
          11., 30., 8. ]
      - [ 24., 53., 29., 40., 23., 11., 17., 39., 33., 38., 24., 29.,
          27., 19., 14., 56. ]
      - [ 45., 39., 26., 17., 25., 12., 29., 22., 36., 27., 39., 16.,
          12., 10., 45., 60. ]
      - [ 58., 53., 26., 23., 40., 15., 19., 47., 31., 42., 35., 8., 6.,
          10., 30., 30. ]
      - [ 29., 39., 10., 26., 22., 6., 18., 34., 32., 18., 32., 22., 21.,
          18., 22., 41. ]
      - [ 14., 13., 6., 5., 5., 6., 3., 11., 17., 7., 5., 5., 8., 6.,
          10., 9. ]
      - [ 13., 27., 19., 38., 13., 28., 39., 46., 42., 27., 53., 17.,
          29., 17., 17., 32. ]
      - [ 19., 88., 26., 17., 17., 59., 30., 14., 67., 28., 16., 21., 6.,
          11., 20., 24. ]
      - [ 12., 14., 27., 31., 29., 23., 31., 22., 17., 30., 53., 22.,
          44., 44., 38., 23. ]
      - [ 12., 31., 13., 35., 17., 43., 34., 25., 31., 31., 33., 22.,
          25., 29., 17., 41. ]
      - [ 21., 15., 15., 29., 26., 41., 26., 22., 12., 51., 46., 33.,
          66., 44., 26., 13. ]
      - [ 11., 12., 5., 4., 17., 8., 1., 17., 20., 9., 13., 9., 1., 3.,
          4., 22. ]
      - [ 20., 44., 27., 20., 24., 6., 16., 23., 38., 30., 30., 31., 39.,
          36., 28., 19. ]
      - [ 8., 3., 22., 32., 24., 23., 30., 35., 33., 26., 45., 25., 42.,
          51., 14., 28. ]
      - [ 49., 37., 12., 24., 45., 3., 13., 40., 15., 17., 37., 9., 14.,
          7., 28., 47. ]
      - [ 31., 17., 11., 32., 35., 14., 28., 37., 20., 28., 38., 35.,
          36., 25., 20., 21. ]
      - [ 12., 30., 35., 37., 12., 55., 29., 30., 35., 37., 32., 30.,
          19., 34., 28., 17. ]
      - [ 11., 9., 39., 52., 33., 35., 31., 30., 26., 30., 43., 31., 34.,
          32., 18., 11. ]
      - [ 34., 35., 12., 28., 20., 3., 9., 14., 39., 8., 29., 14., 26.,
          12., 19., 41. ]
      - [ 26., 16., 16., 37., 51., 22., 26., 21., 25., 30., 29., 30.,
          46., 30., 14., 31. ]
      - [ 39., 48., 14., 13., 31., 12., 8., 24., 67., 24., 27., 11., 8.,
          10., 33., 58. ]
      - [ 29., 19., 19., 36., 17., 38., 16., 23., 38., 27., 23., 18.,
          43., 20., 18., 28. ]
      - [ 20., 43., 16., 30., 18., 10., 29., 31., 42., 53., 38., 17.,
          32., 15., 30., 53. ]
      - [ 24., 20., 23., 26., 28., 29., 22., 25., 18., 42., 21., 38.,
          29., 37., 28., 7. ]
      - [ 10., 20., 7., 24., 18., 49., 45., 27., 20., 7., 45., 43., 38.,
          46., 14., 19. ]
      - [ 10., 21., 10., 37., 14., 46., 18., 7., 17., 20., 19., 18., 28.,
          27., 3., 10. ]
      - [ 2., 7., 33., 18., 8., 106., 37., 17., 22., 20., 36., 20., 56.,
          26., 22., 12. ]
      - [ 49., 30., 17., 26., 39., 11., 22., 37., 46., 33., 37., 39.,
          22., 26., 8., 40. ]
      - [ 27., 20., 13., 8., 22., 8., 17., 19., 58., 7., 41., 16., 6.,
          6., 17., 31. ]
      - [ 20., 28., 43., 42., 26., 21., 35., 26., 20., 41., 37., 31.,
          38., 22., 33., 17. ]
      - [ 11., 17., 29., 20., 28., 47., 32., 23., 23., 20., 24., 20.,
          28., 31., 23., 17. ]
      - [ 8., 31., 16., 40., 39., 12., 16., 34., 10., 39., 11., 24., 38.,
          22., 16., 17. ]
      - [ 15., 9., 25., 27., 16., 37., 13., 46., 6., 23., 16., 28., 31.,
          44., 16., 6. ]
      - [ 19., 19., 25., 19., 18., 44., 11., 13., 16., 21., 12., 7., 22.,
          33., 23., 8. ]
      - [ 5., 9., 23., 28., 7., 50., 17., 15., 19., 27., 30., 10., 17.,
          29., 22., 3. ]
      - [ 28., 21., 36., 27., 30., 12., 19., 35., 17., 14., 22., 18.,
          23., 9., 18., 17. ]
      - [ 28., 20., 7., 22., 44., 1., 2., 20., 14., 9., 20., 24., 13.,
          45., 3., 32. ]
      - [ 17., 15., 9., 15., 13., 11., 7., 14., 27., 9., 8., 23., 12.,
          13., 10., 17. ]
      - [ 15., 22., 10., 11., 15., 7., 13., 12., 26., 23., 21., 11., 27.,
          31., 17., 17. ]
      - [ 11., 8., 32., 34., 43., 11., 33., 11., 10., 26., 40., 30., 36.,
          23., 14., 5. ]
      - [ 8., 5., 12., 35., 6., 11., 22., 28., 0., 29., 5., 10., 48.,
          59., 9., 1. ]
      - [ 26., 15., 27., 11., 29., 6., 6., 25., 57., 18., 32., 31., 10.,
          15., 10., 38. ]
      - [ 6., 7., 17., 22., 13., 35., 16., 13., 10., 21., 13., 21., 29.,
          40., 35., 1. ]
      - [ 19., 30., 15., 24., 16., 28., 12., 16., 17., 13., 33., 19.,
          25., 27., 18., 14. ]
      - [ 27., 20., 16., 24., 24., 23., 35., 32., 35., 24., 35., 18.,
          23., 31., 11., 16. ]
      - [ 3., 14., 25., 27., 27., 65., 19., 29., 4., 8., 18., 22., 54.,
          43., 19., 1. ]
      - [ 12., 17., 19., 41., 11., 22., 22., 27., 8., 16., 22., 10., 22.,
          24., 15., 10. ]
      - [ 9., 2., 8., 21., 11., 3., 11., 31., 7., 5., 16., 15., 35., 68.,
          3., 1. ]
      - [ 12., 25., 18., 27., 20., 14., 15., 15., 5., 12., 16., 16., 10.,
          20., 9., 10. ]
      - [ 3., 3., 6., 34., 3., 49., 37., 13., 16., 26., 36., 38., 21.,
          35., 6., 6. ]
      - [ 15., 17., 16., 47., 10., 7., 8., 14., 22., 31., 31., 20., 23.,
          28., 30., 18. ]
      - [ 18., 6., 6., 45., 13., 20., 7., 22., 3., 22., 18., 10., 19.,
          31., 11., 4. ]
      - [ 7., 3., 7., 5., 1., 2., 7., 8., 10., 3., 13., 8., 3., 6., 6.,
          6. ]
      - [ 8., 17., 18., 40., 8., 57., 43., 5., 12., 16., 12., 29., 7.,
          10., 23., 13. ]
      - [ 5., 5., 12., 16., 4., 31., 4., 16., 5., 8., 3., 4., 12., 7.,
          19., 7. ]
      - [ 1., 0., 6., 6., 4., 12., 2., 10., 3., 4., 1., 9., 4., 7., 5.,
          0. ]
      - [ 3., 2., 15., 11., 3., 8., 4., 9., 0., 15., 3., 3., 14., 14.,
          7., 0. ]
      - [ 12., 0., 14., 22., 5., 39., 21., 14., 7., 14., 15., 14., 53.,
          70., 10., 3. ]
      - [ 18., 18., 28., 16., 9., 21., 7., 13., 12., 29., 7., 41., 19.,
          23., 18., 3. ]
      - [ 24., 3., 15., 28., 43., 3., 23., 13., 16., 21., 26., 29., 47.,
          36., 14., 23. ]
      - [ 14., 5., 18., 17., 20., 20., 35., 20., 19., 13., 22., 19., 23.,
          12., 24., 15. ]
      - [ 12., 4., 8., 17., 26., 15., 16., 23., 57., 14., 44., 14., 30.,
          32., 6., 36. ]
      - [ 21., 14., 8., 34., 40., 16., 43., 21., 14., 23., 24., 43., 17.,
          23., 24., 17. ]
      - [ 17., 15., 17., 27., 18., 0., 8., 20., 2., 35., 6., 28., 15.,
          46., 11., 17. ]
      - [ 10., 4., 14., 42., 16., 5., 32., 26., 2., 24., 11., 22., 46.,
          43., 19., 6. ]
      - [ 17., 40., 23., 17., 6., 44., 11., 21., 41., 36., 16., 24., 11.,
          7., 26., 11. ]
      - [ 22., 10., 15., 41., 32., 11., 19., 42., 15., 18., 40., 26.,
          30., 62., 13., 11. ]
      - [ 18., 9., 9., 21., 36., 1., 27., 11., 51., 7., 9., 18., 14.,
          10., 8., 33. ]
      - [ 13., 29., 10., 18., 21., 5., 11., 21., 19., 5., 40., 33., 39.,
          40., 15., 21. ]
      - [ 9., 41., 26., 18., 13., 24., 28., 17., 25., 28., 25., 13., 8.,
          16., 23., 21. ]
      - [ 36., 28., 14., 21., 32., 25., 7., 26., 47., 19., 20., 16., 10.,
          18., 4., 42. ]
      - [ 28., 29., 30., 15., 49., 9., 6., 22., 17., 22., 21., 21., 5.,
          11., 20., 20. ]
      - [ 9., 21., 8., 12., 9., 26., 4., 6., 15., 34., 13., 20., 10.,
          13., 10., 20. ]
      - [ 9., 15., 22., 21., 5., 89., 63., 7., 18., 23., 22., 4., 11.,
          3., 56., 7. ]
      - [ 22., 10., 10., 20., 16., 6., 9., 24., 12., 10., 17., 42., 20.,
          40., 3., 11. ]
      - [ 1., 5., 1., 6., 2., 20., 35., 3., 2., 2., 5., 3., 0., 3., 2.,
          4. ]
      - [ 2., 3., 16., 28., 8., 5., 48., 14., 3., 12., 11., 14., 14.,
          37., 27., 7. ]
      - [ 14., 9., 9., 37., 18., 11., 15., 18., 5., 12., 31., 43., 58.,
          57., 22., 7. ]
      - [ 10., 6., 9., 14., 23., 36., 22., 21., 10., 22., 26., 59., 16.,
          31., 27., 17. ]
      - [ 5., 7., 25., 36., 12., 35., 39., 35., 1., 24., 17., 13., 33.,
          13., 17., 9. ]
      - [ 13., 16., 14., 8., 18., 8., 6., 5., 21., 9., 29., 12., 10., 7.,
          9., 19. ]
      - [ 29., 22., 17., 14., 58., 3., 15., 14., 29., 29., 19., 22., 14.,
          9., 26., 31. ]
      - [ 6., 22., 15., 7., 24., 11., 10., 20., 11., 2., 13., 3., 5.,
          10., 4., 12. ]
      - [ 12., 4., 21., 10., 12., 76., 25., 9., 13., 12., 7., 9., 8., 5.,
          12., 5. ]
      - [ 2., 6., 20., 31., 7., 37., 19., 31., 4., 23., 17., 18., 29.,
          35., 18., 5. ]
      - [ 30., 24., 11., 15., 14., 10., 43., 22., 26., 16., 21., 9., 15.,
          8., 19., 21. ]
      - [ 9., 16., 25., 17., 21., 34., 21., 26., 12., 19., 40., 33., 7.,
          20., 21., 16. ]
      - [ 10., 37., 9., 21., 55., 8., 13., 35., 28., 9., 13., 11., 22.,
          25., 17., 28. ]
      - [ 12., 9., 15., 42., 17., 11., 28., 17., 5., 35., 22., 13., 27.,
          25., 27., 8. ]
      - [ 5., 2., 8., 4., 6., 3., 0., 2., 2., 10., 10., 5., 12., 11.,
          12., 2. ]
      - [ 17., 7., 11., 9., 43., 5., 8., 9., 9., 9., 10., 28., 8., 18.,
          6., 9. ]
      - [ 19., 6., 25., 10., 24., 4., 19., 25., 19., 23., 15., 26., 14.,
          19., 19., 16. ]
      - [ 8., 17., 13., 44., 24., 11., 13., 11., 20., 12., 34., 36., 34.,
          26., 15., 24. ]
      - [ 14., 13., 7., 10., 17., 22., 10., 10., 16., 12., 9., 16., 21.,
          31., 9., 9. ]
      - [ 0., 0., 2., 2., 2., 1., 0., 2., 4., 4., 6., 14., 1., 4., 13.,
          1. ]
      - [ 9., 7., 26., 17., 19., 16., 21., 23., 16., 17., 24., 17., 39.,
          54., 14., 1. ]
      - [ 10., 1., 19., 22., 10., 9., 11., 37., 5., 24., 28., 10., 43.,
          68., 17., 1. ]
      - [ 3., 5., 8., 37., 7., 16., 38., 19., 0., 16., 3., 16., 56., 33.,
          24., 2. ]
      - [ 12., 12., 19., 47., 7., 59., 15., 23., 3., 23., 20., 17., 26.,
          15., 21., 5. ]
      - [ 23., 18., 23., 9., 20., 17., 22., 16., 22., 23., 30., 17., 16.,
          16., 12., 23. ]
      - [ 14., 9., 4., 46., 24., 3., 8., 20., 21., 6., 46., 2., 5., 12.,
          9., 18. ]
      - [ 7., 3., 7., 37., 12., 17., 19., 26., 8., 21., 14., 8., 47.,
          37., 14., 0. ]
      - [ 33., 18., 13., 28., 26., 12., 18., 25., 11., 17., 24., 47.,
          51., 26., 9., 11. ]
      - [ 10., 10., 16., 30., 8., 13., 16., 13., 12., 9., 15., 19., 22.,
          29., 20., 12. ]
      - [ 1., 8., 19., 30., 7., 43., 14., 9., 4., 26., 8., 6., 20., 22.,
          8., 1. ]
      - [ 12., 3., 29., 25., 10., 16., 11., 25., 1., 37., 13., 37., 44.,
          55., 29., 3. ]
      - [ 14., 20., 24., 10., 12., 33., 5., 5., 29., 25., 7., 21., 16.,
          25., 17., 10. ]
      - [ 10., 25., 24., 27., 22., 33., 23., 10., 43., 22., 22., 31., 9.,
          17., 15., 33. ]
      - [ 9., 17., 8., 21., 25., 3., 11., 20., 27., 13., 37., 36., 12.,
          8., 11., 30. ]
      - [ 5., 6., 31., 21., 25., 10., 15., 40., 5., 12., 23., 14., 66.,
          39., 15., 1. ]
      - [ 38., 20., 20., 10., 21., 5., 20., 26., 25., 28., 36., 14., 11.,
          16., 24., 29. ]
      - [ 15., 5., 25., 17., 9., 12., 1., 34., 20., 13., 23., 26., 43.,
          47., 12., 18. ]
      - [ 21., 12., 18., 20., 21., 2., 16., 27., 25., 19., 38., 24., 28.,
          36., 11., 13. ]
      - [ 27., 107., 32., 29., 26., 9., 12., 24., 64., 21., 21., 20.,
          12., 6., 23., 41. ]
      - [ 24., 52., 23., 26., 28., 15., 15., 37., 62., 25., 35., 19.,
          16., 10., 27., 45. ]
      - [ 49., 28., 27., 9., 40., 23., 16., 29., 33., 37., 46., 24., 25.,
          15., 35., 47. ]
      - [ 11., 10., 23., 22., 17., 20., 26., 44., 14., 26., 38., 31.,
          72., 72., 23., 12. ]
      - [ 16., 28., 25., 56., 32., 39., 29., 21., 8., 35., 15., 47., 23.,
          45., 14., 16. ]
      - [ 18., 47., 18., 30., 23., 33., 25., 19., 67., 27., 27., 14.,
          36., 9., 35., 24. ]
      - [ 25., 41., 33., 30., 36., 27., 28., 24., 27., 35., 29., 23.,
          33., 15., 37., 37. ]
      - [ 25., 47., 12., 23., 35., 6., 7., 31., 138., 9., 23., 14., 13.,
          6., 9., 68. ]
      - [ 21., 15., 25., 28., 20., 16., 17., 29., 24., 33., 32., 33.,
          50., 40., 31., 17. ]
      - [ 30., 16., 29., 47., 19., 26., 14., 34., 26., 12., 40., 50.,
          42., 13., 26., 15. ]
      - [ 44., 24., 21., 31., 41., 11., 28., 32., 26., 43., 36., 29.,
          39., 22., 21., 35. ]
      - [ 31., 20., 28., 34., 21., 20., 28., 16., 38., 44., 42., 27.,
          49., 19., 32., 31. ]
      - [ 40., 26., 31., 29., 31., 14., 38., 40., 18., 35., 37., 27.,
          37., 14., 42., 22. ]
      - [ 28., 12., 27., 43., 39., 16., 30., 23., 21., 27., 56., 43.,
          37., 23., 19., 25. ]
      - [ 7., 6., 25., 45., 12., 40., 30., 23., 5., 37., 44., 33., 52.,
          74., 17., 9. ]
      - [ 34., 11., 27., 62., 19., 34., 37., 31., 18., 48., 18., 62.,
          30., 19., 20., 12. ]
      - [ 21., 49., 17., 14., 23., 24., 16., 22., 76., 15., 33., 28.,
          16., 12., 7., 90. ]
      - [ 15., 17., 26., 29., 22., 34., 23., 38., 17., 19., 31., 66.,
          51., 33., 22., 11. ]
      - [ 25., 26., 42., 37., 27., 18., 47., 23., 36., 26., 36., 26.,
          28., 27., 33., 18. ]
      - [ 9., 3., 25., 46., 18., 10., 18., 28., 1., 27., 20., 38., 95.,
          72., 21., 10. ]
      - [ 28., 32., 18., 48., 51., 5., 14., 24., 27., 51., 27., 24., 20.,
          30., 13., 32. ]
      - [ 23., 32., 28., 42., 32., 31., 32., 29., 17., 30., 35., 41.,
          29., 25., 25., 30. ]
      - [ 23., 26., 15., 27., 22., 63., 26., 10., 11., 19., 16., 34.,
          21., 28., 33., 28. ]
      - [ 25., 26., 30., 28., 15., 16., 16., 33., 13., 37., 21., 34.,
          40., 32., 36., 27. ]
      - [ 32., 59., 29., 25., 35., 12., 18., 21., 33., 28., 22., 29.,
          12., 26., 19., 43. ]
      - [ 20., 21., 18., 19., 31., 17., 21., 42., 29., 20., 35., 37.,
          53., 50., 12., 34. ]
      - [ 31., 34., 17., 44., 39., 7., 17., 31., 43., 18., 34., 28., 11.,
          11., 17., 65. ]
      - [ 13., 39., 14., 17., 11., 26., 33., 6., 40., 9., 12., 64., 3.,
          10., 12., 37. ]
      - [ 12., 5., 28., 39., 20., 9., 27., 30., 6., 32., 24., 34., 64.,
          82., 26., 2. ]
      - [ 27., 38., 35., 29., 27., 9., 32., 24., 60., 28., 52., 32., 15.,
          12., 26., 40. ]
      - [ 6., 12., 23., 42., 12., 37., 26., 26., 6., 34., 19., 41., 39.,
          42., 12., 6. ]
      - [ 18., 28., 32., 39., 22., 24., 36., 32., 32., 20., 40., 34.,
          24., 45., 22., 16. ]
      - [ 44., 39., 18., 18., 36., 19., 28., 37., 75., 32., 28., 23.,
          13., 3., 30., 39. ]
      - [ 21., 12., 17., 44., 39., 6., 38., 39., 17., 33., 36., 34., 53.,
          47., 22., 21. ]
      - [ 51., 41., 20., 30., 30., 3., 37., 31., 32., 31., 34., 29., 17.,
          17., 30., 41. ]
      - [ 17., 17., 39., 34., 25., 47., 28., 19., 14., 36., 36., 47.,
          21., 25., 26., 16. ]
      - [ 17., 22., 38., 23., 35., 10., 24., 15., 4., 27., 10., 32., 65.,
          58., 15., 11. ]
      - [ 28., 12., 18., 47., 42., 7., 43., 37., 23., 13., 32., 28., 66.,
          56., 17., 12. ]
      - [ 4., 10., 33., 48., 2., 52., 9., 13., 13., 14., 7., 15., 47.,
          29., 10., 5. ]
      - [ 20., 33., 6., 17., 17., 28., 18., 9., 21., 10., 14., 12., 22.,
          14., 14., 20. ]
      - [ 17., 22., 28., 58., 41., 12., 29., 28., 29., 23., 32., 48.,
          21., 43., 20., 24. ]
      - [ 35., 19., 16., 30., 47., 12., 25., 21., 12., 34., 42., 82.,
          24., 23., 32., 32. ]
      - [ 17., 19., 24., 39., 26., 17., 11., 36., 8., 26., 24., 48., 51.,
          87., 17., 11. ]
      - [ 9., 22., 10., 47., 18., 7., 33., 23., 5., 36., 33., 40., 68.,
          50., 31., 9. ]
      - [ 26., 18., 24., 18., 21., 33., 11., 49., 21., 17., 40., 8., 47.,
          43., 22., 15. ]
      - [ 18., 33., 19., 39., 25., 17., 14., 36., 17., 17., 21., 31.,
          22., 42., 23., 12. ]
      - [ 15., 13., 20., 28., 15., 41., 18., 30., 8., 34., 24., 31., 50.,
          74., 31., 9. ]
      - [ 36., 69., 23., 19., 31., 14., 19., 42., 54., 37., 27., 16., 8.,
          18., 44., 37. ]
      - [ 12., 12., 12., 53., 24., 68., 24., 10., 37., 22., 25., 18.,
          39., 15., 9., 18. ]
      - [ 20., 61., 23., 30., 24., 32., 22., 35., 45., 17., 33., 13.,
          39., 20., 14., 27. ]
      - [ 16., 2., 19., 46., 13., 22., 29., 26., 10., 46., 43., 14., 86.,
          80., 20., 8. ]
      - [ 15., 6., 31., 19., 9., 36., 24., 16., 23., 32., 18., 47., 102.,
          78., 7., 6. ]
      - [ 17., 4., 20., 55., 4., 32., 33., 42., 21., 29., 50., 14., 73.,
          66., 12., 1. ]
      - [ 17., 17., 27., 38., 12., 31., 36., 21., 13., 44., 45., 13.,
          59., 55., 25., 18. ]
      - [ 15., 7., 28., 52., 7., 27., 34., 16., 10., 27., 15., 50., 91.,
          69., 16., 9. ]
      - [ 13., 10., 32., 45., 7., 12., 19., 43., 9., 49., 23., 30., 68.,
          106., 18., 0. ]
      - [ 16., 6., 24., 55., 8., 48., 7., 16., 7., 33., 39., 26., 88.,
          90., 19., 1. ]
      - [ 28., 7., 25., 20., 24., 16., 28., 22., 26., 34., 28., 18., 74.,
          80., 35., 19. ]
      - [ 30., 6., 27., 29., 7., 36., 40., 12., 17., 39., 27., 20., 85.,
          72., 31., 12. ]
      - [ 12., 12., 15., 49., 10., 28., 17., 33., 12., 36., 46., 21.,
          53., 86., 21., 19. ]
      - [ 9., 9., 21., 37., 13., 80., 47., 11., 26., 34., 33., 33., 57.,
          43., 20., 11. ]
      - [ 28., 18., 24., 24., 21., 16., 27., 18., 31., 29., 39., 56.,
          36., 66., 28., 22. ]
      - [ 18., 4., 16., 42., 12., 21., 39., 11., 7., 39., 36., 29., 97.,
          66., 25., 16. ]
      - [ 13., 10., 23., 59., 7., 26., 38., 25., 15., 37., 31., 20., 75.,
          65., 16., 4. ]
      - [ 27., 11., 17., 27., 21., 66., 44., 42., 17., 13., 29., 33.,
          39., 33., 20., 23. ]
      - [ 13., 8., 15., 38., 8., 31., 46., 24., 5., 51., 36., 35., 90.,
          43., 28., 9. ]
      - [ 29., 7., 42., 33., 9., 96., 31., 17., 24., 28., 37., 8., 38.,
          39., 37., 8. ]
      - [ 15., 12., 15., 28., 19., 32., 39., 14., 23., 39., 52., 21.,
          85., 52., 22., 14. ]
      - [ 7., 3., 29., 29., 11., 24., 32., 33., 8., 44., 41., 23., 114.,
          69., 12., 4. ]
      - [ 12., 3., 20., 43., 16., 56., 40., 6., 22., 44., 26., 31., 62.,
          74., 22., 4. ]
      - [ 16., 11., 34., 47., 20., 62., 43., 38., 14., 46., 23., 14.,
          39., 24., 43., 11. ]
      - [ 16., 11., 22., 37., 7., 17., 23., 24., 11., 30., 23., 43., 62.,
          111., 30., 10. ]
      - [ 23., 10., 23., 35., 10., 31., 18., 34., 22., 32., 24., 21.,
          90., 74., 28., 8. ]
      - [ 19., 3., 8., 53., 11., 21., 40., 44., 9., 25., 20., 26., 84.,
          90., 23., 2. ]
      - [ 7., 6., 29., 85., 11., 84., 49., 38., 11., 12., 16., 28., 28.,
          54., 9., 12. ]
      - [ 16., 8., 23., 74., 8., 44., 32., 17., 18., 34., 29., 34., 70.,
          44., 19., 15. ]
      - [ 21., 23., 17., 35., 12., 58., 37., 30., 20., 45., 37., 16.,
          44., 38., 43., 7. ]
      - [ 39., 11., 16., 57., 5., 38., 46., 14., 35., 31., 30., 31., 49.,
          29., 13., 19. ]
      - [ 15., 0., 13., 51., 18., 19., 22., 35., 0., 25., 26., 48., 76.,
          121., 12., 4. ]
      - [ 34., 11., 23., 30., 24., 46., 36., 29., 44., 16., 45., 21.,
          56., 23., 28., 16. ]
      - [ 31., 11., 41., 23., 13., 29., 29., 15., 17., 51., 30., 24.,
          65., 63., 38., 9. ]
      - [ 7., 8., 25., 72., 11., 38., 28., 28., 4., 30., 25., 45., 72.,
          61., 23., 4. ]
      - [ 19., 6., 23., 31., 20., 21., 22., 25., 12., 37., 27., 21., 96.,
          97., 20., 6. ]
      - [ 24., 9., 13., 31., 11., 25., 10., 25., 22., 38., 37., 21.,
          116., 61., 28., 4. ]
      - [ 11., 8., 21., 46., 15., 48., 35., 32., 12., 32., 36., 62., 38.,
          50., 30., 13. ]
      - [ 11., 11., 32., 26., 5., 69., 53., 26., 22., 30., 34., 21., 58.,
          36., 16., 17. ]
      - [ 17., 21., 18., 27., 15., 35., 32., 19., 46., 38., 25., 29.,
          60., 70., 22., 11. ]
      - [ 26., 22., 11., 25., 22., 66., 44., 17., 47., 25., 41., 14.,
          48., 15., 24., 29. ]
      - [ 18., 4., 25., 29., 18., 46., 54., 54., 25., 15., 39., 11., 39.,
          44., 23., 15. ]
      - [ 10., 0., 21., 38., 11., 86., 36., 17., 10., 23., 26., 33., 79.,
          61., 8., 11. ]
      - [ 10., 8., 31., 14., 6., 106., 30., 15., 12., 40., 24., 32., 54.,
          66., 21., 10. ]
      - [ 39., 20., 26., 32., 11., 38., 40., 22., 38., 28., 43., 33.,
          43., 26., 19., 27. ]
      - [ 29., 26., 22., 22., 8., 63., 30., 20., 27., 23., 38., 41., 40.,
          42., 19., 29. ]
      - [ 7., 10., 25., 65., 9., 33., 30., 37., 15., 35., 14., 28., 94.,
          61., 14., 9. ]
      - [ 20., 15., 43., 39., 17., 63., 30., 11., 5., 53., 16., 27., 58.,
          44., 33., 8. ]
      - [ 6., 7., 30., 18., 11., 71., 67., 28., 16., 26., 22., 35., 59.,
          52., 28., 9. ]
      - [ 8., 10., 28., 25., 16., 31., 59., 10., 27., 29., 35., 22., 67.,
          71., 30., 13. ]
      - [ 25., 16., 8., 45., 20., 6., 29., 44., 19., 24., 32., 28., 84.,
          73., 19., 10. ]
      - [ 16., 3., 17., 59., 5., 18., 54., 27., 8., 28., 31., 46., 70.,
          77., 14., 5. ]
      - [ 17., 2., 13., 56., 9., 21., 21., 19., 6., 41., 15., 32., 92.,
          106., 14., 10. ]
      - [ 22., 30., 24., 24., 38., 26., 37., 24., 29., 27., 39., 73.,
          22., 21., 19., 31. ]
      - [ 15., 39., 27., 32., 31., 47., 42., 48., 22., 18., 21., 35.,
          11., 34., 33., 27. ]
      - [ 36., 47., 14., 31., 31., 16., 67., 31., 30., 36., 9., 23., 14.,
          9., 59., 41. ]
      - [ 56., 45., 27., 12., 47., 6., 21., 24., 39., 46., 35., 16., 17.,
          4., 31., 54. ]
      - [ 31., 36., 30., 29., 32., 64., 33., 28., 30., 12., 20., 35.,
          25., 13., 32., 28. ]
      - [ 46., 37., 34., 24., 11., 30., 44., 18., 35., 26., 30., 19.,
          17., 19., 34., 52. ]
      - [ 28., 56., 36., 21., 35., 49., 35., 44., 18., 26., 24., 13.,
          13., 11., 43., 33. ]
      - [ 35., 51., 20., 28., 25., 8., 22., 23., 48., 36., 28., 19., 19.,
          13., 36., 68. ]
      - [ 68., 37., 16., 17., 69., 3., 13., 34., 69., 9., 37., 12., 8.,
          5., 17., 70. ]
      - [ 35., 40., 27., 34., 32., 5., 22., 29., 44., 34., 37., 20., 26.,
          18., 30., 50. ]
      - [ 31., 42., 19., 12., 11., 21., 22., 30., 53., 17., 54., 27.,
          23., 8., 38., 61. ]
      - [ 47., 25., 30., 24., 37., 12., 26., 50., 29., 23., 45., 32.,
          13., 26., 36., 33. ]
      - [ 25., 50., 17., 7., 31., 19., 38., 38., 69., 20., 46., 21., 6.,
          8., 18., 56. ]
      - [ 37., 51., 32., 24., 22., 17., 19., 35., 50., 29., 36., 29.,
          16., 11., 33., 38. ]
      - [ 32., 32., 35., 36., 26., 9., 31., 30., 35., 34., 42., 41., 14.,
          23., 26., 35. ]
      - [ 24., 27., 34., 20., 32., 31., 45., 18., 56., 24., 26., 51.,
          13., 7., 33., 42. ]
      - [ 50., 51., 38., 24., 21., 15., 36., 41., 41., 25., 27., 16., 4.,
          17., 36., 40. ]
      - [ 46., 36., 39., 27., 30., 10., 19., 21., 33., 28., 35., 24.,
          21., 23., 36., 50. ]
      - [ 50., 42., 21., 9., 43., 34., 21., 17., 49., 25., 28., 15., 16.,
          6., 34., 74. ]
      - [ 42., 26., 30., 15., 57., 16., 25., 29., 59., 25., 31., 20.,
          14., 8., 21., 65. ]
      - [ 44., 38., 18., 12., 30., 33., 38., 16., 68., 17., 38., 21., 4.,
          7., 25., 60. ]
      - [ 33., 52., 36., 19., 26., 3., 15., 43., 48., 20., 35., 42., 14.,
          18., 21., 53. ]
      - [ 37., 40., 23., 36., 38., 25., 26., 46., 30., 24., 53., 24.,
          17., 7., 32., 29. ]
      - [ 39., 44., 23., 37., 27., 9., 32., 31., 50., 36., 42., 20., 10.,
          15., 27., 40. ]
      - [ 28., 25., 17., 30., 27., 23., 35., 31., 44., 40., 19., 49.,
          30., 27., 14., 38. ]
      - [ 36., 46., 17., 31., 23., 36., 30., 34., 44., 20., 22., 33., 6.,
          14., 25., 58. ]
      - [ 28., 33., 25., 21., 27., 39., 54., 24., 40., 26., 51., 19., 8.,
          8., 46., 33. ]
      - [ 29., 19., 20., 23., 50., 27., 43., 34., 23., 37., 16., 64.,
          16., 25., 22., 35. ]
      - [ 25., 33., 38., 33., 23., 35., 26., 23., 35., 24., 28., 48.,
          20., 21., 26., 25. ]
      - [ 57., 73., 13., 19., 42., 3., 22., 16., 70., 16., 14., 34., 4.,
          5., 24., 77. ]
      - [ 43., 47., 19., 21., 26., 11., 14., 22., 87., 18., 43., 21., 9.,
          8., 28., 66. ]
      - [ 34., 62., 17., 21., 31., 19., 23., 15., 86., 9., 20., 18., 19.,
          4., 32., 48. ]
      - [ 27., 79., 20., 32., 36., 15., 29., 34., 66., 26., 22., 15., 9.,
          6., 18., 50. ]
      - [ 20., 42., 19., 28., 36., 20., 35., 37., 36., 13., 24., 64., 8.,
          17., 25., 50. ]
      - [ 49., 32., 34., 11., 32., 10., 27., 28., 61., 18., 51., 18., 7.,
          13., 30., 57. ]
      - [ 25., 41., 24., 25., 38., 8., 23., 44., 56., 24., 31., 29., 9.,
          11., 25., 72. ]
      - [ 50., 62., 15., 32., 47., 2., 27., 25., 54., 16., 31., 15., 7.,
          8., 25., 69. ]
      - [ 38., 55., 31., 18., 24., 20., 52., 21., 39., 42., 27., 28., 9.,
          10., 36., 31. ]
      - [ 37., 33., 23., 21., 34., 17., 30., 29., 68., 26., 45., 13.,
          23., 15., 34., 40. ]
      - [ 46., 45., 26., 35., 26., 18., 32., 22., 53., 26., 31., 21.,
          19., 11., 30., 40. ]
      - [ 60., 40., 26., 13., 38., 5., 33., 25., 62., 16., 39., 24., 7.,
          6., 18., 66. ]
      - [ 26., 35., 19., 35., 20., 8., 22., 33., 68., 44., 44., 16., 30.,
          10., 21., 50. ]
      - [ 37., 67., 40., 18., 28., 9., 25., 17., 81., 27., 33., 9., 3.,
          4., 20., 64. ]
      - [ 21., 27., 19., 25., 34., 15., 17., 33., 50., 16., 66., 58.,
          13., 21., 18., 51. ]
      - [ 50., 55., 28., 12., 35., 6., 23., 29., 63., 18., 24., 27., 5.,
          8., 35., 65. ]
      - [ 22., 39., 31., 30., 23., 21., 26., 19., 56., 49., 27., 45.,
          21., 24., 25., 22. ]
      - [ 60., 50., 14., 18., 39., 10., 19., 23., 73., 13., 32., 12., 9.,
          11., 30., 63. ]
      - [ 42., 43., 32., 22., 34., 12., 16., 29., 50., 21., 37., 7., 21.,
          23., 28., 63. ]
      - [ 22., 55., 36., 26., 29., 18., 35., 35., 71., 31., 22., 14.,
          12., 6., 26., 42. ]
      - [ 29., 36., 30., 33., 38., 6., 26., 38., 35., 35., 21., 37., 31.,
          42., 30., 23. ]
      - [ 27., 107., 32., 29., 26., 9., 12., 24., 64., 21., 21., 20.,
          12., 6., 23., 41. ]
      - [ 24., 52., 23., 26., 28., 15., 15., 37., 62., 25., 35., 19.,
          16., 10., 27., 45. ]
      - [ 49., 28., 27., 9., 40., 23., 16., 29., 33., 37., 46., 24., 25.,
          15., 35., 47. ]
      - [ 11., 10., 23., 22., 17., 20., 26., 44., 14., 26., 38., 31.,
          72., 72., 23., 12. ]
      - [ 16., 28., 25., 56., 32., 39., 29., 21., 8., 35., 15., 47., 23.,
          45., 14., 16. ]
      - [ 18., 47., 18., 30., 23., 33., 25., 19., 67., 27., 27., 14.,
          36., 9., 35., 24. ]
      - [ 25., 41., 33., 30., 36., 27., 28., 24., 27., 35., 29., 23.,
          33., 15., 37., 37. ]
      - [ 25., 47., 12., 23., 35., 6., 7., 31., 138., 9., 23., 14., 13.,
          6., 9., 68. ]
      - [ 21., 15., 25., 28., 20., 16., 17., 29., 24., 33., 32., 33.,
          50., 40., 31., 17. ]
      - [ 30., 16., 29., 47., 19., 26., 14., 34., 26., 12., 40., 50.,
          42., 13., 26., 15. ]
      - [ 44., 24., 21., 31., 41., 11., 28., 32., 26., 43., 36., 29.,
          39., 22., 21., 35. ]
      - [ 31., 20., 28., 34., 21., 20., 28., 16., 38., 44., 42., 27.,
          49., 19., 32., 31. ]
      - [ 40., 26., 31., 29., 31., 14., 38., 40., 18., 35., 37., 27.,
          37., 14., 42., 22. ]
      - [ 28., 12., 27., 43., 39., 16., 30., 23., 21., 27., 56., 43.,
          37., 23., 19., 25. ]
      - [ 7., 6., 25., 45., 12., 40., 30., 23., 5., 37., 44., 33., 52.,
          74., 17., 9. ]
      - [ 34., 11., 27., 62., 19., 34., 37., 31., 18., 48., 18., 62.,
          30., 19., 20., 12. ]
      - [ 21., 49., 17., 14., 23., 24., 16., 22., 76., 15., 33., 28.,
          16., 12., 7., 90. ]
      - [ 15., 17., 26., 29., 22., 34., 23., 38., 17., 19., 31., 66.,
          51., 33., 22., 11. ]
      - [ 25., 26., 42., 37., 27., 18., 47., 23., 36., 26., 36., 26.,
          28., 27., 33., 18. ]
      - [ 9., 3., 25., 46., 18., 10., 18., 28., 1., 27., 20., 38., 95.,
          72., 21., 10. ]
      - [ 28., 32., 18., 48., 51., 5., 14., 24., 27., 51., 27., 24., 20.,
          30., 13., 32. ]
      - [ 23., 32., 28., 42., 32., 31., 32., 29., 17., 30., 35., 41.,
          29., 25., 25., 30. ]
      - [ 23., 26., 15., 27., 22., 63., 26., 10., 11., 19., 16., 34.,
          21., 28., 33., 28. ]
      - [ 25., 26., 30., 28., 15., 16., 16., 33., 13., 37., 21., 34.,
          40., 32., 36., 27. ]
      - [ 32., 59., 29., 25., 35., 12., 18., 21., 33., 28., 22., 29.,
          12., 26., 19., 43. ]
      - [ 20., 21., 18., 19., 31., 17., 21., 42., 29., 20., 35., 37.,
          53., 50., 12., 34. ]
      - [ 31., 34., 17., 44., 39., 7., 17., 31., 43., 18., 34., 28., 11.,
          11., 17., 65. ]
      - [ 13., 39., 14., 17., 11., 26., 33., 6., 40., 9., 12., 64., 3.,
          10., 12., 37. ]
      - [ 12., 5., 28., 39., 20., 9., 27., 30., 6., 32., 24., 34., 64.,
          82., 26., 2. ]
      - [ 27., 38., 35., 29., 27., 9., 32., 24., 60., 28., 52., 32., 15.,
          12., 26., 40. ]
      - [ 6., 12., 23., 42., 12., 37., 26., 26., 6., 34., 19., 41., 39.,
          42., 12., 6. ]
      - [ 18., 28., 32., 39., 22., 24., 36., 32., 32., 20., 40., 34.,
          24., 45., 22., 16. ]
      - [ 44., 39., 18., 18., 36., 19., 28., 37., 75., 32., 28., 23.,
          13., 3., 30., 39. ]
      - [ 21., 12., 17., 44., 39., 6., 38., 39., 17., 33., 36., 34., 53.,
          47., 22., 21. ]
      - [ 51., 41., 20., 30., 30., 3., 37., 31., 32., 31., 34., 29., 17.,
          17., 30., 41. ]
      - [ 17., 17., 39., 34., 25., 47., 28., 19., 14., 36., 36., 47.,
          21., 25., 26., 16. ]
      - [ 17., 22., 38., 23., 35., 10., 24., 15., 4., 27., 10., 32., 65.,
          58., 15., 11. ]
      - [ 28., 12., 18., 47., 42., 7., 43., 37., 23., 13., 32., 28., 66.,
          56., 17., 12. ]
      - [ 4., 10., 33., 48., 2., 52., 9., 13., 13., 14., 7., 15., 47.,
          29., 10., 5. ]
      - [ 20., 33., 6., 17., 17., 28., 18., 9., 21., 10., 14., 12., 22.,
          14., 14., 20. ]
      - [ 17., 22., 28., 58., 41., 12., 29., 28., 29., 23., 32., 48.,
          21., 43., 20., 24. ]
      - [ 35., 19., 16., 30., 47., 12., 25., 21., 12., 34., 42., 82.,
          24., 23., 32., 32. ]
      - [ 17., 19., 24., 39., 26., 17., 11., 36., 8., 26., 24., 48., 51.,
          87., 17., 11. ]
      - [ 9., 22., 10., 47., 18., 7., 33., 23., 5., 36., 33., 40., 68.,
          50., 31., 9. ]
      - [ 26., 18., 24., 18., 21., 33., 11., 49., 21., 17., 40., 8., 47.,
          43., 22., 15. ]
      - [ 18., 33., 19., 39., 25., 17., 14., 36., 17., 17., 21., 31.,
          22., 42., 23., 12. ]
      - [ 15., 13., 20., 28., 15., 41., 18., 30., 8., 34., 24., 31., 50.,
          74., 31., 9. ]
      - [ 36., 69., 23., 19., 31., 14., 19., 42., 54., 37., 27., 16., 8.,
          18., 44., 37. ]
      - [ 12., 12., 12., 53., 24., 68., 24., 10., 37., 22., 25., 18.,
          39., 15., 9., 18. ]
      - [ 20., 61., 23., 30., 24., 32., 22., 35., 45., 17., 33., 13.,
          39., 20., 14., 27. ]
   decision_functions:
      -
         sv_count: 94
         rho: -4.3333333333333335e-01
         alpha: [ 5.6666666269302368e-01, 5.6666666269302368e-01,
             5.6666666269302368e-01, 5.6666666269302368e-01,
             5.6666666269302368e-01, 5.6666666269302368e-01,
             5.6666666269302368e-01, 5.6666666269302368e-01,
             5.6666666269302368e-01, 5.6666666269302368e-01,
             5.6666666269302368e-01, 5.6666666269302368e-01,
             5.6666666269302368e-01, 5.6666666269302368e-01,
             5.6666666269302368e-01, 5.6666666269302368e-01,
             5.6666666269302368e-01, 5.6666666269302368e-01,
             5.6666666269302368e-01, 5.6666666269302368e-01,
             5.6666666269302368e-01, 5.6666666269302368e-01,
             5.6666666269302368e-01, 5.6666666269302368e-01,
             5.6666666269302368e-01, 5.6666666269302368e-01,
             5.6666666269302368e-01, 5.6666666269302368e-01,
             5.6666666269302368e-01, 5.6666666269302368e-01,
             5.6666672229766846e-01, 5.6666672229766846e-01,
             5.6666672229766846e-01, 5.6666672229766846e-01,
             5.6666666269302368e-01, 5.6666666269302368e-01,
             5.6666666269302368e-01, 5.6666666269302368e-01,
             5.6666666269302368e-01, 5.6666666269302368e-01,
             5.6666666269302368e-01, 5.6666666269302368e-01,
             5.6666666269302368e-01, 5.6666666269302368e-01,
             5.6666666269302368e-01, 5.6666666269302368e-01,
             5.6666666269302368e-01, 5.6666666269302368e-01,
             5.6666666269302368e-01, 5.6666666269302368e-01,
             5.6666666269302368e-01, 5.6666666269302368e-01,
             5.6666666269302368e-01, 5.6666666269302368e-01,
             5.6666666269302368e-01, 5.6666666269302368e-01,
             5.6666666269302368e-01, 5.6666666269302368e-01,
             5.6666666269302368e-01, 5.6666666269302368e-01, -1., -1.,
             -1., -1., -1., -1., -1., -1., -1., -1., -1., -1., -1., -1.,
             -1., -1., -1., -1., -1., -1., -1., -1., -1., -1., -1., -1.,
             -1., -1., -1., -1., -1., -1., -1., -1. ]
         index: [ 46, 31, 32, 33, 34, 35, 36, 37, 38, 39, 40, 41, 42, 43,
             44, 45, 1, 47, 48, 49, 50, 51, 52, 53, 54, 55, 56, 57, 58,
             59, 0, 29, 2, 3, 4, 5, 6, 7, 8, 9, 10, 11, 12, 13, 14, 15,
             17, 16, 30, 28, 27, 26, 25, 24, 23, 22, 21, 20, 19, 18, 77,
             78, 79, 80, 81, 82, 83, 84, 85, 86, 88, 89, 90, 91, 92, 93,
             87, 75, 76, 61, 62, 63, 64, 65, 66, 60, 67, 68, 69, 70, 71,
             72, 73, 74 ]
      -
         sv_count: 75
         rho: -7.5000000000000000e-01
         alpha: [ 2.5000000000000000e-01, 2.5000000000000000e-01,
             2.5000000000000000e-01, 2.5000000000000000e-01,
             2.5000000000000000e-01, 2.5000000000000000e-01,
             2.5000000000000000e-01, 2.5000000000000000e-01,
             2.5000000000000000e-01, 2.5000000000000000e-01,
             2.5000000000000000e-01, 2.5000000000000000e-01,
             2.5000000000000000e-01, 2.5000000000000000e-01,
             2.5000000000000000e-01, 2.5000000000000000e-01,
             2.5000000000000000e-01, 2.5000000000000000e-01,
             2.5000000000000000e-01, 2.5000000000000000e-01,
             2.5000000000000000e-01, 2.5000000000000000e-01,
             2.5000000000000000e-01, 2.5000000000000000e-01,
             2.5000000000000000e-01, 2.5000000000000000e-01,
             2.5000000000000000e-01, 2.5000000000000000e-01,
             2.5000000000000000e-01, 2.5000000000000000e-01,
             2.5000000000000000e-01, 2.5000000000000000e-01,
             2.5000000000000000e-01, 2.5000000000000000e-01,
             2.5000000000000000e-01, 2.5000000000000000e-01,
             2.5000000000000000e-01, 2.5000000000000000e-01,
             2.5000000000000000e-01, 2.5000000000000000e-01,
             2.5000000000000000e-01, 2.5000000000000000e-01,
             2.5000000000000000e-01, 2.5000000000000000e-01,
             2.5000000000000000e-01, 2.5000000000000000e-01,
             2.5000000000000000e-01, 2.5000000000000000e-01,
             2.5000000000000000e-01, 2.5000000000000000e-01,
             2.5000000000000000e-01, 2.5000000000000000e-01,
             2.5000000000000000e-01, 2.5000000000000000e-01,
             2.5000000000000000e-01, 2.5000000000000000e-01,
             2.5000000000000000e-01, 2.5000000000000000e-01,
             2.5000000000000000e-01, 2.5000000000000000e-01, -1., -1.,
             -1., -1., -1., -1., -1., -1., -1., -1., -1., -1., -1., -1.,
             -1. ]
         index: [ 46, 31, 32, 33, 34, 35, 36, 37, 38, 39, 40, 41, 42, 43,
             44, 45, 1, 47, 48, 49, 50, 51, 52, 53, 54, 55, 56, 57, 58,
             59, 0, 29, 2, 3, 4, 5, 6, 7, 8, 9, 10, 11, 12, 13, 14, 15,
             17, 16, 30, 28, 27, 26, 25, 24, 23, 22, 21, 20, 19, 18, 103,
             108, 107, 106, 105, 104, 102, 100, 101, 99, 98, 97, 96, 95,
             94 ]
      -
         sv_count: 100
         rho: -3.3333333333333331e-01
         alpha: [ 6.6666668653488159e-01, 6.6666668653488159e-01,
             6.6666668653488159e-01, 6.6666668653488159e-01,
             6.6666668653488159e-01, 6.6666668653488159e-01,
             6.6666668653488159e-01, 6.6666668653488159e-01,
             6.6666668653488159e-01, 6.6666668653488159e-01,
             6.6666668653488159e-01, 6.6666668653488159e-01,
             6.6666668653488159e-01, 6.6666668653488159e-01,
             6.6666668653488159e-01, 6.6666668653488159e-01,
             6.6666668653488159e-01, 6.6666668653488159e-01,
             6.6666668653488159e-01, 6.6666668653488159e-01,
             6.6666668653488159e-01, 6.6666668653488159e-01,
             6.6666668653488159e-01, 6.6666668653488159e-01,
             6.6666668653488159e-01, 6.6666668653488159e-01,
             6.6666668653488159e-01, 6.6666668653488159e-01,
             6.6666668653488159e-01, 6.6666668653488159e-01,
             6.6666668653488159e-01, 6.6666668653488159e-01,
             6.6666668653488159e-01, 6.6666668653488159e-01,
             6.6666668653488159e-01, 6.6666668653488159e-01,
             6.6666668653488159e-01, 6.6666668653488159e-01,
             6.6666668653488159e-01, 6.6666668653488159e-01,
             6.6666662693023682e-01, 6.6666662693023682e-01,
             6.6666662693023682e-01, 6.6666662693023682e-01,
             6.6666662693023682e-01, 6.6666662693023682e-01,
             6.6666662693023682e-01, 6.6666662693023682e-01,
             6.6666662693023682e-01, 6.6666662693023682e-01,
             6.6666662693023682e-01, 6.6666662693023682e-01,
             6.6666662693023682e-01, 6.6666662693023682e-01,
             6.6666662693023682e-01, 6.6666662693023682e-01,
             6.6666662693023682e-01, 6.6666662693023682e-01,
             6.6666662693023682e-01, 6.6666662693023682e-01, -1., -1.,
             -1., -1., -1., -1., -1., -1., -1., -1., -1., -1., -1., -1.,
             -1., -1., -1., -1., -1., -1., -1., -1., -1., -1., -1., -1.,
             -1., -1., -1., -1., -1., -1., -1., -1., -1., -1., -1., -1.,
             -1., -1. ]
         index: [ 46, 31, 32, 33, 34, 35, 36, 37, 38, 39, 40, 41, 42, 43,
             44, 45, 1, 47, 48, 49, 50, 51, 52, 53, 54, 55, 56, 57, 58,
             59, 0, 29, 2, 3, 4, 5, 6, 7, 8, 9, 10, 11, 12, 13, 14, 15,
             17, 16, 30, 28, 27, 26, 25, 24, 23, 22, 21, 20, 19, 18, 138,
             130, 137, 136, 135, 134, 133, 132, 131, 139, 140, 141, 142,
             143, 144, 145, 146, 147, 148, 125, 128, 129, 109, 110, 111,
             112, 113, 114, 115, 116, 117, 119, 120, 121, 122, 123, 124,
             126, 127, 118 ]
      -
         sv_count: 110
         rho: -1.6666666666666669e-01
         alpha: [ 8.3333337305225930e-01, 8.3333337305225930e-01,
             8.3333337305225930e-01, 8.3333337305225930e-01,
             8.3333337306159472e-01, 8.3333337306159472e-01,
             8.3333337306159472e-01, 8.3333337306159472e-01,
             8.3333337305225930e-01, 8.3333337305225930e-01,
             8.3333337305225930e-01, 8.3333337305225930e-01,
             8.3333337305225930e-01, 8.3333337305225930e-01,
             8.3333337305225930e-01, 8.3333337305225930e-01,
             8.3333337305225930e-01, 8.3333337305225930e-01,
             8.3333337305225930e-01, 8.3333337305225930e-01,
             8.3333325389548141e-01, 8.3333337305225930e-01,
             8.3333337305225930e-01, 8.3333337305225930e-01,
             8.3333337305225930e-01, 8.3333325389548141e-01,
             8.3333325389548141e-01, 8.3333325389548141e-01,
             8.3333325389548141e-01, 8.3333325389548141e-01,
             8.3333325389548141e-01, 8.3333325389548141e-01,
             8.3333325389548141e-01, 8.3333337305225930e-01,
             8.3333337305225930e-01, 8.3333337305225930e-01,
             8.3333337305225930e-01, 8.3333337305225930e-01,
             8.3333337305225930e-01, 8.3333337305225930e-01,
             8.3333337305225930e-01, 8.3333325389548141e-01,
             8.3333325389548141e-01, 8.3333325389548141e-01,
             8.3333337306159472e-01, 8.3333337306159472e-01,
             8.3333337306159472e-01, 8.3333337306159472e-01,
             8.3333337305225930e-01, 8.3333337305225930e-01,
             8.3333337305225930e-01, 8.3333337305225930e-01,
             8.3333325387681056e-01, 8.3333325387681056e-01,
             8.3333325387681056e-01, 8.3333325387681056e-01,
             8.3333325389548141e-01, 8.3333325389548141e-01,
             8.3333325389548141e-01, 8.3333325389548141e-01, -1., -1.,
             -1., -1., -1., -1., -1., -1., -1., -1., -1., -1., -1., -1.,
             -1., -1., -1., -1., -1., -1., -1., -1., -1., -1., -1., -1.,
             -1., -1., -1., -1., -1., -1., -1., -1., -1., -1., -1., -1.,
             -1., -1., -1., -1., -1., -1., -1., -1., -1., -1., -1., -1. ]
         index: [ 46, 31, 32, 33, 34, 35, 36, 37, 38, 39, 40, 41, 42, 43,
             44, 45, 1, 47, 48, 49, 50, 51, 52, 53, 54, 55, 56, 57, 58,
             59, 0, 29, 2, 3, 4, 5, 6, 7, 8, 9, 10, 11, 12, 13, 14, 15,
             17, 16, 30, 28, 27, 26, 25, 24, 23, 22, 21, 20, 19, 18, 186,
             185, 184, 183, 182, 181, 180, 179, 178, 177, 176, 175, 187,
             188, 189, 190, 191, 192, 193, 194, 195, 196, 197, 198, 164,
             173, 174, 150, 151, 152, 153, 154, 155, 156, 157, 158, 159,
             160, 162, 172, 171, 170, 169, 168, 167, 166, 165, 149, 163,
             161 ]
      -
         sv_count: 75
         rho: -7.5000000000000000e-01
         alpha: [ 2.5000000000000000e-01, 2.5000000000000000e-01,
             2.5000000000000000e-01, 2.5000000000000000e-01,
             2.5000000000000000e-01, 2.5000000000000000e-01,
             2.5000000000000000e-01, 2.5000000000000000e-01,
             2.5000000000000000e-01, 2.5000000000000000e-01,
             2.5000000000000000e-01, 2.5000000000000000e-01,
             2.5000000000000000e-01, 2.5000000000000000e-01,
             2.5000000000000000e-01, 2.5000000000000000e-01,
             2.5000000000000000e-01, 2.5000000000000000e-01,
             2.5000000000000000e-01, 2.5000000000000000e-01,
             2.5000000000000000e-01, 2.5000000000000000e-01,
             2.5000000000000000e-01, 2.5000000000000000e-01,
             2.5000000000000000e-01, 2.5000000000000000e-01,
             2.5000000000000000e-01, 2.5000000000000000e-01,
             2.5000000000000000e-01, 2.5000000000000000e-01,
             2.5000000000000000e-01, 2.5000000000000000e-01,
             2.5000000000000000e-01, 2.5000000000000000e-01,
             2.5000000000000000e-01, 2.5000000000000000e-01,
             2.5000000000000000e-01, 2.5000000000000000e-01,
             2.5000000000000000e-01, 2.5000000000000000e-01,
             2.5000000000000000e-01, 2.5000000000000000e-01,
             2.5000000000000000e-01, 2.5000000000000000e-01,
             2.5000000000000000e-01, 2.5000000000000000e-01,
             2.5000000000000000e-01, 2.5000000000000000e-01,
             2.5000000000000000e-01, 2.5000000000000000e-01,
             2.5000000000000000e-01, 2.5000000000000000e-01,
             2.5000000000000000e-01, 2.5000000000000000e-01,
             2.5000000000000000e-01, 2.5000000000000000e-01,
             2.5000000000000000e-01, 2.5000000000000000e-01,
             2.5000000000000000e-01, 2.5000000000000000e-01, -1., -1.,
             -1., -1., -1., -1., -1., -1., -1., -1., -1., -1., -1., -1.,
             -1. ]
         index: [ 46, 31, 32, 33, 34, 35, 36, 37, 38, 39, 40, 41, 42, 43,
             44, 45, 1, 47, 48, 49, 50, 51, 52, 53, 54, 55, 56, 57, 58,
             59, 0, 29, 2, 3, 4, 5, 6, 7, 8, 9, 10, 11, 12, 13, 14, 15,
             17, 16, 30, 28, 27, 26, 25, 24, 23, 22, 21, 20, 19, 18, 205,
             213, 212, 211, 210, 209, 208, 207, 206, 204, 203, 202, 201,
             200, 199 ]
      -
         sv_count: 105
         rho: -2.6229508196721313e-01
         alpha: [ 7.3770493268966675e-01, 7.3770493268966675e-01,
             7.3770493268966675e-01, 7.3770493268966675e-01,
             7.3770493268966675e-01, 7.3770493268966675e-01,
             7.3770493268966675e-01, 7.3770493268966675e-01,
             7.3770493268966675e-01, 7.3770493268966675e-01,
             7.3770493268966675e-01, 7.3770493268966675e-01,
             7.3770493268966675e-01, 7.3770493268966675e-01,
             7.3770493268966675e-01, 7.3770493268966675e-01,
             7.3770493268966675e-01, 7.3770493268966675e-01,
             7.3770493268966675e-01, 7.3770493268966675e-01,
             7.3770493268966675e-01, 7.3770493268966675e-01,
             7.3770493268966675e-01, 7.3770493268966675e-01,
             7.3770493268966675e-01, 7.3770487308502197e-01,
             7.3770487308502197e-01, 7.3770487308502197e-01,
             7.3770487308502197e-01, 7.3770487308502197e-01,
             7.3770487308502197e-01, 7.3770487308502197e-01,
             7.3770487308502197e-01, 7.3770487308502197e-01,
             7.3770487308502197e-01, 7.3770493268966675e-01,
             7.3770493268966675e-01, 7.3770493268966675e-01,
             7.3770493268966675e-01, 7.3770493268966675e-01,
             7.3770493268966675e-01, 7.3770493268966675e-01,
             7.3770493268966675e-01, 7.3770493268966675e-01,
             7.3770493268966675e-01, 7.3770493268966675e-01,
             7.3770493268966675e-01, 7.3770493268966675e-01,
             7.3770493268966675e-01, 7.3770487308502197e-01,
             7.3770487308502197e-01, 7.3770493268966675e-01,
             7.3770493268966675e-01, 7.3770493268966675e-01,
             7.3770493268966675e-01, 7.3770493268966675e-01,
             7.3770493268966675e-01, 7.3770487308502197e-01,
             7.3770487308502197e-01, 7.3770487308502197e-01, -1., -1.,
             -1., -1., -1., -1., -1., -1., -1., -1., -1., -1., -1., -1.,
             -1., -1., -1., -1., -1., -1., -1., -1., -1., -1., -1.,
             -2.6229506731033325e-01, -1., -1., -1., -1., -1., -1., -1.,
             -1., -1., -1., -1., -1., -1., -1., -1., -1., -1., -1., -1. ]
         index: [ 46, 31, 32, 33, 34, 35, 36, 37, 38, 39, 40, 41, 42, 43,
             44, 45, 1, 47, 48, 49, 50, 51, 52, 53, 54, 55, 56, 57, 58,
             59, 0, 29, 2, 3, 4, 5, 6, 7, 8, 9, 10, 11, 12, 13, 14, 15,
             17, 16, 30, 28, 27, 26, 25, 24, 23, 22, 21, 20, 19, 18, 247,
             237, 246, 245, 244, 243, 242, 241, 240, 239, 238, 248, 249,
             250, 252, 253, 254, 255, 256, 257, 258, 251, 235, 236, 214,
             215, 216, 217, 218, 219, 220, 221, 222, 223, 225, 224, 234,
             233, 232, 231, 230, 229, 228, 227, 226 ]
      -
         sv_count: 90
         rho: -4.9999999999999994e-01
         alpha: [ 5.0000000000000000e-01, 5.0000000000000000e-01,
             5.0000000000000000e-01, 5.0000000000000000e-01,
             5.0000000000000000e-01, 5.0000000000000000e-01,
             5.0000000000000000e-01, 5.0000000000000000e-01,
             5.0000000000000000e-01, 5.0000000000000000e-01,
             5.0000000000000000e-01, 5.0000000000000000e-01,
             5.0000000000000000e-01, 5.0000000000000000e-01,
             5.0000000000000000e-01, 5.0000000000000000e-01,
             5.0000000000000000e-01, 5.0000000000000000e-01,
             4.9999999999999956e-01, 4.9999999999999684e-01,
             4.9999999999872269e-01, 4.9999999999056216e-01,
             4.9999999981043597e-01, 4.9999999981026311e-01,
             5.0000002112681108e-01, 4.9999995313226708e-01,
             4.9999995313226697e-01, 5.0000002593593162e-01,
             5.0000002593593162e-01, 5.0000002112681108e-01,
             5.0000000000000000e-01, 5.0000000000000000e-01,
             5.0000000000000000e-01, 5.0000000000000000e-01,
             5.0000000000000000e-01, 5.0000000000000000e-01,
             5.0000000000000000e-01, 5.0000000000000000e-01,
             5.0000000000000000e-01, 5.0000000000000000e-01,
             5.0000000000000000e-01, 5.0000000000000000e-01,
             5.0000000000000000e-01, 5.0000000000000000e-01,
             5.0000000000000000e-01, 5.0000000000000000e-01,
             5.0000000000000000e-01, 5.0000000000000000e-01,
             4.9999999999999956e-01, 5.0000002112681119e-01,
             4.9999999999999684e-01, 4.9999999999872269e-01,
             4.9999995313226708e-01, 4.9999999999056216e-01,
             5.0000002593593162e-01, 4.9999999981043597e-01,
             4.9999999981026311e-01, 4.9999995313226697e-01,
             5.0000002593593162e-01, 5.0000002112681108e-01, -1., -1.,
             -1., -1., -1., -1., -1., -1., -1., -1., -1., -1., -1., -1.,
             -1., -1., -1., -1., -1., -1., -1., -1., -1., -1., -1., -1.,
             -1., -1., -1., -1. ]
         index: [ 46, 31, 32, 33, 34, 35, 36, 37, 38, 39, 40, 41, 42, 43,
             44, 45, 1, 47, 48, 49, 50, 51, 52, 53, 54, 55, 56, 57, 58,
             59, 0, 29, 2, 3, 4, 5, 6, 7, 8, 9, 10, 11, 12, 13, 14, 15,
             17, 16, 30, 28, 27, 26, 25, 24, 23, 22, 21, 20, 19, 18, 274,
             275, 276, 277, 278, 279, 280, 281, 282, 283, 284, 285, 286,
             287, 288, 272, 273, 259, 260, 261, 262, 263, 264, 265, 266,
             267, 268, 269, 270, 271 ]
      -
         sv_count: 90
         rho: -5.0000000000000000e-01
         alpha: [ 5.0000000000000000e-01, 5.0000000000000000e-01,
             5.0000000000000000e-01, 5.0000000000000000e-01,
             5.0000000000000000e-01, 5.0000000000000000e-01,
             5.0000000000000000e-01, 5.0000000000000000e-01,
             5.0000000000000000e-01, 5.0000000000000000e-01,
             5.0000000000000000e-01, 5.0000000000000000e-01,
             5.0000000000000000e-01, 5.0000000000000000e-01,
             5.0000000000000000e-01, 5.0000000000000000e-01,
             5.0000000000000000e-01, 5.0000000000000000e-01,
             5.0000000000000000e-01, 5.0000000000000000e-01,
             5.0000000000000000e-01, 5.0000000000000000e-01,
             5.0000000000000000e-01, 5.0000000000000000e-01,
             5.0000000000000000e-01, 5.0000000000000000e-01,
             5.0000000000000000e-01, 5.0000000000000000e-01,
             5.0000000000000000e-01, 5.0000000000000000e-01,
             5.0000000000000000e-01, 5.0000000000000000e-01,
             5.0000000000000000e-01, 5.0000000000000000e-01,
             5.0000000000000000e-01, 5.0000000000000000e-01,
             5.0000000000000000e-01, 5.0000000000000000e-01,
             5.0000000000000000e-01, 5.0000000000000000e-01,
             5.0000000000000000e-01, 5.0000000000000000e-01,
             5.0000000000000000e-01, 5.0000000000000000e-01,
             5.0000000000000000e-01, 5.0000000000000000e-01,
             5.0000000000000000e-01, 5.0000000000000000e-01,
             5.0000000000000000e-01, 5.0000000000000000e-01,
             5.0000000000000000e-01, 5.0000000000000000e-01,
             5.0000000000000000e-01, 5.0000000000000000e-01,
             5.0000000000000000e-01, 5.0000000000000000e-01,
             5.0000000000000000e-01, 5.0000000000000000e-01,
             5.0000000000000000e-01, 5.0000000000000000e-01, -1., -1.,
             -1., -1., -1., -1., -1., -1., -1., -1., -1., -1., -1., -1.,
             -1., -1., -1., -1., -1., -1., -1., -1., -1., -1., -1., -1.,
             -1., -1., -1., -1. ]
         index: [ 46, 31, 32, 33, 34, 35, 36, 37, 38, 39, 40, 41, 42, 43,
             44, 45, 1, 47, 48, 49, 50, 51, 52, 53, 54, 55, 56, 57, 58,
             59, 0, 29, 2, 3, 4, 5, 6, 7, 8, 9, 10, 11, 12, 13, 14, 15,
             17, 16, 30, 28, 27, 26, 25, 24, 23, 22, 21, 20, 19, 18, 301,
             306, 305, 307, 308, 309, 310, 311, 312, 313, 314, 315, 316,
             317, 318, 303, 289, 290, 291, 292, 293, 294, 295, 296, 297,
             298, 299, 300, 302, 304 ]
      -
         sv_count: 79
         rho: -6.8333333333333335e-01
         alpha: [ 3.1666666269302368e-01, 3.1666666269302368e-01,
             3.1666666269302368e-01, 3.1666666269302368e-01,
             3.1666666269302368e-01, 3.1666666269302368e-01,
             3.1666666269302368e-01, 3.1666666269302368e-01,
             3.1666666269302368e-01, 3.1666666269302368e-01,
             3.1666666269302368e-01, 3.1666666269302368e-01,
             3.1666666269302368e-01, 3.1666666269302368e-01,
             3.1666666269302368e-01, 3.1666666269302368e-01,
             3.1666666269302368e-01, 3.1666666269302368e-01,
             3.1666666269302368e-01, 3.1666666269302368e-01,
             3.1666666269302368e-01, 3.1666666269302368e-01,
             3.1666666269302368e-01, 3.1666666269302368e-01,
             3.1666666269302368e-01, 3.1666666269302368e-01,
             3.1666666269302368e-01, 3.1666666269302368e-01,
             3.1666666269302368e-01, 3.1666666269302368e-01,
             3.1666666269302368e-01, 3.1666666269302368e-01,
             3.1666666269302368e-01, 3.1666666269302368e-01,
             3.1666672229766846e-01, 3.1666672229766846e-01,
             3.1666672229766846e-01, 3.1666672229766846e-01,
             3.1666666269302368e-01, 3.1666666269302368e-01,
             3.1666666269302368e-01, 3.1666666269302368e-01,
             3.1666666269302368e-01, 3.1666666269302368e-01,
             3.1666666269302368e-01, 3.1666666269302368e-01,
             3.1666666269302368e-01, 3.1666666269302368e-01,
             3.1666666269302368e-01, 3.1666666269302368e-01,
             3.1666666269302368e-01, 3.1666666269302368e-01,
             3.1666666269302368e-01, 3.1666666269302368e-01,
             3.1666666269302368e-01, 3.1666666269302368e-01,
             3.1666666269302368e-01, 3.1666666269302368e-01,
             3.1666666269302368e-01, 3.1666666269302368e-01, -1., -1.,
             -1., -1., -1., -1., -1., -1., -1., -1., -1., -1., -1., -1.,
             -1., -1., -1., -1., -1. ]
         index: [ 46, 31, 32, 33, 34, 35, 36, 37, 38, 39, 40, 41, 42, 43,
             44, 45, 1, 47, 48, 49, 50, 51, 52, 53, 54, 55, 56, 57, 58,
             59, 0, 29, 2, 3, 4, 5, 6, 7, 8, 9, 10, 11, 12, 13, 14, 15,
             17, 16, 30, 28, 27, 26, 25, 24, 23, 22, 21, 20, 19, 18, 337,
             336, 335, 334, 333, 332, 331, 330, 329, 327, 328, 319, 320,
             321, 322, 323, 324, 325, 326 ]
      -
         sv_count: 110
         rho: -1.6666666666666666e-01
         alpha: [ 8.3333331346511841e-01, 8.3333331346511841e-01,
             8.3333331346511841e-01, 8.3333331346511841e-01,
             8.3333331346511841e-01, 8.3333331346511841e-01,
             8.3333331346511841e-01, 8.3333331346511841e-01,
             8.3333331346511841e-01, 8.3333331346511841e-01,
             8.3333331346511841e-01, 8.3333331346511841e-01,
             8.3333331346511841e-01, 8.3333331346511841e-01,
             8.3333331346511841e-01, 8.3333331346511841e-01,
             8.3333331346511841e-01, 8.3333331346511841e-01,
             8.3333331346511841e-01, 8.3333331346511841e-01,
             8.3333331346511841e-01, 8.3333331346511841e-01,
             8.3333331346511841e-01, 8.3333331346511841e-01,
             8.3333331346511841e-01, 8.3333331346511841e-01,
             8.3333331346511841e-01, 8.3333331346511841e-01,
             8.3333331346511841e-01, 8.3333331346511841e-01,
             8.3333337306976318e-01, 8.3333337306976318e-01,
             8.3333337306976318e-01, 8.3333337306976318e-01,
             8.3333337306976318e-01, 8.3333337306976318e-01,
             8.3333337306976318e-01, 8.3333337306976318e-01,
             8.3333337306976318e-01, 8.3333337306976318e-01,
             8.3333337306976318e-01, 8.3333337306976318e-01,
             8.3333337306976318e-01, 8.3333337306976318e-01,
             8.3333337306976318e-01, 8.3333337306976318e-01,
             8.3333337306976318e-01, 8.3333337306976318e-01,
             8.3333337306976318e-01, 8.3333337306976318e-01,
             8.3333331346511841e-01, 8.3333331346511841e-01,
             8.3333331346511841e-01, 8.3333331346511841e-01,
             8.3333331346511841e-01, 8.3333331346511841e-01,
             8.3333331346511841e-01, 8.3333331346511841e-01,
             8.3333331346511841e-01, 8.3333331346511841e-01, -1., -1.,
             -1., -1., -1., -1., -1., -1., -1., -1., -1., -1., -1., -1.,
             -1., -1., -1., -1., -1., -1., -1., -1., -1., -1., -1., -1.,
             -1., -1., -1., -1., -1., -1., -1., -1., -1., -1., -1., -1.,
             -1., -1., -1., -1., -1., -1., -1., -1., -1., -1., -1., -1. ]
         index: [ 46, 31, 32, 33, 34, 35, 36, 37, 38, 39, 40, 41, 42, 43,
             44, 45, 1, 47, 48, 49, 50, 51, 52, 53, 54, 55, 56, 57, 58,
             59, 0, 29, 2, 3, 4, 5, 6, 7, 8, 9, 10, 11, 12, 13, 14, 15,
             17, 16, 30, 28, 27, 26, 25, 24, 23, 22, 21, 20, 19, 18, 374,
             363, 373, 372, 371, 370, 369, 368, 367, 366, 365, 364, 379,
             375, 376, 377, 378, 380, 381, 382, 383, 384, 385, 386, 387,
             361, 338, 339, 340, 341, 342, 343, 344, 345, 346, 362, 347,
             348, 350, 349, 360, 359, 358, 357, 356, 355, 354, 353, 352,
             351 ]
      -
         sv_count: 143
         rho: 2.7710843373493976e-01
         alpha: [ 1., 1., 1., 1., 1., 1., 1., 1., 1., 1., 1., 1., 1., 1.,
             1., 1., 1., 1., 1., 1., 1., 1., 1., 1., 1., 1., 1., 1., 1.,
             1., 1., 1., 1., 1., 1., 1., 1., 1., 1., 1., 1., 1., 1., 1.,
             1., 1., 1., 1., 1., 1., 1., 1., 1., 1., 1., 1., 1., 1., 1.,
             1., -7.2289150953292847e-01, -7.2289150953292847e-01,
             -7.2289150953292847e-01, -7.2289156913757324e-01,
             -7.2289156913757324e-01, -7.2289156913757324e-01,
             -7.2289156913757324e-01, -7.2289156913757324e-01,
             -7.2289156913757324e-01, -7.2289156913757324e-01,
             -7.2289156913757324e-01, -7.2289156913757324e-01,
             -7.2289156913757324e-01, -7.2289156913757324e-01,
             -7.2289156913757324e-01, -7.2289156913757324e-01,
             -7.2289156913757324e-01, -7.2289156913757324e-01,
             -7.2289156913757324e-01, -7.2289156913757324e-01,
             -7.2289156913757324e-01, -7.2289156913757324e-01,
             -7.2289156913757324e-01, -7.2289156913757324e-01,
             -7.2289156913757324e-01, -7.2289156913757324e-01,
             -7.2289156913757324e-01, -7.2289156913757324e-01,
             -7.2289156913757324e-01, -7.2289156913757324e-01,
             -7.2289156913757324e-01, -7.2289156913757324e-01,
             -7.2289156913757324e-01, -7.2289156913757324e-01,
             -7.2289156913757324e-01, -7.2289156913757324e-01,
             -7.2289156913757324e-01, -7.2289156913757324e-01,
             -7.2289156913757324e-01, -7.2289156913757324e-01,
             -7.2289156913757324e-01, -7.2289156913757324e-01,
             -7.2289156913757324e-01, -7.2289156913757324e-01,
             -7.2289156913757324e-01, -7.2289156913757324e-01,
             -7.2289156913757324e-01, -7.2289156913757324e-01,
             -7.2289156913757324e-01, -7.2289156913757324e-01,
             -7.2289156913757324e-01, -7.2289156913757324e-01,
             -7.2289156913757324e-01, -7.2289156913757324e-01,
             -7.2289156913757324e-01, -7.2289156913757324e-01,
             -7.2289156913757324e-01, -7.2289156913757324e-01,
             -7.2289156913757324e-01, -7.2289156913757324e-01,
             -7.2289156913757324e-01, -7.2289156913757324e-01,
             -7.2289156913757324e-01, -7.2289156913757324e-01,
             -7.2289156913757324e-01, -7.2289156913757324e-01,
             -7.2289156913757324e-01, -7.2289156913757324e-01,
             -7.2289156913757324e-01, -7.2289156913757324e-01,
             -7.2289156913757324e-01, -7.2289156913757324e-01,
             -7.2289156913757324e-01, -7.2289156913757324e-01,
             -7.2289156913757324e-01, -7.2289156913757324e-01,
             -7.2289156913757324e-01, -7.2289156913757324e-01,
             -7.2289156913757324e-01, -7.2289156913757324e-01,
             -7.2289156913757324e-01, -7.2289156913757324e-01,
             -7.2289150953292847e-01 ]
         index: [ 46, 31, 32, 33, 34, 35, 36, 37, 38, 39, 40, 41, 42, 43,
             44, 45, 1, 47, 48, 49, 50, 51, 52, 53, 54, 55, 56, 57, 58,
             59, 0, 29, 2, 3, 4, 5, 6, 7, 8, 9, 10, 11, 12, 13, 14, 15,
             17, 16, 30, 28, 27, 26, 25, 24, 23, 22, 21, 20, 19, 18, 450,
             449, 448, 447, 446, 445, 444, 443, 442, 441, 440, 439, 438,
             437, 436, 435, 434, 433, 432, 431, 430, 461, 412, 470, 469,
             468, 467, 466, 465, 464, 463, 462, 451, 460, 459, 458, 457,
             456, 455, 454, 453, 452, 397, 407, 406, 405, 404, 403, 402,
             401, 400, 399, 398, 428, 396, 395, 394, 393, 392, 391, 390,
             389, 388, 409, 429, 427, 426, 425, 424, 423, 422, 421, 420,
             419, 417, 416, 415, 414, 413, 408, 411, 410, 418 ]
      -
         sv_count: 110
         rho: -1.6666666666666666e-01
         alpha: [ 8.3333331346511841e-01, 8.3333331346511841e-01,
             8.3333331346511841e-01, 8.3333331346511841e-01,
             8.3333331346511841e-01, 8.3333331346511841e-01,
             8.3333331346511841e-01, 8.3333331346511841e-01,
             8.3333331346511841e-01, 8.3333331346511841e-01,
             8.3333331346511841e-01, 8.3333331346511841e-01,
             8.3333331346511841e-01, 8.3333331346511841e-01,
             8.3333331346511841e-01, 8.3333331346511841e-01,
             8.3333331346511841e-01, 8.3333331346511841e-01,
             8.3333331346511841e-01, 8.3333331346511841e-01,
             8.3333331346511841e-01, 8.3333331346511841e-01,
             8.3333331346511841e-01, 8.3333331346511841e-01,
             8.3333331346511841e-01, 8.3333331346511841e-01,
             8.3333331346511841e-01, 8.3333331346511841e-01,
             8.3333331346511841e-01, 8.3333331346511841e-01,
             8.3333337306976318e-01, 8.3333337306976318e-01,
             8.3333337306976318e-01, 8.3333337306976318e-01,
             8.3333337306976318e-01, 8.3333337306976318e-01,
             8.3333337306976318e-01, 8.3333337306976318e-01,
             8.3333337306976318e-01, 8.3333337306976318e-01,
             8.3333337306976318e-01, 8.3333337306976318e-01,
             8.3333337306976318e-01, 8.3333337306976318e-01,
             8.3333337306976318e-01, 8.3333337306976318e-01,
             8.3333337306976318e-01, 8.3333337306976318e-01,
             8.3333337306976318e-01, 8.3333337306976318e-01,
             8.3333331346511841e-01, 8.3333331346511841e-01,
             8.3333331346511841e-01, 8.3333331346511841e-01,
             8.3333331346511841e-01, 8.3333331346511841e-01,
             8.3333331346511841e-01, 8.3333331346511841e-01,
             8.3333331346511841e-01, 8.3333331346511841e-01, -1., -1.,
             -1., -1., -1., -1., -1., -1., -1., -1., -1., -1., -1., -1.,
             -1., -1., -1., -1., -1., -1., -1., -1., -1., -1., -1., -1.,
             -1., -1., -1., -1., -1., -1., -1., -1., -1., -1., -1., -1.,
             -1., -1., -1., -1., -1., -1., -1., -1., -1., -1., -1., -1. ]
         index: [ 46, 31, 32, 33, 34, 35, 36, 37, 38, 39, 40, 41, 42, 43,
             44, 45, 1, 47, 48, 49, 50, 51, 52, 53, 54, 55, 56, 57, 58,
             59, 0, 29, 2, 3, 4, 5, 6, 7, 8, 9, 10, 11, 12, 13, 14, 15,
             17, 16, 30, 28, 27, 26, 25, 24, 23, 22, 21, 20, 19, 18, 508,
             507, 506, 505, 504, 503, 502, 501, 500, 496, 498, 497, 509,
             510, 511, 512, 513, 514, 515, 516, 517, 518, 519, 520, 499,
             494, 495, 471, 472, 473, 474, 475, 476, 477, 478, 479, 480,
             481, 483, 482, 493, 492, 491, 490, 489, 487, 486, 485, 484,
             488 ]
      -
         sv_count: 110
         rho: -1.6666666666666666e-01
         alpha: [ 8.3333331346511841e-01, 8.3333331346511841e-01,
             8.3333331346511841e-01, 8.3333331346511841e-01,
             8.3333331346511841e-01, 8.3333331346511841e-01,
             8.3333331346511841e-01, 8.3333331346511841e-01,
             8.3333331346511841e-01, 8.3333331346511841e-01,
             8.3333331346511841e-01, 8.3333331346511841e-01,
             8.3333331346511841e-01, 8.3333331346511841e-01,
             8.3333331346511841e-01, 8.3333331346511841e-01,
             8.3333331346511841e-01, 8.3333331346511841e-01,
             8.3333331346511841e-01, 8.3333331346511841e-01,
             8.3333331346511841e-01, 8.3333331346511841e-01,
             8.3333331346511841e-01, 8.3333331346511841e-01,
             8.3333331346511841e-01, 8.3333331346511841e-01,
             8.3333331346511841e-01, 8.3333331346511841e-01,
             8.3333331346511841e-01, 8.3333331346511841e-01,
             8.3333337306976318e-01, 8.3333337306976318e-01,
             8.3333337306976318e-01, 8.3333337306976318e-01,
             8.3333337306976318e-01, 8.3333337306976318e-01,
             8.3333337306976318e-01, 8.3333337306976318e-01,
             8.3333337306976318e-01, 8.3333337306976318e-01,
             8.3333337306976318e-01, 8.3333337306976318e-01,
             8.3333337306976318e-01, 8.3333337306976318e-01,
             8.3333337306976318e-01, 8.3333337306976318e-01,
             8.3333337306976318e-01, 8.3333337306976318e-01,
             8.3333337306976318e-01, 8.3333337306976318e-01,
             8.3333331346511841e-01, 8.3333331346511841e-01,
             8.3333331346511841e-01, 8.3333331346511841e-01,
             8.3333331346511841e-01, 8.3333331346511841e-01,
             8.3333331346511841e-01, 8.3333331346511841e-01,
